0.56176436
1.1296552
1.2676343
2.6238441
2.5788224
2.6648674
-4.6720595
2.444033
-1.555054
1.4866012
8.265861
2.7221603
2.1147387
7.613258
2.6472127
-2.6158698
-2.0756288
2.3624978
1.8405709
10.77705
4.257485
7.245844
2.9912024
1.4717815
-4.465825
3.2660737
7.962736
12.080149
3.4082587
5.849107
-14.8419
4.164053
-0.44271398
6.0725503
1.744425
0.07401655
0.74636513
-1.3362029
5.393847
-1.6778157
-1.5382107
1.2078664
-0.43402368
1.9102247
-0.5701451
-0.581955
-0.26898384
-1.2191911
4.4495087
4.7555995
-1.3241518
3.4385004
-1.6515269
3.783145
-2.4536264
-7.465852
4.624888
-5.8846
6.317245
1.8677373
2.2591057
2.955668
0.93216383
13.277713
9.670495
7.529747
-0.65688765
9.346398
0.40134215
7.471589
-0.4306966
-6.070674
4.7764897
1.5554454
-2.5822916
3.9726968
5.8229027
-18.933973
10.342318
1.5528882
-2.3578897
3.1085722
9.939835
6.41661
9.314919
-7.47996
5.2861714
10.005109
-6.450043
7.292305
-10.89763
4.8092985
-0.097415924
3.0297236
14.372168
3.1660278
10.5726795
12.306981
2.704609
10.7773
8.753524
-4.8633165
12.335441
3.361909
-0.012145519
3.0149193
8.464346
-0.9850073
5.8104763
2.0055585
-0.100526154
6.445168
-4.544409
0.23244858
10.087281
-0.82195723
-2.0622425
1.8462
3.1463866
16.968752
8.3998
0.85115755
-5.172389
2.8437624
3.4531736
-0.23038286
2.7735257
-0.02928251
1.1834967
0.35988653
23.002117
29.984947
0.6068846
-1.7792025
4.405507
4.511944
0.5577762
-0.12486382
0.020382047
0.006146781
7.00749
0.65012354
0.4272369
-0.013993323
0.38877296
4.6846275
9.380268
17.688423
-0.0006713867
0.82595843
0.03481245
-0.027125262
3.3408375
-0.14006114
0.10671115
0.12956023
-0.08758188
1.7017835
-0.069841385
-0.087222286
-0.62413025
0.8771398
0.6337337
6.1516504
0.25487596
8.722522
1.552753
7.0364275
12.062059
-0.03573648
0.090204
-1.6658821
12.442651
0.3827203
0.3396144
-38.10177
16.16552
-4.2200503
-3.2453187
-26.637058
20.340845
-5.1575336
10.164819
-6.532033
-4.7914433
7.265109
-0.073873386
-5.8949485
28.831432
6.7561736
11.738811
-2.0499933
9.224452
3.1394346
0.41392016
-16.996677
3.7469063
4.362365
9.072268
-2.262769
3.019964
3.6819005
0.7469857
-2.4196637
0.5883229
3.0246239
1.7943022
-0.5717193
5.2692943
-4.3338137
-1.3330812
-1.2217665
-1.723823
1.5267763
1.5436136
2.6833818
-1.0856403
-0.78465396
2.632634
2.6178772
2.4100907
1.7013317
2.9543686
-0.21021397
2.1098702
-0.11673487
2.6351104
2.18344
2.2019413
-0.5318869
3.059559
3.0410564
4.544103
1.471469
2.2648687
2.0787241
2.05306
-1.7053727
2.343808
2.6990483
3.3458145
6.8129926
2.1321833
-0.8675488
2.7145414
1.91995
2.9245439
-0.40745655
2.104161
4.235512
-2.4438732
3.33198
0.95815676
1.9936936
1.7660552
2.2483945
1.2634581
0.1565014
3.6109014
2.8116074
3.849043
2.2255607
-1.0477775
2.7273986
3.0493112
1.2014344
-1.1017195
3.0764942
4.1345816
1.4816836
-4.147402
1.6773157
0.07516308
-0.8299459
0.17936788
1.2439742
2.1635215
1.702646
0.22171916
7.5196624
10.157574
-6.506254
5.95673
0.6134404
11.318787
0.32556558
-0.0015635826
0.21666113
-0.9571848
5.0431905
-0.74035996
1.2402532
2.2687955
-4.531356
11.365745
0.37303326
0.24179578
0.5274212
1.0811386
2.9535072
1.1840098
-1.1086808
0.10457711
2.8760605
-0.2847094
0.63693213
2.9224474
0.48137927
0.60697633
1.2705526
4.162525
6.9627295
14.300474
11.016124
7.932099
-0.7664349
5.7729483
6.636486
1.532556
1.2862661
-10.906201
6.279404
1.9207383
6.953919
-0.6468287
0.2779792
4.1576266
11.134945
5.0704865
0.23088783
2.5252612
-0.012137793
-0.47768182
-0.08961508
1.2862685
-0.051778838
0.2652742
0.0030574724
1.0238541
3.9089456
6.6640987
-3.7847466
-4.308586
5.5676355
-8.545106
2.8254735
-8.443166
9.610843
-16.391022
34.321022
21.880497
-13.32728
-1.0054256
-0.53669167
23.34602
-3.0486436
4.6960373
-15.222915
12.859494
-3.9246643
-16.056639
16.41891
8.27135
0.63799286
-14.631681
-13.373029
-7.647413
16.429625
4.557455
-1.4967408
-2.1679263
-0.6086336
-0.4991067
-0.5895883
-0.30794007
3.5377069
-0.2889891
-1.1008861
2.5333366
-0.41188174
0.20828158
-1.2263713
-1.7758793
-0.7258305
1.6935323
-0.25416815
-0.39005852
6.6023088
-0.3997721
0.11893437
-0.11791574
-2.4771297
3.2974901
0.56083214
3.120615
9.713688
2.3749504
-0.78104204
-2.4617608
-1.9752877
-2.4461484
-1.4015237
2.6091158
-2.0532546
-0.56209844
1.8706514
1.8250785
1.6372253
3.7911887
2.1044843
-0.32646576
4.0074077
-1.0959412
2.3120084
1.7021773
3.6579597
-3.1977072
2.0258048
0.90790546
3.4801586
-0.59114146
0.3363367
6.066702
3.37355
-2.4500296
7.2157106
7.0728884
-1.1101134
3.248881
-1.2120043
3.0492792
5.921611
7.596567
0.34641874
-1.0716045
-0.76602596
-1.665959
2.8938875
-0.065865315
0.21551295
20.451141
-0.9473259
0.5759398
0.60107875
0.16457558
7.873439
6.245881
0.56197643
14.658508
11.304264
7.7176423
0.01702857
8.1642475
15.567598
10.987436
1.4588809
0.25679845
-0.37794256
6.340681
26.917572
5.9354095
12.438961
13.122811
1.7312948
2.118103
1.4219971
10.259657
43.038044
-0.4644398
5.3407516
0.9000585
2.4049625
0.6878598
1.9480361
1.4249442
0.09052956
8.731185
-1.8539193
0.024587095
0.16924405
23.666292
0.74235797
0.18164253
15.297354
8.571615
22.03309
-1.4206114
0.9332118
1.7904851
0.4304854
6.876664
1.4449542
11.952218
6.545206
0.8429818
0.6078892
1.4529189
24.653217
19.200573
1.0494184
-0.8475938
0.92582536
1.3443222
0.066672325
0.620162
7.430919
0.08981204
0.71849585
-1.1920565
11.490281
6.344227
1.5768485
-7.4498196
40.13612
6.369837
-13.250247
-7.1890984
15.504391
-4.560632
-4.746663
0.64521235
-26.088762
6.3936887
1.1551389
4.550885
16.757107
-16.330616
22.588888
21.00776
1.7940708
7.538696
11.521832
19.479856
10.637394
7.4671025
13.250311
-20.868242
-47.600838
-16.63875
2.7785287
-11.0521965
-0.60653675
-30.644245
-2.5324142
1.2072097
11.174087
1.2139467
-16.28023
-19.883753
10.640258
30.767645
-8.62203
-0.46343863
1.8278922
-1.8972329
0.8306321
2.2659898
2.5903087
2.0873942
1.8892813
-4.5805283
1.6677061
2.0539393
2.5047123
2.2526543
-0.485073
0.01564189
-2.9000416
1.9018202
2.647326
1.1687803
0.8517998
1.8402815
1.8525041
1.0933192
1.8005184
1.9558274
2.7427201
1.9306153
0.34800047
3.8656337
2.9627686
1.690305
2.3538995
2.3629425
2.0486894
0.89143187
2.3361712
1.644378
2.4594653
-3.5398593
3.2878468
1.7077585
-2.11594
2.882593
-0.5911433
2.7388031
0.41001084
2.5408034
1.1336612
1.9054816
-0.34950623
5.095337
0.3498041
1.83854
1.4281995
1.972618
1.6318731
2.1770115
0.2722003
2.5770288
2.116339
3.4803367
3.200282
0.31445783
1.6426947
3.063211
2.6776953
3.076845
0.21644203
-0.5505039
-1.9450101
2.582934
1.7722194
0.27446035
-3.034909
-1.264938
2.3020866
2.6774123
1.4097857
-0.4419541
2.8271291
3.155877
2.0241797
2.2360315
0.3748804
2.81977
2.2169085
2.7788858
1.7902244
3.112796
2.4104314
2.7194023
2.1033053
1.1075059
1.8680364
0.70279115
-1.1264733
-0.10170174
2.6015606
1.4695518
-1.2175205
4.995446
2.0658705
2.5435383
1.9284325
2.8414874
3.674083
-2.7427802
0.8127945
1.3066094
-3.2899375
1.2624611
1.9577317
2.6289973
3.2166724
2.0766897
-1.3199456
1.8035811
1.7627513
1.9024072
2.5116148
1.5221639
-0.47886157
-0.952178
-0.85961294
0.15778206
-0.3793158
-0.18889666
-0.47747073
0.029990245
0.07851374
-0.08290285
1.0965487
-0.030168649
0.38010278
1.233971
-2.7028382
0.25778472
1.533144
0.9988842
-0.7309195
0.8021363
-0.94465536
-1.8926115
0.10816479
-0.076007545
-0.15580732
0.90598845
-1.3556923
0.11758363
2.0178602
3.0495849
4.5058594
3.494883
0.21538451
1.6127076
0.12680325
1.3521417
3.1175234
-0.7463519
1.8125066
0.13882136
-0.1193561
2.705044
-3.7737207
0.8462743
0.3585552
3.67643
-1.1266274
-2.573633
-1.9844325
2.5896192
1.2424588
1.391987
-2.6394365
0.74379855
-0.55427873
-0.18194866
1.2972571
2.8443825
-0.055410028
1.9476299
1.1171913
-1.1889814
1.9877788
-0.079573184
3.9903755
-0.16679928
-0.2269446
0.34919003
-3.4486003
-0.11187298
1.8283868
1.5240998
1.4364797
1.509434
0.74891627
2.1249168
0.5429745
0.096497476
-0.13655388
-0.21676525
0.4736321
-0.7185743
0.04053101
1.7490554
-3.1171114
0.08877218
2.9594016
-0.025147539
0.48002988
0.021471262
-0.131199
0.6805186
3.0618873
0.6187103
-0.7297339
0.2263417
0.4151476
0.007514313
-2.4840236e-05
21.172804
1.7494547
0.60966694
0.4655013
1.7723013
2.383092
-1.9578289
1.5410788
0.57125545
-1.290436
0.013930559
-0.20611382
-0.3938353
1.0446346
1.2911873
0.9921923
2.6884117
-0.10600196
4.3289075
-0.097671
0.9274548
-2.4555278
2.112802
0.23498121
5.8077946
-1.9044464
4.3982816
-0.8183146
-1.0831978
-2.0707083
-4.882852
1.9762381
-1.1269518
-2.865723
-0.92852247
-2.7165227
1.2016355
-4.258479
2.5876238
1.2348152
-1.5613214
-0.15266041
3.4165478
-4.7648554
3.834996
-10.061006
-1.5883088
-1.1715676
1.9452006
4.0445375
2.532259
3.5674248
-1.5617942
1.1176342
-4.062317
-3.1713336
1.4085039
3.590787
-1.7459567
2.6318371
1.5755808
0.347953
-1.5142715
-2.5184782
0.40558147
2.1138597
1.523581
1.2695359
1.2911491
1.7687012
2.192626
1.5999511
1.4443899
3.484247
0.12025954
0.75319344
1.5243236
0.206653
1.7849748
2.5115929
0.6878038
2.6560316
1.5236418
1.8407844
1.6884595
0.22885524
-1.9556265
2.1834533
-0.24929357
-0.35803688
1.4315572
1.228972
1.600789
1.8990179
1.7351612
-0.44639438
2.3308446
-4.190042
3.6576629
2.060262
0.7947891
0.46081787
0.99235034
-2.5349386
-0.06266956
1.3194267
1.6697679
2.0446699
2.686094
0.33307427
-2.4288652
1.7763321
0.9244856
-0.9009651
2.2130225
1.8919579
1.5815597
2.166808
1.404229
1.4894353
0.38000458
1.0252852
2.0533922
2.1921537
2.1097548
1.5789578
1.8749517
1.6596906
1.9851288
1.5417036
2.2960734
1.967383
-1.5238757
1.5935243
0.7979385
1.2315646
0.71122897
-4.358804
-1.6286213
1.1894987
2.1546547
1.6396872
2.2371168
1.98868
-5.2410426
1.9630419
1.5473446
2.4653878
1.2397442
0.66692346
1.826515
0.80741096
1.8282586
-0.048476808
1.9529924
-0.46713245
4.6935334
1.5656329
1.6435705
1.708837
0.5230473
1.698755
2.2132857
1.112005
3.2366364
2.4506216
2.080612
-0.699511
1.6595217
1.6077074
-1.155844
0.07046093
1.8248755
0.50825036
-0.52709526
0.55669004
1.965847
1.0375242
2.0961068
0.913264
-0.20833743
0.002694279
-0.21381548
-0.029695213
2.5783255
5.1580863
1.629146
-0.46814114
-0.034132615
-0.93351555
1.2668339
2.2709768
1.9557235
2.836915
-1.19004
-4.237335
-0.43444633
-2.1351404
-0.17489482
-0.12782459
1.8606353
0.52093625
-0.6633963
-0.27869153
2.4212523
1.5437193
1.918428
1.8263628
1.6008341
-0.2600688
-0.05298005
-0.24284443
0.060455516
-1.055134
2.5103807
-0.33397296
1.7462169
-5.3483872
2.1378016
-0.12011057
0.96917355
0.1460917
1.7294374
-2.5814557
0.38160872
0.8505183
-1.6055353
5.5748453
4.621302
1.5982559
-2.7920318
0.9503448
0.7626445
-0.40237492
-0.083360225
0.0047029853
0.04668361
-1.0766916
-0.04440081
-0.87689006
-2.5837421
2.7212992
4.746735
-0.4022861
3.6124697
-0.60017323
2.4857042
0.001812011
9.5534
-0.1073769
-0.015465185
0.02074904
-2.656859
-0.9717902
-3.5918791
0.07219265
4.149322
-2.6747754
1.6412203
-0.19140634
2.6013699
-0.6185472
0.0314544
3.70003
-0.030048862
4.286479
1.1547785
1.3065093
-0.45448864
-2.384045
-0.821148
0.734723
-0.107797295
1.73293
-0.69271195
1.6238093
8.283304
-8.420729
-1.4394112
-0.28744525
-1.5775542
-0.02835317
-1.0709839
-0.32355574
1.940489
-0.14095074
-0.05893735
1.6952226
0.2765636
-0.2599803
-2.8812337
-0.36009964
-0.09753223
-2.318739
0.14382029
0.06327107
-0.2653794
1.221
-0.18594514
0.9212112
-0.3321367
-2.8196785
3.3276856
1.7072381
-5.843795
-0.5390792
4.239247
-2.1898632
1.3693382
-2.272569
-3.0152328
-4.394396
0.916237
-3.7822206
-3.3749564
-0.343928
0.89592594
-1.9830191
-1.753021
7.421694
1.3845631
0.27829394
2.0157027
-0.06008015
4.440254
-7.1300983
-4.7863865
1.0057335
1.6020423
2.2471955
2.5230317
-7.2049794
-10.2287445
2.2084978
0.48909453
-1.3588306
5.01346
8.790074
-7.0109715
8.934539
0.46096578
-0.15821622
1.5015373
-1.2779201
3.2456102
-1.2199317
-0.2734889
2.1246302
-0.39132172
0.3313416
0.45380887
-1.3752716
-1.4165257
1.6926742
-0.23698299
-1.0329174
-0.19084537
1.1563511
0.1712509
-1.1847318
-1.724491
-1.3418565
0.7431396
1.3141364
-1.3770407
-1.3362291
0.34333056
1.0909824
1.3111706
-1.4103814
-0.99862546
0.36309382
-1.333689
0.051861152
0.01370942
-1.1283534
1.1006029
-1.4705853
1.4048628
-0.7289422
-0.82231313
0.103111595
-1.2154174
1.7701051
-1.4423648
-0.97780293
-1.4247147
-1.4517919
-1.4847912
-1.3905244
-1.1373606
-1.2527986
0.10933152
-1.3883592
-0.594766
0.37262815
-1.2871777
-0.2350904
1.6679852
-1.4708285
0.33653998
-0.01290758
0.09909805
-1.2742456
-1.1321062
2.0466206
2.1017292
0.037365384
1.7945565
-0.37801728
-1.8933805
0.74225396
-1.4181069
-1.0371702
-1.153918
0.38936287
-1.4729592
-0.69431466
-1.5247954
-1.2474332
-0.23703413
-0.7588579
-0.24395865
-0.14774671
-1.1069922
3.491177
-1.4225235
-1.6096584
-0.6122194
0.78021574
-1.2793095
-0.7072951
-0.015136497
-0.6983233
0.53198665
-0.76628286
-1.196932
1.6540867
0.925064
-0.16766296
0.74618906
0.08120787
-1.2462045
0.479958
-1.2814225
-1.1722816
-1.6859367
1.0750483
-1.5408005
-0.9713956
-0.09581448
-0.9902984
-2.934649
-1.5412724
-0.9237264
-1.2814405
-0.27989614
-0.5994489
-1.0170027
-1.0415015
0.41092283
-1.1204784
-1.0787331
0.25984573
-1.6500783
-0.08837686
-0.40252483
2.1961155
-0.37104976
-0.34898233
-1.2875763
1.2617636
-0.28173795
-1.3995239
2.120386
-0.4048016
0.075305685
-2.5741425
0.16146675
-0.6251209
1.9711447
-0.8731605
-1.4954047
-0.94323885
-1.0405015
-0.23052366
-1.5021344
-0.09637162
-0.9899708
-1.1375395
-0.20376086
-2.1082175
-0.18909368
-0.12877569
0.93923557
-1.4299074
1.126957
0.074407935
-1.5266225
-1.0246402
-1.5458944
-1.4905087
-1.4833713
-0.31834206
-0.6237192
-1.1141417
-0.7863909
-1.0198863
-0.71975386
-0.0128993215
-1.788885
0.014991474
0.28489026
-0.20495419
-0.3962172
-1.129682
-1.5254366
-0.6116327
-1.3763304
-0.8306746
2.1541057
-1.6538569
0.08928116
1.9417311
-1.7181717
-1.3005623
-0.6628648
-1.0882215
0.80718833
-1.3499535
1.5660464
1.719383
-1.5378921
-0.756823
-1.062917
0.045509107
-1.617502
-0.3191217
2.7205482
-1.5428855
-0.020113682
-1.499711
1.49868
1.292062
-1.0721831
1.8328885
0.056353882
0.4333587
-1.512203
-1.2852433
0.41546002
-0.90238863
-0.008663957
0.8150914
-0.11554744
2.0110953
-1.5028185
0.31594017
-1.579936
-0.25364253
-1.3592395
1.9588655
-0.3486948
-0.096358955
2.2356467
0.14669387
-0.27778584
0.21938632
-0.0516873
-0.98783875
0.18567713
-0.15702564
0.36036944
-1.4692127
-1.3097329
-0.72718656
-1.3934577
0.8942292
-1.4632922
0.76173043
-0.19521019
-0.89129496
2.6131496
4.7626004
4.9700036
-1.089504
1.387651
0.37019217
0.30261385
7.142291
1.7704607
4.3333035
4.937147
-0.16436505
2.760821
0.52880824
5.5439982
2.8642664
2.3775325
3.0276809
3.2217486
0.32434082
0.2017658
2.7145517
4.872355
2.856248
2.7150052
0.5987791
0.45539057
2.2596762
3.5500474
-0.8654589
-1.1644449
1.2137555
2.3400486
4.14253
-0.014929086
-0.013164282
0.41732305
3.2434824
2.0466697
-1.0210919
2.0563464
2.8929899
2.3631902
2.4027998
3.9801638
4.989675
4.553632
5.662165
2.942134
5.259638
-0.65631557
0.72700477
2.3273306
2.159279
-0.5045707
1.8842046
2.4961355
3.58954
-0.57989824
2.2939205
2.10723
2.2769315
4.5768657
2.9940739
3.1141233
2.5193036
2.5426736
2.5035274
3.9934888
0.9964104
1.0641147
4.3805447
1.1933285
2.0886462
4.159832
-0.17066593
-2.0886166
3.578987
1.8487686
3.1783352
-0.36958888
2.1557922
2.084216
5.3292065
4.8095856
3.0477953
1.9270544
2.3458853
6.2341776
1.6028676
-0.996124
3.7050264
2.8382983
3.132387
2.9323237
-0.79796374
2.4531043
-0.8195553
2.5344431
2.6398273
3.2281392
1.3442388
4.7184386
4.104231
2.770145
2.6087708
2.9058459
4.726568
2.614103
3.3959148
1.6346631
2.8124928
3.1582446
2.346921
-0.7528209
3.475418
2.4229975
3.2047753
2.742615
5.4378767
-0.066476464
2.5993807
2.2286983
2.6428952
1.9360559
2.8037481
2.1052172
2.5563192
0.10093236
-0.7781733
2.3481991
5.5111494
3.2533162
2.3131616
2.8093472
2.1513321
-0.5919376
2.2662933
4.6124773
4.1409607
0.80565596
4.248403
2.5054617
1.5077817
5.0478964
-1.0849903
4.3327885
4.2995415
2.488685
-1.1992495
-0.71556854
2.517619
2.8984883
2.8123968
3.2039518
1.3187568
-2.0729733
1.8619764
4.190412
1.3292693
7.115368
2.2310102
1.3953204
0.6906853
1.5232642
1.1717124
1.8714511
6.1571755
1.8457507
4.871446
2.801757
3.7574198
-0.52594995
4.089834
4.8760552
3.893632
7.285926
1.2726533
0.59189457
1.7652042
2.3539982
3.016603
3.659881
3.496049
1.6746807
4.867792
2.6600163
5.3108597
-0.14348358
1.9975632
3.9110837
4.7884083
2.2759876
-0.8458523
2.735115
3.3382778
-0.5478026
0.851036
0.7597863
1.3171775
3.6105444
3.12841
2.5809445
2.6436093
-0.085880876
2.5263815
8.182037
0.8483267
2.0806723
0.71316874
1.19967
2.713028
-1.6567593
3.0808673
4.0151267
1.6031951
2.0838943
-0.34688395
1.5228696
2.6946497
2.5758064
2.442729
0.8332682
3.1503263
1.1519036
0.3422916
1.4973054
3.4757018
1.0515814
3.200889
5.765727
3.845193
5.0337434
3.1607687
-0.5431074
2.3526978
1.4060827
1.6234894
8.702883
-28.967325
2.7474008
-5.2926083
-1.8577088
8.545709
-12.764117
1.0963631
-1.3797005
-10.495404
-8.719925
20.524893
13.089552
-8.800133
9.183628
-0.013539276
-6.7024503
-3.3606253
-4.1258874
-1.0853964
5.4917355
-9.646194
-16.296701
0.6612087
3.2185776
3.249973
-0.9443711
21.373713
1.9900166
17.755945
0.99391943
3.834425
-17.465065
-3.4504023
7.7624516
-4.6081743
-12.165292
2.989187
3.5986075
-11.488834
11.17814
2.1338587
-1.730595
-7.08577
-14.438858
-6.4071145
-1.9978864
3.7051177
-18.081594
-12.471499
2.3656607
-7.5158205
31.061918
5.701469
-24.374357
-4.4795804
8.563185
9.895855
2.9157498
4.9321923
11.690195
2.595014
-18.645618
-3.0778236
27.548931
4.503804
23.277584
3.8730185
0.9685125
2.4682212
-0.90384495
5.933264
-5.743317
-9.493798
-9.073564
0.87105143
-1.8228989
-12.9105835
-0.84537226
13.63429
-1.6172371
-1.0550791
1.030927
1.6037185
-0.30187407
0.10451342
0.058821224
1.8050334
-1.4881305
0.0012604867
-0.3665174
0.021776859
-0.49153346
0.018287616
-0.23183936
-0.12772082
0.053483997
0.14302085
0.067145385
0.056908056
-0.3159475
1.0748023
-0.31648386
0.008277017
-0.09568732
-0.1315086
-1.5413786
0.114146896
1.043896
-0.029756008
1.2738549
1.875926
-1.5898647
0.066386744
0.068823904
-0.074312896
1.7676514
-1.486516
0.17675853
-0.6176985
-0.3708813
0.00990312
-0.07442473
0.6714634
1.2139907
-0.48533386
0.29272705
0.021056341
0.06437908
-0.8963771
0.28806332
0.14745776
-0.0006015338
-0.04584869
-0.07663585
-0.02320211
-0.19622056
-0.24451742
0.18845063
-0.28412494
0.10915733
1.5315704
-1.6146733
1.5051998
-0.29366612
-0.23643509
1.0779636
-0.35945278
0.5181106
1.0802174
-0.040453702
0.18090992
0.50355625
-0.27194926
0.27001205
-0.08766975
-0.030260392
-0.06404282
0.72802234
0.008740238
0.0024407906
-0.121260054
-0.04662418
0.006018672
1.0658491
-0.19266759
2.6197848
0.107221864
-1.8793827
0.1678497
-1.292846
1.8340527
0.025442654
0.4592883
0.013181684
0.090728864
0.05851422
-0.08003872
-0.006605588
0.035593465
-0.06953681
-0.15149178
0.14630328
0.109067835
0.25014314
0.019715145
-1.6884882
2.5182106
0.59804803
0.0417007
-0.0550501
1.2571543
-0.0008802931
-0.034488987
1.3284903
-0.10896527
0.08647114
0.70599186
2.3526187
-0.541785
-0.0423969
1.9604958
-1.4052444
0.15696882
-0.1720168
0.027918043
-0.0035383904
-0.18156596
0.0795892
2.2635245
0.053276118
2.1192417
-0.07778361
-0.47051305
0.021744069
0.006910122
0.080048904
-0.37856022
-0.0539517
0.21978632
0.10012089
2.0844808
-2.1811223
-0.43475023
0.32001862
0.025450315
-1.3758987
-0.39335683
-0.8121983
-0.2067245
0.016754553
0.1862092
-0.91271204
-0.14726806
-0.005766152
1.9176981
2.0243812
-0.110078484
-0.2648926
-0.5417741
-1.4678719
1.9367019
0.046765696
0.036346782
0.7025609
-0.104653366
-0.5815507
2.0969884
-0.012848458
-0.06890714
1.4481106
-1.4650884
0.3510885
2.3754363
0.028157279
0.16271758
0.010465028
1.3497792
-0.14875136
-0.012597721
-0.00020151213
-0.29865667
0.1118503
-0.389279
2.0662115
0.020668674
0.12406879
0.03495045
-0.015081374
0.041438825
0.07515174
-0.0767274
-0.069459826
1.5681709
1.0978113
1.2735705
0.15943779
0.03103001
-0.1785776
-0.58941716
0.8000869
-1.610753
-0.48170632
-1.4053552
-2.0978444
-0.9319395
-1.4018971
-1.543933
0.5179343
-1.4731945
-0.47455847
-1.7396959
-0.77665055
-1.4915853
-1.4662507
-1.631668
-1.4805452
-1.3010539
-1.3810734
-2.1900938
-1.486931
-1.0624255
-0.096728384
-1.4957643
-1.4285376
-1.5038989
0.5980913
-1.458552
1.5596848
-1.3950083
-2.977656
0.31804574
-0.6300267
-1.4053667
-1.7760127
-1.39256
0.9647209
1.1385362
-1.3569782
-1.2020915
-0.64090914
-1.4263072
-1.5099356
-0.7858324
-1.0022953
-1.5585033
-1.161585
-1.6437676
-1.4123839
0.22553842
-1.18262
-0.7127028
-1.3940164
-1.6922457
-1.7417115
-1.1367892
-0.6953855
-1.3609223
-1.4562382
-2.060592
-0.8612564
2.7188756
-0.10924867
-3.0074236
-1.1371936
-1.4557273
-2.6419554
-1.3634228
-2.9386866
-1.5301403
-1.5027553
-0.3007239
-0.640792
-0.59643734
-1.500762
-1.3969876
-1.452271
-1.1679031
-2.52097
-1.395569
-1.5085121
-1.4313709
-1.401381
-1.3991266
-1.1396108
-0.90952766
0.7217556
-1.2099526
-0.1656417
-1.377224
1.4626966
2.6665256
-1.4420502
-1.0929656
-1.4112091
-1.0836264
-1.40934
-1.5300441
-1.321526
-1.1513298
-1.3923345
-1.5011405
-1.786035
-1.1059326
-0.1286767
-1.4213749
-0.02515003
-1.315535
-0.12813747
-1.4695128
-1.4042844
0.696641
-1.3446202
-1.4298538
-1.8703312
0.7882377
-1.5009415
2.666509
-1.3244098
2.6330028
-1.5667951
-0.13036445
0.8512424
-0.8183645
-1.57273
-1.6322265
-1.4348545
-1.287992
-1.4541473
-1.4767201
-1.3893906
-0.30549747
-1.6373525
0.67816454
-1.3912709
-1.718762
-1.0084432
-0.6583934
-1.3721526
-1.58472
-1.5016617
-1.4615039
0.2928647
-1.1544954
2.4545724
-1.8693849
-0.19210947
-0.43673384
0.263009
2.42046
-1.2398247
-1.5047197
0.42377654
-1.5133002
-1.1926167
-3.885695
-1.4040371
-0.17329635
-1.026765
0.16642016
0.9526369
-2.8397682
-1.4548544
-1.4784112
-0.20166588
-0.4093787
0.3844642
0.20058155
-1.2604942
-1.505515
-0.8459999
1.7571397
-1.2205542
0.22133291
-1.3672847
-1.9648376
-1.4722327
-0.2835245
-1.7672257
-1.5376793
-1.3153814
-1.056236
-1.3464445
0.73489696
0.09863603
-1.3584158
-1.3789816
-1.3047638
-1.3987701
-1.5331925
-1.0469556
-1.4841917
-1.4959239
-1.2740325
-0.59460455
0.32837543
-0.55695647
-1.3672878
-1.4712852
2.3619905
-20.086546
1.2057722
11.199605
-0.33457065
3.2013655
1.607265
2.4987442
-67.0726
-2.1100733
-4.398979
11.928341
-6.9248466
-7.2890615
0.17574869
-19.53975
6.4980497
0.9896951
-0.8930498
-5.714511
2.467062
-10.377169
-28.128077
-7.957617
-2.0395253
8.930822
6.3877645
0.124234565
4.4291244
8.834237
0.53909355
-0.1802863
-4.473795
-0.53954524
11.409207
25.137623
1.4596727
-1.7116396
-1.2132206
-4.1752443
1.0882791
2.4177752
-0.63642
-4.3274407
14.673259
-0.22639461
-7.4445243
6.031399
0.2957882
-3.148325
0.91072416
3.5745256
-0.8290577
-2.7822382
-4.9473805
-7.386042
9.316078
-6.3512797
-14.302784
-3.0468323
-1.8268362
2.8253984
4.2031875
-13.613742
6.1247673
-2.5597503
-0.55959237
1.1079874
-1.4864402
-0.91341454
6.8527913
-12.230216
-2.0589209
3.2738273
-0.058681548
2.7963789
-4.429343
10.735225
-0.2140137
2.3345044
6.3849144
-0.20912878
1.6273264
0.04249382
0.46257806
-1.4361807
1.8440614
-0.9044509
-1.3812811
0.033309072
-0.94631094
0.21211812
1.3220562
-0.39360785
-0.2008171
-0.1584064
0.4186016
0.032111537
0.0025968803
-0.05217158
-0.79899704
-1.4043946
0.55961007
-0.009785365
-0.08802306
0.20153539
0.18275562
0.04068528
-1.4787241
-1.5418798
-0.87509036
1.718338
-0.25607342
1.881695
-0.55045575
0.048080448
-0.20799398
0.89714783
-1.1627133
-1.5459822
0.34268457
1.7998437
-0.7536091
1.8149596
-0.71717554
-0.65695965
0.7560158
0.18152079
-0.0006392482
0.29478917
0.29151714
0.9658893
0.9619866
0.12504557
-0.20594327
0.14806458
-0.17175558
-1.7955903
-1.5552249
-0.005241718
1.8235145
-0.1048475
0.05641826
-0.0184211
0.69312173
0.15640025
0.10400605
-1.4570396
0.06650171
-1.4647535
0.073733345
-0.5203591
-1.5961477
-0.18677863
0.59676874
-0.26697055
0.021420123
-0.7721406
0.087560795
-0.27511075
-1.7791903
-0.03446551
0.26293546
-2.771348
-0.11671361
0.26164702
0.05691448
-2.1628919
2.5650258
0.06698366
0.043886565
-1.5045177
0.0014973581
-0.13578565
1.2470679
0.022703039
1.3611783
-0.12925878
-0.20597093
0.18511446
-1.2270795
-1.6313818
1.302673
0.6593786
0.37732813
-0.90549165
0.017978778
-0.22497407
-1.5065434
-0.0039617545
-0.10862961
0.09368122
0.055387862
-1.1806127
1.1372888
0.24062616
0.035765033
0.27020243
0.03538154
0.05273457
1.6660559
-0.18424615
1.3146932
2.931885
-0.32567394
0.24240552
-0.5051973
0.49791622
0.8621556
-1.5623618
-0.16504067
2.682569
1.4986589
-1.0251538
1.215363
0.2092969
0.12522848
0.2596528
0.06658797
-0.47521937
-0.6075665
-1.1967044
0.46926922
0.006951943
-1.5031484
-0.14613059
-0.2728496
1.7346438
1.3397424
-0.036569923
-0.06738958
-0.5438269
0.2801213
0.38600674
0.16961916
-0.5972727
0.19655836
1.0126697
2.0118039
-0.41988266
-0.28178257
-0.35162002
0.79312706
2.2750945
0.15190755
0.35199884
-1.2803509
0.14825873
0.06892781
-0.12060012
0.78278375
0.023783322
-0.27913857
1.2425814
-0.10663641
0.6229741
-0.21758895
-0.045790993
-0.9097581
0.056650437
0.12195617
2.6598523
-0.6614128
1.9187762
0.24616337
-1.0909486
-4.0915403
-1.5116967
-0.68447036
0.47587836
-0.27017364
0.8184596
-1.0397779
-0.84005386
-0.31970006
-0.96178097
-2.9052722
-0.34045163
-1.8172938
-1.0326637
-1.1406314
-1.3731052
-1.4261153
-2.6021173
-0.041413277
-0.027353436
-2.5838752
-1.420224
-1.6704372
-1.5166312
-1.3586078
-1.0571101
1.2052144
0.7052412
-2.0952892
-0.9090844
-1.4279804
-2.8123655
1.9826242
-1.1318672
-0.7443305
-1.0606351
-1.1572921
2.7068465
-1.3232673
0.52466893
0.35690334
-3.13936
-2.3630269
-0.3559896
-2.654451
1.3316945
-0.92750317
-2.5638084
-1.387937
0.00024974346
0.68264484
-2.1053998
-2.2146618
-1.6023393
-1.2224743
1.4922571
0.15081565
-1.4106817
0.0961138
-1.3452568
-1.3980954
-1.407177
-0.92664075
-0.16127679
-0.7388505
0.99654984
-2.2138612
2.734777
0.58276343
-0.024913907
2.0579672
-0.22366941
-1.6122878
-1.0367422
-1.1703801
-1.7191063
-1.2423096
-1.1492617
0.048752427
-1.7529593
-2.2244384
1.0133109
-0.8200773
-1.3305433
-1.3459928
-0.33015198
-3.4597464
-1.3181646
-1.3167197
2.3237
-1.6308168
-1.3962588
0.73948395
-0.9450162
-0.74667597
-0.9262898
-0.9573001
-1.43297
-0.24209845
0.38779607
-1.2209678
-2.0924351
-1.4328517
0.6467556
-1.3484329
0.9781559
2.22511
-1.2215192
-0.7421421
-1.3411845
-1.4801316
-0.076039344
-0.19138741
-1.2914342
-2.0296788
1.0709008
-1.4377317
-1.3143077
-1.3476858
-0.687119
-2.9214277
-0.7556721
0.8924886
0.097317934
1.5381035
2.4741793
-2.7145665
2.2454472
-1.3326437
4.2170467
-0.47810316
0.18454017
-1.1540166
-1.5448804
-0.6650711
-0.060271412
-1.4533746
0.10659669
-0.072279945
-0.6753889
0.11594069
0.04102248
1.5355794
-1.4513197
-3.1423051
-3.3137393
-3.2212324
-1.6233929
-1.525622
-0.7558029
-2.04632
2.5380433
-0.82698315
2.175022
-1.3342061
-0.015137792
0.28060973
0.6445908
1.0413363
-0.87149286
-1.9028698
0.2534976
1.3183651
-1.224217
-0.42979443
-0.9245212
-1.351473
-2.7006445
-0.22194394
-1.4212512
-0.5489272
-0.43788254
-1.454041
-0.23820251
0.63639706
-1.2662698
0.37721598
-1.3602316
-1.3037611
1.4100171
0.62667334
0.42146498
-1.2040141
-4.5184503
-1.3539803
14.361238
0.1267307
-0.6948944
-0.983033
1.3650824
-16.571993
0.7309169
-4.029963
9.162957
-2.3122606
2.435817
-0.30622488
-4.4924226
-2.0141222
2.0462313
-0.5089664
1.6967702
-2.7210507
1.7124298
-3.4065297
-6.086675
1.0674624
-7.5737953
-3.5653102
-2.3187652
2.1094599
1.255841
-0.89393145
-1.1998312
2.7391407
3.4142737
4.412869
19.116985
1.8484654
0.87745696
0.24007273
2.3460662
-1.606538
-1.3947686
0.50897866
0.49642053
-5.4484015
3.4603786
-1.189763
1.8336483
1.3584185
-0.90006757
-0.18184865
-0.8795791
-0.48069906
-0.9553616
-2.580546
-4.7411
-3.7673163
4.0571227
4.3295984
0.06134387
0.9612764
0.5953119
-6.357468
-7.880375
6.663918
-1.294315
0.49616826
6.4689627
1.8689545
-0.94951516
4.1727114
-1.3413699
-1.5208415
0.22810064
-1.1832366
1.113499
2.095947
-3.3467062
0.76501715
-5.60506
0.76408195
-0.58383226
0.4703826
-0.46909264
-0.39577937
1.8121948
-0.105705254
-1.1645381
0.092237666
-1.498837
2.3721795
-1.4084585
-0.26132974
-1.4411854
-1.7090505
0.10737429
-0.8215854
0.045526188
1.4083234
0.019191677
-1.1270528
-1.0753933
-0.57196194
2.6466215
-0.08744836
-0.89999205
0.2841067
-0.48894158
-1.1489958
-1.7606504
0.869839
-0.38478568
1.7744243
0.066655755
2.2240555
-0.62881494
-0.77128977
-0.37619182
-0.19959521
-1.1638414
-0.66127414
0.68164515
0.39994776
1.3034735
-1.163498
0.5103464
0.18703395
-9.353273e-06
3.248966
3.264148
-1.0329882
0.2559048
-1.7387855
-0.5540297
-0.47472742
0.048829433
-0.1840444
-1.112562
-0.8129047
-0.44913715
-1.8596412
-1.5520178
0.05562976
0.8077478
-0.8522877
1.510444
-0.8338531
2.9729054
-0.8881988
-1.0902297
-1.4601969
-1.5145475
-0.29544604
-1.7095566
-1.4353325
1.9871373
0.27958778
0.28696683
2.1732192
-0.44406652
0.05632035
-1.116221
0.34400988
0.26697206
-0.5250409
-1.5632775
-0.5797967
-0.5600751
-0.85137284
-0.06653714
-0.091140725
-0.8829597
0.08804923
0.31461072
-1.5829794
2.2064228
0.8520011
0.1143287
0.11222252
-0.95874274
-1.2128711
-0.37503237
-1.4188024
-1.363719
-1.0305924
-0.058778387
2.0619287
-1.2586796
-1.9622171
0.6899404
-0.32491133
0.91211295
0.23117958
-1.111346
-0.1413592
-1.3353468
0.16401331
-0.75793064
-0.03464357
-0.31592673
0.04255989
-1.509709
-1.497806
-0.8642279
-0.8102878
-1.1548412
2.1118517
-0.8806121
0.042429216
1.1641188
-1.5090219
-1.3693378
-1.3100471
-1.7683797
-1.795635
-0.4046464
0.42051366
-0.41510996
0.59587795
-0.15845737
1.3247381
-1.3852587
-1.6057904
-1.4857633
0.47771913
0.41854292
-1.327154
2.36215
0.17430305
-0.31608713
-0.6482956
2.9756067
-1.6507355
-1.3896134
0.84064883
-0.23824887
-0.13913825
0.04822643
-1.2832332
-0.46513504
-0.5598252
-0.80611616
2.2630827
-1.4871562
-0.24805462
1.1491994
-1.2548239
-1.0001317
-1.6614615
-0.45819667
-0.9464255
-1.1199358
0.101233356
-0.93069065
-1.2100307
-0.85724705
0.20164536
-1.8136702
-0.74723047
1.2453362
-0.80690885
1.2331109
-0.116057634
-1.4833469
-0.98571736
2.935906
0.22677803
2.8056939
-0.5081673
1.2130442
0.355521
1.5850552
2.6607337
3.6645193
1.9616349
2.792869
1.2865752
4.6760335
2.474664
2.9682765
1.1940885
2.4505787
1.3205613
2.223197
0.81519675
0.6467651
2.0773168
-0.30955666
-1.1978099
1.4762594
-1.205676
2.677949
2.9887424
3.0255392
-3.3179355
0.79168373
-4.4331565
-1.9268231
1.6405029
1.4107122
2.1549094
-2.1935787
-1.0488622
1.3475133
2.3046947
-1.2255558
-2.3523762
1.0913659
2.1261628
-2.072188
-1.0750716
0.2387762
0.35938025
2.3902357
2.595272
-0.6862997
3.1692533
1.961934
3.6671982
-0.7628653
-1.6620224
1.4571626
2.1860976
1.1307249
1.1885377
2.396457
-1.083374
-2.58244
-0.022195077
-0.89558625
1.9494243
-2.6614096
2.6521635
1.2176869
3.733552
1.4202815
0.67889345
1.7253032
2.913343
-0.1979182
1.0554738
-2.339086
1.5749412
1.2792168
-1.1227527
-0.39326638
2.850271
-0.54078215
3.618221
-0.34889072
1.7881322
0.74220204
2.437646
-1.0620944
-0.94534415
3.3681335
-2.7486005
0.73456025
2.7022855
1.2095406
-2.3024797
-2.917893
-0.42508173
3.1490781
2.0043268
2.9936614
0.9906438
0.8002597
1.4113376
-2.2465181
0.8757616
0.7471969
1.451648
0.8360622
1.0499911
-1.227665
0.4177599
1.1205649
-0.7803153
1.8290262
2.0214481
1.6355174
-0.835937
0.3779749
-0.6900413
1.9420795
3.3205898
1.4972345
1.0751667
0.73986244
2.1052623
2.2116256
-1.1162
0.22668219
1.621034
3.3290224
2.3344114
1.712028
0.8320714
2.6430502
-0.49688053
1.02241
0.595514
-0.6666943
1.6397622
-0.07514906
2.2709694
2.7202992
-2.2684138
2.1266465
1.8002048
-0.14000204
-0.8462474
1.2099229
2.2515862
-0.36759502
2.6503904
2.2735562
-0.47862086
0.98494536
-0.7025924
-0.81295425
1.7373999
1.4571949
3.3234777
1.5988091
2.946085
2.3196254
-0.66894126
-0.59572685
0.5160676
-0.39485338
3.115726
1.3281657
-0.02650325
0.5489527
-1.8325044
0.19390763
0.5739168
2.3098161
0.037143767
1.5927496
0.37540996
-3.6597776
2.518907
-0.6423687
-2.2165112
2.4747753
2.9531884
-5.8589745
0.47254142
6.8706865
0.35434392
4.4103827
-1.5159769
0.44938794
-21.56499
2.978088
-4.3546824
3.9891272
1.6401738
-3.417349
-1.8166461
0.9733747
-1.0813836
-0.090064846
1.7409182
3.3713703
-7.2927256
0.002284378
4.2829924
5.164773
3.214965
5.71285
9.368034
-1.0482471
-4.0876126
-7.3658013
-2.3037837
2.430935
-0.55223596
7.3904467
-0.9692709
-14.54539
-1.7488245
8.203995
-5.1278644
2.5798297
0.112013325
-2.4461036
-0.924247
-0.58318424
5.9357457
0.633075
-4.2291
-0.49600333
-4.6839046
-1.8111314
-5.477282
1.0376126
-0.4330444
-5.3362164
-2.7396643
0.6128916
2.550683
14.132617
4.8271546
1.5132968
6.067352
1.7950693
5.285796
-3.882746
3.897453
-2.6396642
-1.0341603
0.638521
0.5746978
7.666181
6.2499533
2.9675498
-16.211397
4.6014276
2.902461
-1.9826281
-4.71156
5.7565923
1.1905056
-0.39453873
-1.358222
-1.2728103
0.9203856
-1.4754508
0.11987906
-0.92097247
-0.45130607
-1.8807158
-0.34016052
0.37148806
0.6460021
-0.15038964
1.6442846
0.10111696
-1.2834513
-0.08371086
-0.15957265
2.2033558
-1.2944514
0.30721307
2.0181422
0.14136384
1.4924287
0.09789122
2.2136576
0.020253297
-0.08452956
-1.1814827
0.15041171
-0.2045842
0.49730662
0.33650863
0.17605855
1.9706218
0.14823993
-0.40543997
0.026013283
0.41926062
0.54431766
0.7676123
-0.78166986
-0.5413828
2.0648906
1.4400665
0.7060553
-1.3122823
-0.15692352
-1.028531
0.12714557
-0.11454366
0.390577
-0.441304
0.10428277
-0.99378616
0.020132557
1.097721
-0.027439365
0.26600584
-0.14720902
-0.21127264
-0.48089677
4.4973006
0.8682218
0.015976394
0.18363905
-0.8024096
-0.93731236
0.2575417
-0.9869168
1.6658306
-2.029189
-1.1712173
-0.050810315
-1.6974138
1.0326076
2.5706823
1.9567851
1.0427619
0.8608798
0.13510075
0.80703175
-1.0687149
-0.40104443
0.1903005
0.05720473
-1.4186743
-1.1672516
-0.00039274478
-1.1720444
-1.4514812
-1.5966171
-1.0888343
0.48659593
0.36072052
1.2441264
0.42981
0.039158463
-0.24879579
-1.4807404
-1.496231
-1.5033479
1.1285254
0.09877562
-1.4399335
-0.73295105
-1.4229671
0.4477285
-1.6257097
1.8141657
2.6526453
2.3855028
2.208326
-0.12495686
0.010503773
0.5223913
-0.40118435
0.12758869
0.45519024
2.627833
-1.3777099
0.5574358
0.4850264
1.4773396
1.7728739
-1.427686
0.67513365
2.4851098
-1.3793088
0.06899206
-1.1299151
-0.08471243
0.030951548
2.4069328
-0.08415982
1.9913155
1.0912211
0.4040839
2.3918822
1.267477
0.02234163
0.22362645
1.2018803
-1.3807752
1.866353
-0.014837983
0.98638165
2.3529894
-0.70895785
-0.15448602
0.051537514
2.2449768
-1.2186387
0.6513334
0.074810885
-1.5549552
-1.3740124
-1.3254898
0.9038499
2.4684
-1.4768418
0.70866495
2.7098842
0.19869114
3.3181996
-0.33925956
-1.2940087
-0.22468811
0.5422617
-0.28820312
1.3335302
-0.4680593
-1.1632757
-1.4570667
-1.8089569
0.037355278
2.7715802
0.01825146
0.5991763
-1.1662941
0.054162826
2.202975
-1.4646868
0.041018054
-0.8805403
1.5687971
-1.3305626
0.027685288
0.56934613
-0.95094424
-0.676961
-0.047870062
-0.0038624043
1.3236151
0.14271201
-0.9355012
-1.2420874
0.014188416
0.072409675
-0.5551815
1.6021012
2.0517995
0.7771669
-1.5598283
1.2682672
0.75046366
0.75641847
0.4531065
2.0417662
0.10053002
0.16190009
1.0005918
-1.2003678
1.8250339
-0.9736226
0.17835532
1.5216749
-0.9683888
2.0033698
0.054920964
-0.77924764
-0.0073166825
0.048323944
2.7636483
-1.2904637
0.013609892
-0.034791805
-1.1308903
0.012368301
-1.6804992
-0.7455884
0.9316724
0.6793422
1.0333228
-0.03104748
0.4822882
1.1550416
-1.8697385
1.6164465
1.8569226
-0.201641
-0.42328772
3.0996795
0.34151456
0.28707138
2.0078695
0.83304054
-1.0745225
2.6748712
1.200339
0.010739155
0.7952508
0.037667923
0.030140258
1.8542261
0.7210012
-1.3605409
-1.4599147
1.0923597
0.29155886
-1.450087
-0.17644489
2.158966
-1.3977048
0.18579486
1.8574936
-2.0468318
1.0045741
-0.83269864
-0.90796316
-0.11740131
2.0271802
0.36981174
1.1004521
0.22617656
3.7207222
-1.2692124
1.1165545
0.5781695
0.081894055
2.776741
-0.17740738
-0.08200146
0.15756077
0.20432778
0.21896769
3.0841072
-1.2212447
-1.121798
2.8636448
0.049568776
1.3713545
0.24511647
0.026666766
-1.2238721
-0.22566181
-0.12764451
0.86262745
0.19345644
2.8209565
0.06074209
1.7340248
2.7865553
-1.6828847
0.2861431
-1.2401482
-0.09019972
-1.2851962
0.8088056
-0.16476664
-2.0409415
1.6945
2.1713772
-0.5036376
-1.3712507
-0.016529946
2.1401443
0.2319097
0.728409
2.1101263
0.14537215
-0.98379123
0.21106918
3.0950627
0.17641595
-1.2793018
2.9582899
2.6936834
-2.8410497
0.6649204
0.13707894
0.28797746
-1.3661397
-0.0140712
-0.14467914
1.8873445
-1.1015196
4.2130814
0.34037402
-0.57226247
-1.5539635
0.0678339
1.0387479
0.033093695
0.2930068
2.0148547
-0.09593694
-1.1510601
1.0044936
-0.091626145
1.5305244
-1.1699511
1.9393386
2.3406775
-1.0217682
0.2883008
1.4847686
-0.5334076
0.19027272
1.5741315
0.11261166
0.116717614
-0.08753348
1.3088024
0.21227965
0.11300297
0.43205082
-0.027016394
-0.59232724
0.7561234
0.020313822
0.42884243
-1.3258147
0.081052914
-1.7159843
-0.20475505
-1.2144866
0.58035564
-1.2071136
0.54800856
0.009789782
0.10976934
0.18414904
0.7934276
0.42268056
1.7679414
1.8418596
0.19346385
-0.24782158
-0.079879686
-1.4912986
0.94778734
-0.65924793
-0.0008012969
1.9678047
-0.018732306
-0.322831
2.1903687
-1.5968617
0.61130905
1.7029675
2.2642815
-0.006084431
0.048986483
0.9092094
0.35758165
-0.10009371
0.033334598
4.234689
0.20213057
-1.4177026
2.0363882
0.123126775
0.9464891
0.11328676
0.92549026
0.1563335
0.023859128
-0.034893997
-1.4744372
2.1075418
-1.1963208
-1.4581797
-1.0833102
1.6420568
0.123265535
2.4790635
-1.2617713
-0.6521419
0.215482
0.28532454
3.774433
1.8933003
0.18233186
-0.37763032
1.4960521
0.023977319
-0.68159175
-0.7560968
-1.0053581
-0.43162873
-0.7929841
-0.20217669
-1.439143
0.020297589
0.56261444
0.05118353
-1.7935289
0.14518109
0.46340814
1.5187255
-1.4799443
0.6609803
0.31870177
-1.2038364
0.7147787
0.12270057
2.0808501
-0.12849894
-0.4243478
1.8751633
-0.17082004
-0.2549837
0.017846748
-0.31897235
0.06386893
0.09457485
-0.10829621
0.44977233
-0.027606139
0.24285242
1.6167858
1.1305861
-0.0047377297
-0.12787835
0.65093523
-0.501228
-1.3222986
-2.147091
0.044933673
0.027426485
1.6507195
-1.0153596
1.3553987
1.0608749
-1.5282822
-0.6315128
0.0773149
-0.2954951
-0.24627703
0.97189283
0.20390552
-0.75105315
0.19957514
0.113884196
0.5688274
0.03757721
-0.20544657
1.2995062
0.792911
-1.8007007
-1.5088872
0.67582375
3.2896843
-1.5757418
1.821805
-0.09188986
0.3571351
-1.0251637
0.5348809
-1.058251
0.14552554
0.84950423
-0.7978227
2.110306
0.58993316
0.54385126
0.99965453
0.656538
-0.31987542
0.18816984
-0.044147998
-0.42675588
-3.705966
1.5359017
0.37276453
-0.9784485
-1.1388695
0.95922834
0.045313768
-1.0265446
0.14989303
-0.34493792
-0.7018401
-0.3980897
0.22974397
1.36179
0.4354884
0.5131509
0.6901027
0.3651393
0.1688062
-1.736176
-2.7771611
-0.18060505
-1.083561
-0.53573596
1.3383976
-2.2906313
-0.7376235
1.8216438
0.4466222
0.80086243
-0.28378874
-0.13576508
-3.4737744
2.7584047
4.0508833
-0.17311548
-2.6631093
-1.7309916
0.6431971
0.47867447
0.56313735
1.060709
-0.008067839
1.4544535
1.8972497
-1.0157628
1.4962482
1.5842075
0.53535604
0.90485084
0.7409991
0.6843596
0.30173966
-3.2966623
0.92429554
-0.49780044
5.6562486
0.27867037
0.4729571
-2.060444
0.12176818
0.3102078
-0.35092652
1.6984937
0.60274315
1.2499771
0.9503603
-0.4983879
-0.23570645
1.9694104
0.18989757
-0.6086285
0.24556124
-0.25259033
-0.7432324
-2.0977898
2.1889644
1.5494992
0.846182
1.071448
1.0494342
-3.143259
1.5645626
0.3333527
-0.8100395
2.069568
-0.35191733
0.018361658
0.10347867
-0.16073295
-0.7884355
0.15408513
-1.9170778
-2.8477507
0.8413367
0.30073524
1.1168296
0.053823173
-0.5888667
-0.68399125
-1.1244042
1.4774252
0.7361015
0.4064656
0.088645175
0.29983968
0.84465736
-0.12532233
2.2360325
1.8063763
-0.8491075
0.03005822
0.09727478
1.1071063
1.9481254
-0.06938708
-1.6163323
3.4914198
1.2641487
3.9976232
-1.1642262
2.425758
-1.1633387
0.5322631
-0.7237022
0.76613295
0.4220383
-0.74702746
-0.044665217
0.04976508
0.66828537
0.82311726
-0.4258606
-0.3782539
-1.420213
0.679267
1.2336539
-0.26787248
-1.2808928
1.559641
0.77629584
-1.5058731
0.88879853
0.58209395
-0.022265065
-1.819315
0.3217399
0.26298717
-0.59624934
-1.6717455
-0.64334255
0.40382874
0.17477152
1.9163132
0.37212247
0.03523399
-0.4237519
1.0580494
-0.14427835
-1.1064675
0.4033615
-3.7978497
1.1367437
-4.040528
-1.6127037
-0.33319902
-0.19784409
0.7167809
-1.263833
1.3913372
0.14178523
0.23842765
0.5248814
0.07426624
-0.26343423
-2.9294283
0.3422657
0.18276042
-1.2823598
-1.820501
9.392276
1.6407816
-1.0848019
0.06457168
2.2658248
0.43843484
0.26274726
0.3048396
-3.0921655
0.8016634
-0.20485276
-0.7033605
0.0352187
-2.8539407
0.8611199
1.9062337
-1.110243
-0.57420933
0.27752247
0.42370355
-0.8262206
-1.9446256
-1.2064397
0.08668618
1.2111744
0.64931786
-3.567554
-1.0371143
-0.19776523
-0.45302138
0.2485429
-1.1132152
-0.21614598
0.14681476
2.0370271
-1.0428436
-1.0713483
-1.338115
0.11611906
3.60912
-1.0600995
-1.9002208
-2.056514
0.04291615
0.9015918
0.7272771
-0.48820293
-1.3792077
3.2840068
0.9273422
0.19674996
0.6055216
-0.62766683
-0.74866533
4.420024
-0.057965696
-0.0105146915
-1.1163616
-0.5662892
-1.122018
-0.079588264
0.2107562
0.84642124
-1.0034226
1.253699
-0.064466774
-1.8370934
-1.04138
-1.6695023
0.12115395
-1.162365
1.9060454
-0.59756166
0.054129634
0.9326369
0.18653753
-0.8997675
-0.027887568
-4.0047913
-0.99759525
0.8245036
-0.7807015
-0.24490103
-0.31789237
0.49719554
-0.5282463
0.52850103
0.48765457
-0.024528123
0.03945422
0.4627037
2.3051047
-0.056384332
1.8228289
0.164563
0.013830543
-1.970967
0.24079585
-0.037195995
0.044186853
3.7072978
-0.43834114
2.1021278
-2.9433608
1.4715934
0.29960337
1.1940174
0.93222344
0.6379451
1.1584831
-1.6489279
-0.7466278
-1.5766011
0.6420057
6.5119386
1.1285586
-2.0623262
0.5303326
-2.1176434
-0.8968007
0.25997323
0.54730165
1.7165916
0.5552326
2.272694
-2.238957
-1.083116
0.93264985
1.6282635
-2.8341002
-0.71585196
-0.13165009
-1.3079187
0.48871064
0.5368429
0.33844164
0.65279937
0.2103778
-0.31831515
-0.7541946
-2.9543238
-0.45118412
-0.73615813
-2.7143705
-0.9169202
-0.53489196
-1.3626642
-0.74171925
-1.2538463
1.3185725
-0.60940355
-1.3994869
0.37545013
0.30464262
0.7591743
-0.038095593
0.019321011
-1.2987517
-0.538593
-0.9010656
-2.006714
-0.38480848
-1.1269827
-0.21470387
0.54883546
0.2459692
0.15810499
2.2804887
-3.5423126
-1.3241132
-0.2872877
-1.2959013
-1.5424327
0.7605645
-1.88199
0.4075921
-1.1116462
-1.6355149
1.762632
0.41229656
-1.2074904
-0.30417204
-0.86939037
0.8324058
-0.0003722906
0.53433573
-1.8641036
-0.93678045
3.9488869
0.6330372
0.55501926
-1.5480609
1.456916
-0.6622322
0.28985047
0.021170357
10.385909
-3.0893435
1.964482
2.2885635
0.16113424
-0.813984
-0.27688378
-1.819487
0.25839633
-2.959788
-2.229662
-0.9921311
-0.2161807
0.8853674
-1.0484014
-0.7002851
3.1376421
0.33206367
0.28767467
0.1435312
-0.05192086
-0.6063973
0.84379
0.22315773
3.484638
0.11524117
-3.1395733
0.09263692
-0.022054072
-0.5177654
0.15980554
-1.6025693
1.8226776
-2.7049153
0.70497113
1.945729
0.013570823
-1.3779296
0.15432514
-0.2025964
-0.11036274
1.6831994
0.35313585
-0.038299724
-1.3213643
-1.2369771
-0.34436727
0.054533795
-1.4202147
-1.8590925
-0.24012184
-1.3658146
2.0706203
-0.42105427
0.693996
-0.51664925
0.15128917
0.5608468
1.3852494
-0.1332598
-0.031943187
-1.2485131
-3.3843465
-0.56550324
-4.060405
-0.24470533
0.47517404
-0.6146356
-1.0205469
0.53620833
1.6037614
-2.8480508
-1.0034413
1.3432573
1.7260058
0.6394527
-1.5217978
1.060257
2.5543947
-0.2883869
1.8167541
0.39859182
3.358722
-1.2360445
-0.44830203
-0.027148312
1.8740916
2.4627295
-0.46852207
-0.12194534
-2.82446
1.123123
3.6032772
-0.54667157
1.1749814
0.50758475
0.6745166
-0.48320442
-0.5988562
-2.2909656
-1.5471201
1.7194618
1.9991163
-0.05780878
-0.23619437
1.5067457
-0.2806622
-0.9163872
-0.71819705
1.4524528
3.539561
-1.6785067
-1.252715
-0.7304742
-0.36828446
0.61988175
0.16782236
-2.2738988
0.7276687
-0.25449848
1.1810603
1.5085348
-0.45634335
2.3005128
-1.2144537
0.3793427
0.18709072
-1.131375
0.15439302
-0.43804097
1.4495293
1.2701614
0.20800053
-1.0185109
-0.9286993
-1.1531507
0.17215231
0.06769451
0.74684656
0.8157914
0.31689382
1.0765747
-2.3536425
0.38393852
0.6440111
-0.08809003
0.8439536
-1.4127207
1.9934295
0.5290068
0.859137
1.4230016
0.7425196
1.3834406
-0.56393397
-0.03430048
-2.7276
2.8710816
0.5696599
-0.04748486
2.4760196
1.5991307
2.129031
2.1514528
-2.7787862
1.283416
0.98710597
0.025777584
-2.279365
-1.6111292
0.014419578
1.33599
1.5199138
0.9207641
0.44829795
-0.99377096
-1.2834888
-1.5865424
0.16526061
-0.2775486
-0.099949494
-0.067100585
-1.5150979
0.05576052
2.8833144
0.010355775
-1.2125366
-0.29947728
-0.67128307
-0.009247145
0.005170245
1.862916
0.65959597
-0.5960453
-1.4594293
0.07056735
0.4048434
-0.20007144
-0.23514478
-0.2170471
-0.5189679
2.9196696
-1.7818234
1.0773822
-0.29359138
2.3529663
-0.5458653
0.49475068
-0.6949147
-0.5620666
2.0162795
-0.99436265
0.3697714
-1.1511472
-0.6343769
-0.005543088
0.3663873
-0.09075455
-0.6950145
-1.365901
0.14667726
1.0634369
-0.3487434
-1.29889
-0.029721713
0.14823109
0.047337957
0.6481296
-0.023736091
-0.69900376
-1.3842162
0.3266518
-1.930482
-1.432175
0.258118
2.0992804
0.067109466
-1.1594325
-1.0766584
0.54906267
-0.7837893
0.14713608
0.037784163
-1.0497062
0.59806395
-0.25995275
-1.5666311
-1.5127522
0.21033095
-1.1385989
0.42247748
-0.5377476
1.3235759
-0.28745824
0.09274085
-2.6516893
-1.2998754
0.44311097
-1.7690686
1.967179
-0.20290184
0.21906212
-0.0070337
0.008753718
-1.1898656
-0.20313217
0.0070828283
-0.19247456
-1.978457
-1.8083097
-0.3726085
2.1150486
-0.4433173
-1.141068
1.7709036
0.088442735
1.6847124
-1.3515481
0.013714333
-1.2462263
-1.1328155
-1.7631115
0.7934232
-1.2798214
0.155322
3.4141915
0.10048753
0.08244285
1.8764619
0.08535392
0.39468527
-0.24994926
0.65256697
-0.21842197
2.7627764
0.096787244
-0.2972555
0.8239032
0.19837305
2.366888
-2.0057108
-0.076660864
2.0033963
-0.7835808
0.17684299
-0.516876
0.0073618265
0.1393406
0.0887413
0.1339929
1.5969172
-1.5142361
0.041100387
-1.1360595
-0.024409091
-1.5477061
-1.3355006
-1.7200704
-1.5050062
0.10285322
0.49021834
-0.7322654
-1.9837391
-0.112495326
-1.8079898
-0.48438922
-1.3149068
2.1554048
-0.07243378
-0.015590989
-0.81087625
0.09630267
0.49562818
-1.5064127
-1.1602371
1.692533
0.034455128
-0.10107956
-0.7783729
-0.14868453
-0.01875128
-1.4227065
0.018060202
0.19903709
-1.7754021
2.952987
-0.011333387
-0.87138146
-0.15745227
0.49713558
-1.1725204
-1.2635454
0.5691735
-0.039533995
-1.4710279
2.1750555
0.19015345
-0.9588422
-0.009092164
-1.4670167
2.260849
-0.110075265
0.34472883
-1.6367303
-0.19583452
-1.1997905
-1.0269301
-1.3563639
0.21596886
0.23316132
-0.34911892
0.121872455
-0.00048647547
-0.025461268
-1.2718401
0.10267354
1.855404
-0.59136915
-0.642533
-1.4631028
-0.098082446
1.7016399
-0.9453514
-0.5368231
-1.5094097
-0.55743325
-0.15920892
-0.21820624
-1.5460192
-1.2025003
-1.3855333
-0.19304797
-0.074679635
0.099637195
-1.5825402
2.2318876
-1.7565066
-0.798072
0.10970683
-0.13106044
-0.8913447
-1.1518186
-0.6799702
-1.1140848
0.24882543
0.3132775
0.025562795
-1.1206607
0.0704574
-0.02868334
0.67053705
-1.4949712
0.8303667
0.081628546
1.6594012
-1.1417004
0.09380092
-0.020715984
-0.606133
0.11348569
0.1547562
-0.067080416
-1.0559726
-0.63625526
-0.7608408
-0.38031366
-0.7100089
0.987239
-0.3433934
0.0033164993
-2.1777377
-0.5047116
-0.8374284
0.98674285
-0.009409014
-0.14769381
0.072807655
0.054123946
0.05247873
-0.0013983438
0.12549151
2.13273
-1.8322185
2.0165906
-0.053446468
-1.1124725
-0.4761425
-0.8289829
-0.009280342
0.440851
-0.8647156
0.2935803
3.058778
-0.04539767
-0.15715209
0.80096996
0.80998236
0.6473099
-0.58734906
-0.079501465
0.121327475
-1.6360023
-0.6343556
0.15229303
0.33597213
0.4989641
-1.0367626
-1.3556067
3.1718771
1.105359
-1.1089056
2.2650194
-0.9031219
-0.52415955
1.664045
-0.40049943
-2.0564084
0.27412277
-0.42169848
-1.7823
0.14187062
-1.3857139
-0.7961688
-1.2545366
0.37753946
-0.34328628
-1.3769555
-1.4062732
2.016867
1.4985199
0.3858175
0.48513025
0.09856252
-0.06520519
-1.007267
-0.29780558
-0.55622655
-1.9367971
1.5355875
1.1039122
-0.25347
-0.04290984
0.035881568
-1.0532981
-0.105268896
0.13749024
-1.2965082
0.19013189
1.7775539
0.28458023
2.4235086
0.36404786
2.0177658
-0.1314687
2.9626594
-1.4188443
0.0609676
-1.4900599
1.9515986
1.1951823
-1.6856458
-1.399431
0.1362956
2.6044915
0.041082315
-1.4396117
-0.56991285
0.021301718
-0.04326149
-0.9188918
-0.74927586
1.9651898
-1.3541604
-0.51155186
1.6326889
2.4667187
0.0045806225
-0.0027861963
0.016507218
-0.30692115
0.06066948
-0.09571073
2.6551394
0.0004122893
-0.33184877
-1.7125487
1.6696265
0.19091961
-1.029397
0.7404325
-0.84611565
-1.5346851
1.623301
-0.6359826
-1.0924423
-0.65628177
0.5750896
0.3823292
-1.4280885
-0.07878692
0.056651037
-0.99252385
-0.9768678
0.50615233
0.072959185
-0.026905252
-0.3661737
0.08774048
2.8049684
0.6549238
0.50763696
-0.9931301
-0.027524484
-0.68427396
2.26342
0.9832586
1.1412567
0.37947437
0.0029066554
1.5540248
-0.98460096
-0.024072487
-1.5763555
0.17603502
-0.019596253
-1.2601181
0.6146116
1.3886211
1.6074064
-0.34243116
-0.2525376
1.7514348
0.1485669
-0.6448491
-1.1442484
1.2321247
-1.1603534
-1.6474093
-0.8704619
-1.0216287
-1.1261779
0.24192357
0.3347803
-0.23473138
-0.084015705
-0.09305431
1.0118525
0.1872542
-0.05975273
0.4079646
-0.17328559
-0.53704846
0.13038197
-1.2442982
0.4156034
-0.83174545
0.51300466
-0.109235294
2.5711606
2.827434
0.17516153
0.26319256
-1.7996751
1.4561851
-0.48818994
0.056806322
0.50516737
0.19561572
-0.8835789
3.0454755
-1.4720485
-1.2455058
-1.152481
-0.84482145
1.1691304
0.779434
0.91391337
-1.2839164
0.10786268
0.03695161
0.06981931
-0.11558983
-0.1878786
0.020682741
-1.6139194
2.8265958
-0.5955848
-0.5471259
-1.5848737
-0.21343769
-0.21768817
2.195017
-1.8194811
-1.4719718
-0.90803236
0.18224314
0.50164413
1.4026512
0.05488581
1.2063943
-0.55858
2.1505413
2.4668574
-0.7569675
-0.07550918
1.1296122
-1.5634521
-1.6865898
0.08417086
-0.6886374
-0.10058649
-0.46621498
1.8534772
-1.3048136
0.2267658
1.8263037
-1.2340542
0.61835617
0.15486835
0.48582965
0.60027736
-1.337764
-0.7522501
2.1442595
-0.69949037
0.06454359
-0.9371556
-0.85391474
-1.2285901
0.5704822
-1.8340647
-0.012973032
0.49899465
-0.015383679
-1.4748112
-1.707409
-0.30566782
-0.49100506
0.14014378
-0.19254225
1.1181588
-1.5481795
-1.9240729
-0.5615884
-1.8476624
-0.4249167
-0.23016232
-0.045145225
0.77994114
0.20835306
-0.08026685
1.2848116
-0.046781693
-0.33000186
0.21857655
0.55424577
0.172616
0.19190109
-1.6206588
-0.41688424
-0.23476231
-1.4220456
-1.4410075
-0.3474461
-0.80009735
-0.067300245
-0.112972654
0.041165315
-0.053755853
-0.6608378
-0.1550533
-1.4748514
0.4891385
-1.860966
-1.3398325
-0.013472151
-1.2932373
-1.2463505
2.3549252
-0.5081248
-0.08785041
-1.3231671
0.6169015
-0.033035025
0.18353692
1.973458
2.2581499
-0.55561167
-1.2916883
-0.5966391
0.026110968
0.614943
-0.56022936
0.9339473
-0.8536343
-0.17534426
-1.0198992
-1.6459098
-0.83743227
-1.4010177
-0.06640546
-0.77111906
-0.0025437179
-1.4732652
-2.1727152
0.097768836
-1.0090842
-0.18349119
1.7979283
-0.62244886
-0.035312433
0.89822304
-1.0213077
0.07231732
-0.56571096
0.17706707
-0.084747866
-0.99382085
0.1511731
-1.6844251
1.2259033
0.062081426
-0.07212657
-0.12088643
-0.205046
-0.2548377
0.05006417
-0.057815176
-0.09285283
-1.4843186
-1.4001429
0.24090053
-1.2357693
1.0102881
-0.33827907
-0.61640894
0.07809024
-0.15768808
0.92749876
0.020102736
0.10052955
-0.2248421
0.026434863
-0.38657105
-1.1757495
0.21573792
1.4772872
-1.5537623
1.7388388
0.10246708
0.058628563
-1.5377886
-0.6249638
-0.17458618
0.015010227
0.3340228
0.552692
0.09012548
-0.09889762
-0.7478419
0.57896066
1.3599912
-1.5338061
-1.1125493
-0.27920032
-0.13379005
-0.8315885
0.10959525
-1.2787218
-0.097363405
1.7694252
0.18144074
-0.124158345
-0.9860266
-0.53911614
0.007764564
1.2120818
2.3216105
-0.19760635
-1.3079302
-0.98341423
-0.077965565
1.8571662
-0.21529333
-1.2943286
1.2154737
-1.3143867
-0.80241406
3.4173796
2.2729726
-0.3362918
-0.6806572
-0.7429395
-0.6784627
0.10426295
-1.0401984
2.2446966
-1.1244222
-0.06342377
-0.40303046
-0.40110075
-0.8528264
-0.9234513
-2.8048325
-0.745628
0.060303643
1.1144705
-1.907283
-0.16127405
0.01020724
-3.0696287
-0.8307028
0.12446087
1.7808224
0.598417
-1.5709403
-0.81884843
3.724431
0.90924644
0.39238697
-0.07265264
0.5887188
-1.3299551
-1.916687
-0.7018071
1.1945804
0.5771601
-0.081612304
-0.114059746
-1.0770421
-1.009001
-0.19570592
0.046784334
-1.8473253
-0.87000597
-1.2430573
-0.35697567
-1.1407082
-0.13844815
1.8593178
-0.90916306
-0.394042
1.2224705
1.815182
1.0467037
1.3598299
-0.75461954
0.30805472
-1.2041721
-0.31400678
-0.85880554
-3.8345268
-0.24211645
-0.7154225
-1.0546149
-2.033925
0.8920818
-1.4479674
1.6630319
1.1052938
-0.8509261
1.4170706
0.75434947
-0.2865262
-2.174453
0.18602122
-0.46119708
-0.21436179
0.23816746
-2.7583873
1.2799367
-1.0372748
-0.8510533
-2.6610713
-0.3869505
-1.7866576
1.3006368
-1.1391491
-2.876902
-0.4226144
-0.07718974
-0.07902433
-2.2701755
-1.6806419
-0.2821768
3.5971808
0.6151523
-1.0844352
-4.2958727
0.9547303
-0.9331149
1.41757
0.6128886
1.1362158
-3.6539454
0.806128
-1.1283038
-1.503161
-0.55975485
-1.3664994
-2.0700269
-2.668672
-2.2988598
-1.3328573
1.008937
-1.1038038
1.5156981
-0.9860314
-0.31627953
0.63642323
0.10904968
1.4913013
0.4604802
-1.2193928
-0.15968192
0.6147522
0.19849196
-1.2029209
-0.16428085
0.04858443
-0.7630651
-0.6104393
-2.793847
-0.37621805
-1.0607008
0.064134896
-1.0340312
0.99942946
1.6961129
1.5846404
1.9940507
-0.74082035
-1.3396837
0.04214836
0.8302367
0.32951164
0.27405745
-0.21724916
0.055910893
2.7181454
-1.0970452
-0.33108672
0.019698296
-0.95067585
-1.8266664
1.753778
1.4877717
2.21034
-0.4869729
-0.27788907
0.9357704
-0.8205753
-0.52818453
2.750947
-0.93403953
-0.44937956
-1.6227757
2.4470522
0.129392
0.84495807
0.11713284
-1.7141812
0.66829467
-0.4974832
1.2744567
-0.15959448
1.467783
-1.4501848
-2.4971566
-0.01676086
-2.4864779
-0.651495
-1.071981
-1.6665719
-0.5451897
2.0021508
-0.26581427
0.61168534
0.6341413
1.0605698
-1.266984
-0.84854436
-1.5124274
-1.0130869
-1.6032695
-1.313888
1.4309847
0.21246012
-0.90881616
-0.6050378
-1.4736674
0.9377414
-1.6952338
0.45242667
-1.9625535
0.21538395
1.5484444
-0.19667232
0.14724141
-0.9642706
5.145169
-0.10227713
-1.5745387
-0.19342755
-1.1949714
0.35930684
0.5986918
3.0840816
1.1846018
-0.011299193
-0.75265056
-1.1962436
1.1208922
1.0016401
1.6393431
2.3591828
-0.33636603
-0.455618
-3.1382089
-1.2936665
-0.2881223
-1.4494109
-0.6035427
0.5877311
1.3033767
-2.5430915
-3.8278542
-0.8574442
-0.47626868
-0.48184538
-0.6314621
-2.8998559
-0.87716824
-2.4581156
-1.0757802
0.5363647
-1.1365412
-0.515379
2.503416
-0.52476496
-0.71013933
-1.0546496
0.45061883
0.5918958
-1.1535453
-0.28415367
-1.2591587
-0.44644514
-0.5668264
-0.13892277
0.0067074047
-2.5566225
-0.6780175
-0.12809607
1.0842052
-1.3091727
-1.295896
-1.0305849
0.3729465
2.2196677
-0.38564628
-3.161477
-0.38063464
0.7821368
1.8507072
0.060810536
-0.22899558
1.039898
-0.18174571
-0.4211411
0.4289571
0.2114656
0.4073919
0.6282035
-0.27860153
-0.9466664
1.6980022
-5.0178423
0.29630095
0.2451526
-3.292849
-1.2794595
-0.3682778
-1.2002951
0.63768923
-2.0791535
-6.177236
-1.5622296
0.5632653
-0.80855775
-2.6307325
0.029550146
-1.086498
1.160997
-1.8402135
-0.77728885
-1.9970475
0.6396257
1.8781285
1.5759735
-3.3101358
2.1116066
-3.7654073
1.9203385
-0.58463466
-1.1106657
-1.620852
-1.453489
-0.09847951
-0.31899202
1.2797979
-3.4448657
-1.9046111
-0.17988214
-1.8943437
1.221626
-0.13392925
-1.2265352
-1.7667863
0.15129156
1.6792376
-2.5634787
3.2413223
-0.9501443
-5.5324273
-0.8017074
4.2157145
0.4464046
-1.2354442
0.87492436
-0.3831507
-3.6799474
1.2923782
0.08883612
-0.8627757
1.537772
-0.70578057
0.7022125
1.0702369
-0.6033788
-0.21285206
0.32795706
-0.8945698
-1.5062895
1.3684175
-0.4618654
-0.74279517
0.85679674
0.22552888
-0.2961725
-0.33467114
-1.3741758
-0.33082518
-1.0017872
3.882753
-2.4835262
-0.6275586
0.9157769
-3.480481
0.49363846
0.76998186
-2.2698677
0.41824338
1.2245016
-0.07298797
-0.4133042
1.3123076
-1.784664
-3.266356
0.9331145
1.7193065
0.13929099
-0.29437393
4.0272017
2.2589865
-3.373016
-0.64099944
-1.0011927
-0.9272777
-1.1359951
5.7489085
-4.576515
0.23792216
1.6732061
-0.9111622
-0.8487571
-3.1817682
-1.460861
-2.7326953
0.9128629
-0.9138838
-0.29917613
0.6393204
-0.35643595
1.028115
-0.30985695
-1.0233254
1.0480711
1.064555
-0.06548175
-0.9011029
-0.5632594
-0.04214126
-0.7954639
-1.3566095
-0.39284042
1.0762253
0.29230222
-2.1706314
2.3769708
-0.23069632
1.4263422
1.0061455
-0.12609553
-0.1655309
-0.28506187
-0.98185474
-0.9526159
-3.1375017
-1.1173445
-0.6284568
-1.8264483
-1.0149827
-0.86401355
-1.0018517
0.015791804
-0.33834344
1.5656235
0.80599976
-0.2311264
-1.8755608
-0.039572865
0.8018903
-3.7515392
0.9168059
0.74742424
0.7146212
-0.6118894
-1.3423069
-0.56664115
2.7201505
0.17435229
0.99235594
0.74315363
1.8173805
0.21225692
0.3009999
-4.39173
-3.2990727
-2.1426744
-0.80656993
0.113572545
-0.20343542
0.0026039034
0.09649354
-0.7069805
1.4238144
-0.3349413
-0.36242974
1.8735769
0.57777303
-1.4631941
-1.193957
0.020033719
0.5743348
1.1825994
-0.60064894
0.46563596
-0.7087703
2.6784897
-1.1710463
-1.1719155
0.17795372
4.5684433
-2.8534076
1.8041064
-2.2069948
-0.96710145
2.191213
1.6963035
0.08490995
-1.0287331
-0.0683423
-1.4928083
1.6510181
0.07268716
-0.36957705
-1.35342
0.72780037
-1.2702004
-0.9694823
-3.8438056
-4.6799984
0.7186114
-0.14170389
-5.078075
0.89948165
-1.6180613
0.34951097
0.21680121
0.11717931
-0.06334433
0.6490338
-1.0888739
-0.19878283
-0.3371104
-0.6461583
0.8597075
-0.060543805
-1.391698
0.78217
0.40693638
2.087806
3.064797
0.54277945
-0.19663465
1.0634136
0.108859494
-0.08380908
0.08374697
-0.36474317
-1.2357295
-1.7747326
-0.3629353
-1.1042436
1.0762058
-1.0043387
-0.3865602
-0.32694107
0.48551673
1.0352155
-1.4064926
-0.69809604
1.7322084
2.0054455
-0.7911964
0.07746698
-0.04899426
-1.2286304
-1.268821
-0.25797853
0.61387956
-0.8647246
5.201123
0.71040785
1.0002562
1.0149028
-1.2621037
0.95981616
1.027476
0.38323155
-0.6001228
-0.7857593
0.6558087
-3.4979055
-0.39355144
0.16599423
-3.3897822
2.2571476
0.060764767
-1.3897103
1.6687219
0.02654533
-0.06213677
0.73148334
-3.7033834
-0.44505522
-1.695591
2.3428626
1.0718191
0.12566197
4.267337
-2.1769056
0.02452588
-0.5667764
1.1893952
1.0057472
-1.7776403
0.9987837
-1.7890179
1.0299621
0.071309805
0.06831252
-3.6670682
-0.018313253
-0.41670197
-0.083916426
-1.1604526
-0.51723856
0.29327577
-0.7071915
1.6167073
1.9358805
0.15679431
-1.1151294
-0.29464087
0.3474459
0.114635035
0.1866433
-0.835824
-1.3718027
0.16515529
1.6153874
1.2671537
0.14187773
0.34116518
-0.27256647
1.751846
-2.0248654
-0.30539364
-0.4060025
-1.3059213
-0.04008627
-0.3387884
-0.59617615
0.5710429
-0.09869935
-2.1965024
-3.0408115
-1.314076
1.678159
-0.9090804
-1.4898313
0.34990177
-0.6274735
-3.6865602
-1.1958164
-1.7833927
-0.6849392
-1.2850398
-3.0066724
-2.8049786
-2.2871556
-1.096802
0.80756056
0.38194624
-0.06182436
-1.6306213
0.17384958
0.38961872
-1.9217453
-1.0147604
0.3771987
-0.5315692
-1.030424
-1.1674391
-0.9945463
-1.0256414
-1.0371791
-2.733209
-1.0007812
1.6434773
0.5894352
-0.6838681
0.94029963
-0.13715363
-2.6325414
-2.9294286
1.4670843
-1.3074107
0.24936433
0.4090864
-0.61818075
-0.5127968
-0.32384697
-0.33070633
-0.5057843
0.0030126986
1.534326
0.7265495
3.1036444
0.9270314
-0.6893633
0.36038435
-0.11086095
0.32976556
-1.0219055
0.35877246
2.1107085
-0.7716104
-0.816514
-0.6444349
0.855843
1.7740563
0.33010408
0.0478711
-0.3496902
0.46029818
0.38388145
-1.5158296
-1.5017496
0.19695714
-1.1754013
0.30108428
-1.5788376
0.92616355
1.8681047
0.13476375
-1.4800966
-1.3404151
-0.05934791
0.78258824
0.79087293
-0.9221468
-0.37331304
1.1156331
-1.419944
0.36131394
0.5276847
-0.56745994
1.2504594
-0.7819028
-2.16797
-0.73591214
-0.53007454
0.042149603
-0.21804623
0.4919624
0.009570403
1.0584513
0.21437125
0.6524814
0.17847124
-1.8061357
-2.6912358
0.037348546
-0.95315075
0.07875968
-0.5399247
-0.62668663
0.037835423
-0.16876025
1.5411487
0.07075803
0.42046818
1.0105697
-1.0804112
0.05367039
0.15714656
0.22641692
-0.7550098
-0.6394594
0.49189666
-1.6143184
-0.2915982
3.303021
1.8372457
0.107108906
-1.2881027
0.90765184
-1.0498118
0.6305613
-1.472158
-0.7195676
-0.5658853
2.2644308
4.1980915
-0.32531947
-0.39303222
0.8656607
-0.42894548
0.61898255
-0.43344593
-1.6454495
-0.47021016
-0.7497476
-1.7654636
0.34756437
0.09955652
-1.2522327
0.18624884
2.2412894
-1.4451808
-1.4647949
-1.3298048
-1.3526597
-0.076667145
-2.7051804
-1.4689963
-0.7388052
-1.2781337
-1.0572728
-2.3894646
-1.3526964
-0.85253334
-1.3506695
-1.3341153
-1.5252624
-0.053682648
-0.8996819
-1.3539298
-0.96387786
5.236469
-1.8548836
-1.4307091
-1.8727858
-1.5078666
-1.2716776
-1.2125204
-1.9480131
-1.9868519
0.732393
-1.5934254
-1.5096645
-0.007913234
-1.347146
-1.1525437
-1.8224664
-1.2286392
-1.1770604
-1.3242441
0.085684314
-1.1605945
0.26326168
-0.27013358
-1.2803657
-1.4103204
-1.356076
0.3412191
-2.0219722
-1.1651267
1.2185619
-1.6058189
-1.3836037
-1.3153498
-1.5434394
-1.6325877
-1.5792223
-1.4980716
-2.0545173
0.093828626
-1.2488471
1.6782897
-1.2371167
-1.2026571
-1.1478966
-1.7115064
-1.7104607
-0.92757785
-1.1632748
-1.2405168
-1.4407164
-1.9169481
-1.0586115
-1.4025203
-2.0604897
-1.5193589
-1.7349622
-1.695872
-1.0363547
0.06408403
0.63448066
-1.0868262
-1.2797828
-0.33429214
-1.467972
-1.8750645
-1.794172
-1.9683284
-2.0041852
-1.6392009
-1.5204291
-2.4873047
1.1194067
-0.051811527
-1.3135495
-1.3204976
-0.5006644
-1.3852361
-0.65649104
-1.5532
-2.7585056
-1.3633506
-1.7729548
-1.398526
-1.3104091
-1.207487
0.4900796
0.011946687
-1.5374211
-1.4191031
-1.1855015
-1.6257753
-1.2681085
1.3223151
-1.9189404
-0.8146233
1.4492495
-1.5351284
-1.2588675
-1.4331446
-0.2735408
-1.5157243
0.07971505
-1.7771962
-2.0858586
-1.9300054
-1.3333955
-1.1247766
-1.2999765
1.8682059
-1.567977
-0.52860755
-1.4857994
-1.4776256
-1.4739991
-1.4986935
-0.34355143
-1.4178865
-1.0364547
-1.7541981
0.13073611
0.00019317347
0.5068331
-1.5645154
-1.4038013
-1.818805
-1.0896013
-0.0092051355
-1.3821915
-1.5551285
-1.3956152
-1.4355947
2.2338772
-1.1527469
-0.5569077
0.02430495
-1.5950683
1.1036135
-1.3316913
-0.6426467
-1.1508534
-1.6054243
-1.4504154
0.98150104
-1.3009148
0.07089297
0.9325449
-1.8065859
-0.58498824
-1.4992619
0.53908634
-1.0643969
-1.5566658
-1.595656
-1.2754763
-1.3108579
-1.4653783
-0.91738474
-0.9226661
-1.2674017
-1.4389384
-0.107165515
-1.4433026
-1.5359343
-1.1791928
-1.1740811
-1.2951251
-1.1882272
-1.597114
0.033754483
-1.3641096
-0.9966656
-1.6048777
-0.9212035
0.09277504
-1.2581537
-1.3002847
-1.418591
0.38160652
-1.0705318
-1.6037152
-0.7153925
-0.09159179
-1.1153959
-1.4549017
-1.3398381
-1.6692156
-2.3164492
-1.290875
-1.7411832
1.9053566
-1.6684254
-1.1032987
-1.240813
-1.8047447
0.5089326
-1.096208
1.0233403
-1.4543293
-1.4909103
-1.7338543
-1.6826806
0.06970974
-1.499253
-0.115084715
-1.1829164
-1.1816056
-1.3466341
-1.6115748
-1.5756094
-0.07310229
-1.6100657
-1.675657
1.1990485
1.048797
-1.4418908
-1.0511194
-1.4014531
-1.6304183
-0.81203043
-0.03222932
2.1321409
-0.14783005
-2.6278958
-1.4656448
-1.3688356
2.802128
-1.5992658
-1.354518
-1.7595315
0.23289606
-1.4400051
1.3310169
-1.4603194
-1.2284483
-0.7504131
-1.067578
2.4508336
0.83937913
-1.2037119
-1.9004312
-0.7118769
0.07796259
0.14939211
-0.7723563
-0.91164684
0.842519
-1.2923791
-0.030127443
-1.1341866
-1.4602731
-1.8985592
-1.627024
-1.4445832
-1.4417635
-1.0908945
-1.2646809
-3.041705
-1.4037414
-0.40013212
-1.2581246
-0.27365902
-1.2960911
-2.8752456
-1.2977141
-1.2776254
-1.3698486
1.6858163
1.7480875
1.689788
-1.5329589
1.9050659
-0.90163726
0.028708749
-1.3721085
-1.6167732
-1.3555472
-1.3044984
-1.1721402
-1.6696658
-0.035726614
-1.0498748
-1.9854803
-1.0816952
-2.0127006
-0.64583176
-0.868463
-1.737893
1.5494156
-1.7837691
-1.458184
-1.2597991
-1.0404086
-1.5316168
-0.16836995
-1.0901043
0.123963915
-1.5110615
-1.7209029
-1.6299574
-1.0996072
-1.7087693
1.3432168
1.2695128
-1.4098825
-1.3757464
-1.401343
0.042544685
-1.5824165
-0.008223718
-2.4628406
-1.5365572
-0.26312718
-1.2995123
-0.63576925
-0.73082167
-1.1785774
-1.8305532
-1.554853
-2.1411362
-2.4036338
-1.5039458
0.29845464
-1.4011267
-1.4548905
-1.799653
-1.6147449
-3.223274
-1.4490799
-1.5400316
-0.055710826
0.58105457
0.12899758
-1.3856317
-0.8208626
-1.6309977
-1.4960177
1.5400928
-0.98361665
0.73496056
-0.5966199
-1.4538164
-1.6845137
-1.5559078
-1.4009064
-1.5526373
-1.538208
-1.3162652
-2.022676
-1.3794508
3.2219691
-1.3157786
-0.16154377
1.2167532
-1.2434493
-1.4126602
-1.4622513
-0.30807617
-0.9779993
0.8428176
-1.5428362
-1.2943226
0.6739509
-1.5634817
-1.7488254
-1.1754937
-1.3903689
-1.3364136
-1.6132345
-1.5457594
-1.4994276
0.09076313
0.907037
-1.4452757
-1.1605914
-1.4004737
-1.4489343
-1.6829932
-1.6744053
-1.3507384
-1.5009083
-0.5537982
-0.041867662
-0.6982449
-1.7013865
-0.525987
0.048910458
-0.60247004
-1.4079859
0.17876512
-1.4052825
-1.1536483
2.3821363
-1.6762604
0.5133731
-1.5406264
-1.7099084
-0.80432385
-1.5836222
0.35851935
-1.4282421
-1.6586506
-1.3882419
0.11593983
-1.1722914
0.45917606
-1.0192168
-1.2329835
-1.4459143
-1.8746252
-1.6296554
-1.46023
-1.2677037
-1.8141843
0.78993994
-1.1378522
-0.24907617
-1.3381307
-1.4297527
-1.5060173
-1.5987749
-1.9497434
0.46973076
-1.6889069
-1.708101
-1.0303293
-1.0145371
-1.025995
-1.3972217
-1.3571283
-1.4041249
-1.5958196
-1.0199785
-1.1412276
-0.21952516
-0.9971408
-0.81206685
-0.027554188
-1.2572396
-1.2016349
-1.6458259
-1.6735085
-1.4674749
-1.246512
-1.1133233
-1.1395099
-0.7115392
-1.1994332
-1.0029247
-1.3301976
-1.4573313
0.5679427
-1.4306698
-1.637218
-1.5950546
0.019576116
-1.4602503
-1.8562368
-0.029875888
-1.5565119
-1.1212913
1.60428
-1.1375253
-1.5143837
-1.709409
-1.1074272
1.3714439
-1.6529223
-1.712623
-1.3316665
-1.0199782
-0.85865545
-1.4198841
-0.02266979
-1.4539232
-1.293433
-0.42703938
-0.91291696
-0.35493076
-1.3151437
-0.5549424
-1.2616595
0.54326457
-0.834476
0.07657294
2.3756926
-1.0410761
-0.7017046
0.26473072
2.5279374
-1.524639
-1.3684009
-1.2321649
-1.1939677
-2.2654014
-1.4696245
-1.036642
-1.4734133
-1.500353
-1.544734
-1.1932671
0.3115733
-1.2216679
-1.4207177
-0.97562844
-1.7547747
-0.4745332
-1.4832087
-1.323709
-1.5422785
-1.9882977
-1.091571
-1.5381199
-0.80295295
-0.7924724
-0.9895355
-1.5521193
0.44143978
-1.7517565
-1.5104085
-1.3731055
-0.23544617
-1.578497
-0.8329609
-1.3797323
-1.3978386
0.7375475
2.3666122
-1.3347762
-3.407823
-1.4249825
-1.7146579
-1.1073413
-1.3587208
-1.395659
2.3499672
-1.4443055
-1.2223346
-1.8171589
-1.4444305
-1.0831981
-1.3416389
-1.2746288
-1.3260087
-1.3744905
-1.5062777
-1.6487648
-1.2873703
-1.6712635
-1.1253725
-0.004075718
-1.7591722
-1.2149246
-0.20702745
-1.3246983
-1.4808818
-1.3355247
-1.3285246
-1.7212856
2.1069598
0.4194043
-1.9669061
-1.7834294
-3.1320684
-1.8604257
-1.2282332
-1.2228706
-0.8395705
-1.6013659
-1.5084804
-1.2674781
-0.7865048
-1.6879157
2.2052164
0.0442525
-1.3485999
-1.6726482
-0.022462511
-1.6090398
-0.8964425
-0.896135
0.59130013
-1.311049
-1.421978
-1.2153206
-1.242055
-0.84700614
-1.3823286
0.033660024
-2.705922
-1.6097678
-1.6517763
-1.4218959
-0.9455067
-0.5017142
-0.8497473
-1.4022484
-0.9870843
-1.3789592
-1.2435664
-1.2814413
1.4346397
-0.931066
-1.316614
-1.4638855
-1.4765303
-0.60865533
-0.3751885
-0.7752418
-1.5486078
-0.4134891
-1.9801413
-1.8118279
-1.2888693
0.1333249
-1.1861749
-1.2902794
-1.490424
-0.81643873
-1.3008451
-1.6173005
-1.1840426
-1.126754
-1.1908002
-0.09088894
-1.9803882
-1.5435493
-1.4879673
-1.8852832
-1.5941052
-1.5348438
-1.6551733
-1.5260347
-1.4702023
-1.6069793
-0.9219726
-1.4075139
-1.5663109
-1.1998966
-1.7931399
-0.76738447
0.68642986
-1.4075353
1.0232265
-1.6271424
-1.4866247
-1.6317452
-1.4639558
-0.9179729
-1.4478455
-1.3873745
1.2920414
5.694942
1.6002237
1.4698416
1.7385966
1.0503858
1.0853239
0.6552522
1.5267445
0.77785236
1.4724375
-1.1520629
0.970222
2.009715
1.7097497
1.4301914
2.3152528
1.9038079
0.82379174
2.077942
0.024864614
-0.30151856
6.084593
1.4873835
1.6996725
0.39731985
0.23975271
2.0307488
2.6452878
1.6831725
1.0296425
1.6480438
0.080436945
1.7061446
0.6556447
1.7708441
2.8266318
2.2123985
1.0073172
0.20816466
2.0859187
0.28167057
2.14178
1.3821492
0.81810814
1.9476843
1.5622268
1.0708846
-0.15759948
1.6150764
2.676917
2.7002754
1.6446894
1.8580812
1.96192
1.9124153
2.931562
2.458164
1.4044875
1.918155
1.3796262
2.481381
2.3261352
2.1110601
1.3519883
1.7485837
2.3919594
1.0421287
2.239118
2.349471
2.7684617
1.9849931
1.5971451
0.73625195
1.7195485
1.0865061
1.8583751
2.6773782
1.940423
0.75914156
1.3818232
1.4330266
0.20924509
2.1141305
1.0470147
1.8166857
1.5498794
1.8157616
1.6014841
0.4458453
2.0214226
-0.4698134
0.29593766
1.8661647
0.51398116
3.086825
2.653844
0.79571104
-1.6714435
0.74870807
1.6944016
0.80925596
1.7688098
1.1812999
1.6829066
1.6193187
-0.06418151
1.0401348
-1.5453972
1.843378
2.2199254
-0.23671865
2.4474065
1.9348385
1.702425
1.4581176
0.9726674
3.7661338
2.0932145
2.1181328
1.1883655
-1.08826
1.5123198
0.33351606
1.8736869
1.5000308
1.9721332
1.0267612
1.0411053
0.5861514
0.6127687
1.9024009
0.56923926
2.4220297
2.0131588
1.4338578
3.2566078
0.83685803
2.001632
1.6959114
0.81599855
0.4727236
-1.3855288
0.7659429
2.6673546
1.996377
1.2938699
1.611083
1.2354354
7.024503
2.175889
1.1771683
2.2147124
5.7180686
1.554977
0.687878
0.5326681
1.2682784
4.430423
1.3259838
0.14060646
2.0092819
2.403701
2.2622774
2.1237369
1.6292117
-0.7526241
2.1465054
1.6194409
0.73127455
2.5288677
1.7630916
2.7517662
2.0506864
2.101894
1.8085767
3.2225912
0.33855063
-0.051536653
0.37107983
1.3598099
3.2830389
-1.0841082
-0.072211504
1.8393346
1.1171165
1.8547103
2.103012
2.2199745
1.6070323
0.8145952
1.7105821
-0.48681623
2.1999373
1.8409842
-0.68072623
1.780994
1.4851165
1.6607763
1.4580594
1.1874161
1.8742155
0.85221696
0.3847329
2.1609244
1.4550499
2.7873793
0.036427975
1.0986452
1.7892658
2.139554
4.169234
1.8928154
3.016859
0.92751014
2.268923
3.425351
2.3113477
2.727015
1.4351248
1.2697039
2.7707121
1.7177762
-0.28156674
1.8189347
-0.95208424
4.0130057
1.6979197
1.2994001
2.0764437
1.9918008
0.42911336
1.7802131
0.98202944
1.8865275
2.350059
1.5415503
1.105692
2.0627995
2.0867558
-0.013189226
0.9877417
4.826532
0.58716613
0.8790233
2.004881
1.952201
0.9134698
2.0902143
2.125914
1.4083464
1.129608
2.4338102
2.6615238
1.8531799
1.7889563
1.3644158
1.626529
3.0059876
0.8521432
1.7748746
1.675288
0.54799175
0.44501007
0.655122
0.8045218
0.97529244
1.1715839
1.7942489
0.82240456
2.8476748
2.2312062
1.9589852
1.9145266
1.2462641
1.8837668
1.9743861
1.5610217
0.8613479
0.745813
0.9207307
1.802767
0.3763064
1.9497708
0.68661416
1.7010136
2.1382017
1.1187984
4.550894
2.9864216
11.468096
2.6910226
3.5227146
0.5681021
-0.8814932
1.5028716
1.4034612
1.9643338
1.9882951
2.1543972
1.923634
-0.09830036
0.27916682
1.0869068
1.2578971
1.6048357
0.86381793
2.0128827
2.5335813
2.4955506
2.34926
1.9616541
-0.11471403
1.8356252
2.6416936
-1.0836135
1.631298
0.39980727
1.8009496
1.6706234
2.0654335
1.5253966
1.6682663
2.094631
2.1226506
1.9055793
1.8305364
1.5361363
0.41890547
1.8710511
0.27595088
0.84597445
1.6063123
-1.3186156
1.8406347
-0.89113945
0.7383636
1.9451779
1.6809891
1.8579645
1.2371062
0.96301126
1.846429
1.3633289
1.0780835
1.3257668
1.8407589
1.0772849
0.9121822
1.0395286
2.0796964
1.011312
2.1505947
0.6821589
1.1624559
0.96129227
2.1928632
1.1819109
-4.206068
-0.7943118
1.6950889
0.1914376
2.0515718
2.2826152
2.2536323
1.804656
1.4312253
2.317798
2.4860127
1.6900337
2.4182668
7.207211
1.329929
0.66488045
-0.05240929
2.887652
1.1945018
2.0005841
-0.8598116
0.37957
-4.252304
1.6347015
0.6860939
3.206182
1.8086673
1.4037026
1.388144
1.0886768
0.7111827
2.173909
1.3932925
0.93308
0.6341274
2.1435688
2.4065194
1.752732
1.7152189
2.5930872
1.8172091
1.4201522
1.3734944
2.8378108
0.47776228
-0.69996125
-0.08546716
1.6507641
0.7318662
1.2130942
0.772725
2.8413453
1.2991006
2.950966
1.4098693
3.4860682
2.002272
2.465847
1.6473589
2.228609
-0.01339519
3.5093436
1.3989563
2.2568898
0.94231987
1.9015946
0.10216808
1.7645913
1.2873758
0.59983796
2.2437053
3.0125272
1.3490359
2.249491
1.7954615
0.7248419
2.1151614
0.37712136
1.541188
0.49793285
2.6973982
1.4628384
1.9798377
1.0556262
1.7454556
1.21662
2.3324144
0.9630047
1.4144142
0.160799
2.6631854
1.1094067
2.996395
2.211003
0.56279093
0.5598638
1.7659708
0.79381174
1.8216854
0.42334378
0.4811415
1.2483609
0.9109677
2.6223414
1.6274942
1.8289812
1.2194808
0.5787728
2.857595
0.40654743
0.77793705
1.6500623
1.4000632
0.44435585
1.3489509
1.5991884
1.9339994
2.2961004
0.5208062
2.4283898
1.7832719
0.673759
2.8241239
1.1975493
2.720029
1.6820762
1.7092983
1.7517042
1.4087355
1.9709672
1.2044994
1.5453157
2.2068624
0.5713276
0.8011445
-2.216732
-0.57172513
2.159092
1.802485
1.1345408
1.2194424
-1.1061393
-1.0216405
0.76475185
2.0491798
0.98607415
0.27335584
-0.52681
5.62344
1.6446261
-1.1017368
1.5332007
2.794899
2.053891
1.3673979
1.9615498
1.9744658
1.194391
1.2963345
0.7413246
2.1382957
2.5838244
1.9593064
1.7930338
1.4989665
2.4366176
1.3592584
1.9383439
1.4644513
0.64242244
3.1130142
1.991904
1.7044846
1.2603393
0.17223874
3.2619123
0.93486047
-1.0623871
0.7556689
1.9817395
1.5183445
1.8221223
1.8734951
2.2578762
-1.0863944
1.5131884
1.3196648
3.4047217
2.4823368
3.435322
3.3912115
2.5041854
0.703577
1.8800689
1.9970939
1.4137425
1.8470464
1.7671261
5.284644
0.36099213
0.2588144
1.9076507
1.2433169
0.36870062
2.3025224
2.1244476
1.8502825
2.6026862
1.9538845
2.4385047
2.8788037
2.4013186
2.5905778
0.6922583
0.7255733
1.17421
-0.28122273
2.757669
1.3344359
-1.251646
1.5186392
2.4921207
1.5306475
1.4061003
1.1208026
1.387264
0.5605033
1.6354297
-0.35045052
1.9892284
2.1045916
1.15443
2.492542
0.45392424
0.8864222
1.4383739
0.22800454
-1.7940352
2.7666712
1.2358559
1.0342414
1.9880998
1.5402213
-0.5212214
1.0913107
2.3630831
2.389149
1.6120349
1.2085485
-1.2009737
2.4265878
0.6206014
1.2379079
1.2129766
1.4414103
1.4121808
-0.25825405
0.89877754
0.5985289
1.7369909
0.15939617
2.812757
2.2237308
2.8487103
2.5923514
3.2453768
1.6474707
2.5834072
2.4971416
-1.0563302
0.7112155
0.67439824
1.767122
0.65258056
1.9839439
2.0402308
2.51602
1.3525481
1.2074124
0.6933451
2.017285
0.8661867
1.7068449
3.3689034
1.8183985
2.3564086
-0.43865418
0.097481295
1.8338245
2.9209678
1.7158984
2.2309592
2.3248172
2.006578
2.4261527
1.3150673
-0.7328284
1.6432997
0.9240355
7.429449
1.9402533
1.6097445
1.6067698
0.48451924
0.026018023
1.519802
1.2572715
2.4154282
2.463772
1.7174537
-0.77948487
1.8224096
1.268643
1.0454484
4.526315
-0.49568474
0.614681
-1.4246037
1.2832546
-1.758581
0.5479113
-0.86412114
-0.48231605
0.4360607
1.1033909
-0.67150766
3.0620215
-0.7194165
-1.2615436
0.98126173
2.391519
-0.17193595
-0.016630936
3.4272442
1.0156513
-1.2900983
0.1880785
1.1427999
1.8090882
0.22222304
0.058007296
1.3553656
-0.016502395
1.3935602
1.25846
0.4354382
0.4530124
0.5699768
0.32858536
-1.2680464
0.27719364
-0.9137168
-2.6948333
1.4282612
1.01201
-0.19252877
-1.6608952
0.460287
0.5101141
-1.9757698
1.210325
-0.52788657
-0.9182323
2.50557
-0.27137777
0.88002104
-0.28574935
-0.019136684
0.07804918
3.1239944
1.6551365
1.1368974
-0.029665655
-1.3458754
-2.2710598
-2.5386968
-1.5425752
-0.07673072
-2.9710004
0.8844813
-1.2247107
1.2902045
-0.18862318
-0.15602992
-0.43301082
-0.0418123
-1.2080026
-1.8666639
-2.008607
-3.785836
-1.0480195
0.75725347
0.32318944
1.5336272
-1.2048789
1.4750928
3.4573574
1.8147041
-1.3641039
-2.0823343
1.1164727
0.48620006
0.45731226
1.4932449
0.19437182
1.9564255
0.7636268
-0.6226046
1.8269095
-1.8155298
0.12180617
-1.8330977
1.6332074
-0.28575
0.78890526
-0.8803679
-1.7301384
0.24564676
-1.0566819
3.9194293
-1.845749
1.1435796
-2.5691805
1.3299227
1.3323028
0.3247719
0.29770452
-2.3076768
0.53278995
-2.743552
-0.84789646
-1.5594194
0.8475344
2.470104
0.90912217
0.62189335
-0.061293684
0.3754359
1.4650061
-0.6398691
0.5889657
-0.80579245
1.402998
-0.8168656
0.7690167
-1.0040457
1.7871044
-1.1838993
-1.9104973
-1.5403386
-1.1720303
1.1085311
0.5246922
2.2018645
0.27937466
2.071618
1.7327573
2.2403872
1.7041835
0.2294169
0.1562429
3.5070214
1.4864255
0.853473
2.1051872
1.5947516
-0.40603894
-1.9172566
0.56595904
0.5662683
-1.1323538
0.13866757
-0.93588895
-2.1758034
-0.13233046
0.044779085
1.556453
-0.29213062
0.30105412
0.12695067
-0.14544626
-0.34898973
-0.11162012
0.076193765
0.101151116
-0.14492507
1.2655325
-1.6230544
-1.5380787
0.028849663
-0.21994765
1.3673832
0.28884307
-0.1269418
0.07438182
-0.005451971
-0.19030012
-1.5635028
-0.14673597
-0.79140127
-0.30306095
-0.9460075
0.008073626
-0.19805227
0.32530695
1.293885
-0.029812735
-0.86618197
0.080949165
0.111112066
-0.0038017526
0.02344518
0.18549077
-0.5487502
-1.004023
1.0389857
0.04185077
0.07014765
0.040480938
0.8708382
0.020760912
0.10442396
0.03847759
-0.16162214
-0.056294512
-1.8821173
-0.065783285
-0.03852286
0.098832905
-0.32376516
0.031280797
-0.3363772
-0.47565985
-1.1522111
-0.2806225
-0.5811946
0.17146765
-1.5321683
-0.14331128
-0.825115
-1.8656201
0.09669921
0.018642634
0.042526286
0.65311724
-1.3742875
-1.4001038
-0.02846341
0.0005066968
0.17552048
-0.8813465
2.1176107
-0.27752385
-0.43620273
0.15432067
0.14460543
0.015518355
-1.8368257
-0.01933853
-0.27224338
0.9702707
0.49147636
0.2711998
-0.13965525
-0.84049094
1.1254368
-1.4496593
0.18953311
-0.08820281
0.75459164
-1.4171284
-0.045235507
-0.10386172
0.8048759
0.18512158
-0.84959906
-1.5697519
-0.3229553
-0.33889094
-0.17409189
-0.12963545
-0.023954742
0.69960976
-1.2918719
0.016667305
0.0032382342
-0.03509155
-1.9578633
1.1287223
-0.51108277
-1.6807709
-0.09184577
0.0037762262
-1.4439955
-0.7429953
-1.5230315
0.037003335
0.0178061
-1.444343
-0.027538931
1.9199094
0.13512239
0.014161434
0.22794233
-0.40595278
-0.042126983
-1.6707276
0.6440493
-0.39926422
-0.005464578
-1.8609116
0.005629511
-1.4692355
-0.15396339
0.24126132
0.2757306
-0.065394536
-1.8574377
0.08879004
0.05095823
-1.549351
-0.7963269
-0.46760544
0.15871423
-1.7590506
0.020842712
0.10108865
0.38346833
0.50134903
0.33467528
-0.213292
-1.8157185
-0.11125717
0.02210105
-0.38856545
-1.203914
2.5448828
1.0347642
0.090375945
-0.43421593
-0.07645948
-1.8793464
-1.5366417
-0.021066783
2.3467426
-0.7445456
2.5454237
-0.5361747
0.25927883
1.0978006
2.1520758
0.04933345
-1.6906056
-0.096122906
-0.53806406
-0.4092065
-0.0043154527
-0.31118947
-0.20129216
0.008214177
-0.76850593
-0.21967934
-1.2749673
0.08456109
-0.78208137
-0.115810625
-0.44812992
0.46907085
0.11217852
-0.18710595
-0.73123133
-0.28728
-0.074790694
-1.2068572
-0.49010718
0.1413004
-0.07220944
-0.0037098916
-0.15632394
0.100107074
-0.039976303
-2.423263
-0.016773038
-0.3790897
-0.33521715
0.06691887
-0.39296633
-0.03913905
-0.3076274
-0.1845937
-0.4307644
0.00014233844
0.41290757
-1.081269
-0.037834752
0.61149687
-0.59732914
-0.58417255
-1.4323473
-0.27408668
2.326205
0.16466089
0.0015077244
1.1235512
-1.3587207
-0.087776504
0.5187715
-1.8446107
0.7123059
-0.42810982
0.52429634
-0.12074413
-0.0037496737
0.35532635
-0.9538535
-0.07466099
0.15198329
0.38858074
-1.1413754
-0.7233373
0.13030602
-0.3410022
-0.57086605
-1.2231405
-0.29920328
0.085078284
-0.045218952
0.078329705
-0.02735051
0.7791535
1.4180903
1.4645394
0.22970577
0.11934222
0.0069957725
0.99758244
-0.43303367
-0.25078395
-0.26912037
0.15826757
1.0764555
0.119038396
0.36853614
0.019474888
0.0993892
-0.3887079
-0.37910628
-0.4115
0.207239
-0.029657574
-1.5215745
0.026130648
-1.4267974
0.9478633
-1.4707876
0.024797156
0.72412795
-1.4903013
0.0011867231
-0.097996116
-1.582366
0.060211673
-0.10984216
-0.04505011
0.48840857
-1.7376285
1.2821916
-0.024813777
0.0042836624
-0.15364912
0.13264883
-0.05039936
0.10636835
-0.19043052
-0.12181808
0.029173361
0.663814
-0.3821218
0.19160138
-1.4442848
-1.4970902
-0.056638412
-0.26327673
-1.8633404
0.057738986
1.8527242
-1.3960328
-1.8191466
-1.4506525
-1.1583779
-0.12080914
-0.052653342
-0.035754465
-0.33006948
-0.018268112
-0.20307821
-1.6013594
-0.31205904
-0.0695502
-0.35873452
-0.037379984
-0.21815838
-0.32805228
-0.46347153
-0.3972591
-1.4644498
-0.040194932
-1.2862227
0.20855449
0.31448334
0.049628727
-0.22467114
-0.77826375
-0.25954947
-1.4998323
-1.3822111
-0.37862512
0.1728849
0.06640714
0.047860306
-0.57239515
-0.10068211
2.302157
0.0030299388
1.8504705
0.04336353
0.2713454
0.051457487
-0.36863327
1.1246512
-0.015526297
-1.7289544
0.112319134
0.14939564
-2.6346679
0.09681262
0.3427793
0.108983785
-1.447155
-0.018520128
-0.021539347
0.4700184
-0.7763853
0.027230877
-0.041925788
-1.9246583
0.17640245
0.06815055
0.11899755
-0.09577391
1.017699
-0.049462583
0.08906705
1.9508522
1.155021
-1.485731
0.02926213
-0.2388824
-0.04251034
-0.06688474
1.0686678
-0.18485259
0.009558438
-1.4933075
-1.3872814
-0.42688173
-0.15675507
-0.019419145
-0.2065677
-0.608847
-0.24061699
-0.603913
-0.15124968
-1.3577739
-0.3965807
-0.23731895
-1.322904
-0.9796669
-1.9725304
0.15906109
-0.37417427
1.9566458
0.13761072
-0.21013461
1.8955284
0.016694818
-1.8393676
0.061377026
-0.60565317
0.8255257
0.054754823
1.6119827
0.42928755
-1.2111931
-0.5404121
-0.93245643
0.09140729
0.036709856
-0.6229779
0.08554465
-0.04965691
1.284266
0.027453518
0.17940801
1.6436157
0.75760037
-1.3459822
0.117056794
0.35547537
-1.527914
-1.5938046
-0.71463215
-0.6568175
-0.045336615
-0.08672066
-0.0010893298
-1.9206778
-0.032725327
-1.88881
-0.24278031
-0.25328735
-0.09509
-2.745157
0.017514838
-1.7428726
-2.380224
-1.584544
0.28278694
-0.022459744
0.081264034
2.2988741
0.078160934
-0.09734135
0.07354743
0.04392016
-0.28050515
-1.4459796
-0.26232445
-0.19100653
-0.05743071
-0.39150435
0.32292137
-0.08616902
-0.08031281
0.14019084
-0.17814814
-1.5227379
2.7566917
0.8415796
2.114873
0.03835987
0.022278847
0.06264281
0.0022638736
0.07929938
-0.3052985
-0.19438925
0.044079084
0.60679805
-1.404602
1.9056066
0.058708318
-0.21904418
-2.16263
-0.031185085
0.21996026
-0.12892441
-1.0477018
-1.5271404
-0.029622972
0.13605492
-0.12966771
-1.1819669
-0.28401178
-0.47033
0.031682804
-0.05872788
-0.59065455
-0.22667155
-0.1065493
0.9349691
-0.05580499
-1.6793314
2.3216555
-1.8758627
-0.11278806
0.3344421
0.27707002
1.4958739
0.59032375
-0.12311284
-0.049962614
-0.029350879
-0.46500495
-0.16102864
-0.7839509
-1.3708024
-0.09067261
-1.2130281
0.19463281
-0.157818
-0.9135895
2.5805554
-0.42117944
-0.39692175
-2.0611048
-1.6153468
-0.12438618
3.2341673
1.330207
-0.32833233
0.59461486
0.09568447
-1.3139168
0.06786658
0.083427235
0.1060436
-0.14183864
-1.8220145
-0.97836834
0.031497695
0.010106471
-2.0520205
-0.009658123
-0.518687
0.02622151
0.115717575
-0.4976738
0.2378968
-0.36950007
0.87162584
3.0817916
0.009906282
1.5525376
-0.15361682
0.0636796
-0.41765082
-0.10379121
-0.44515708
-0.056206316
-0.7487275
0.105186515
0.074039325
0.2745755
2.6586502
-1.31707
-0.40189773
0.1296674
-2.447291
-0.102091834
-0.27623284
0.23615178
-0.37962592
-0.09793155
-1.534328
0.23871747
-1.021829
-1.4715475
-0.7993082
-0.12184599
2.9054222
-1.3582339
-1.4351612
-0.16873276
-0.25350446
-0.033120487
1.1200067
-0.8265087
0.03360247
-0.08649511
-0.20700774
-1.6922257
-1.5580355
-0.112417854
-1.546337
0.06423395
1.1694584
0.16469812
-1.3530618
-0.008167022
-0.24719088
-0.26415408
-0.08571054
-0.18983427
-0.69463193
1.237632
-0.8156523
-0.07731747
0.049776778
0.30526054
0.1315889
-1.4572847
-1.4166104
0.41470757
-1.0708138
-0.89059806
-0.47510695
-1.6526097
-0.77586776
-1.7130194
0.03871727
-0.5489546
1.6198324
-0.14141214
0.4561617
-0.0034028357
0.027952014
0.0694758
-0.1067733
0.08921959
-1.0581946
0.06935665
0.3884721
-1.0978738
-0.12914443
-0.5748783
-1.5234934
1.0094577
-0.35138682
-0.22772579
-1.6874759
-1.606325
-0.47629064
-1.1524681
0.10179023
0.33643857
-0.5576403
-0.11531287
0.30246457
-0.37379012
-1.6170863
-0.19557188
1.6659832
1.0917575
-0.03425778
2.43464
-1.7096887
-0.033319052
-1.5334541
0.143818
-1.2307957
-0.018255273
0.025026545
-0.28532413
1.4694248
-0.029528303
0.6020015
1.5702667
-0.82478994
0.96079475
0.18493798
-0.18838789
-0.13164173
1.7387336
1.3881277
0.089221805
-0.041336287
1.7397047
-1.5686872
0.6225748
-1.8986287
-0.15159595
-0.19020218
-0.37810817
-0.08724336
1.6892636
0.08216018
-1.5970212
0.038246475
1.0751101
-0.14086455
-0.39575133
-0.30956912
0.13773938
-0.5431993
1.1147811
-0.35389164
0.28127787
0.31001496
0.37277088
-0.0017948371
-1.9449043
0.95869833
-0.2763884
1.508529
3.0028524
0.0959995
-1.4224293
-0.17833355
-1.2305534
-0.05295402
0.096603125
-0.2178958
0.037343938
-0.18192843
-0.5514489
2.4991171
-0.37062702
0.118155085
-0.14150628
-1.3258575
0.073976755
-0.8331332
0.37222117
-0.6390298
-2.1928897
2.8031175
1.6341726
-0.5277986
-0.18853723
0.057527196
1.6742595
0.6040079
-0.6967817
0.56704664
-0.35323
0.09213259
-0.0069791395
0.45342588
-0.07189865
-0.64320254
-0.28231728
-0.05721963
-0.07491287
0.12181905
0.037409898
-0.030108314
1.9160218
-0.11021219
-1.3812754
-0.62881553
-0.07560016
-0.052136265
0.06911972
-0.09695196
-0.0663654
-1.6176575
-0.0038635733
0.20059295
-1.8799658
0.0010508676
0.07387188
0.045432284
2.755189
2.6390426
-0.017263144
0.00245011
-0.06707297
1.1698303
-0.53694797
-0.49660805
-0.0029034659
0.27082232
1.9389415
-0.005154205
0.06838225
-0.253935
-0.359121
-1.4400334
-0.06680423
1.118109
-0.049160525
-0.17066284
-0.48342603
-1.6675915
1.6844606
0.9264887
0.072185114
-0.1677812
-0.63153553
-0.41938075
-0.37846816
2.1370828
-0.41872254
1.9486395
-0.10920714
0.058561534
-0.16148196
0.07642681
-0.62653565
-0.11910818
-0.094330855
-0.14735854
-1.8610529
0.44948435
0.20109674
2.0158925
1.095379
0.17977457
0.08733482
0.024316456
-0.04462643
0.15730098
0.31066886
0.026527274
-1.3160872
0.10888562
-0.4155066
-0.8280836
-1.5216299
-1.8078387
-0.29538515
-1.8909879
0.42962956
0.98328257
0.071030505
-0.060931567
0.0770057
0.1058459
0.4137537
-0.20182635
-0.6115835
0.24492678
-0.08087731
0.03996288
1.0242527
-0.06829562
-1.7392383
0.2257263
-0.12369179
-0.25079584
1.2476227
-0.07921384
-0.24205187
-1.3988749
0.0810429
1.4043999
-0.085052945
-0.85642546
-0.009451541
0.05137896
0.07684587
1.6432399
-0.12694947
1.235712
0.09600949
0.04801662
-1.2058579
-0.96467346
0.16331871
-1.3366151
0.061354473
-0.16836642
0.07258556
-0.4676771
-1.7413672
-0.3996217
0.07669363
-0.6038522
0.07198316
-0.9296691
-0.17159374
-1.7866309
-0.17497799
-0.88603795
0.0030349344
0.40575257
1.0083803
0.030758021
1.4030849
0.6050962
0.1993337
0.0065769274
-0.2380094
-0.3106959
0.16519305
-0.321096
0.13767268
0.35008022
0.03474231
0.29612944
0.0095202625
0.04952502
-0.027545203
-1.2078923
0.13864014
-0.13713342
-1.7906052
-0.45365426
0.17429762
-1.7957367
0.24553277
-0.46427628
0.32741705
-0.14383256
1.0077335
-0.033668574
-0.8521521
-2.012385
-0.01861351
-1.5716243
-1.2705058
-0.9156884
-1.5312043
-0.004873818
-0.024525616
0.05016155
0.053032286
0.25296253
0.0472856
-0.03340839
-0.03585331
-0.34538653
0.037774865
-0.007529386
1.7769973
-1.1528629
0.5590384
0.48637494
0.036000263
-0.03592286
-0.54808587
0.23303166
0.9185522
-0.22548693
-0.4839466
0.29597816
0.39405957
-0.064963
-1.3467853
-0.17819041
0.736053
1.8853694
0.018838895
-0.39608318
1.66025
-0.10233533
-1.8850902
0.34281194
-0.046241105
0.62296087
-0.035217617
-0.09827548
-1.5589272
-0.08322037
-1.4383366
1.5214238
-0.0151245
-0.118433714
-1.3688958
-0.92637116
-1.1482008
-0.9668963
-0.5628555
-1.6859581
-1.3659109
-1.101985
2.206287
1.5560762
-1.2189217
-1.0918276
-0.8871792
-0.09029305
-0.6010306
-0.37864357
-1.1324306
-1.4273314
2.3569348
-2.213444
2.6929975
0.0108857155
-0.16572782
0.031232605
-0.9524226
1.3083135
2.157388
-0.48868427
-0.8407882
-0.46640116
-1.0992799
-1.6036365
-0.8086021
-0.29141092
-0.57826734
1.1871082
1.6164054
-0.31576568
-1.1365632
-0.8125798
1.4383969
-1.1097329
0.36256754
-1.1157771
0.16429338
-0.8833539
0.22833371
-1.6284785
-1.1687573
-0.3089286
-1.4080426
-0.15008806
-0.92723495
-0.32070118
1.5082419
-1.7264596
-2.5802588
-0.79864883
1.8430328
-0.994294
0.3452625
1.6380326
-2.0829198
-0.9548945
-1.1275235
0.9092067
1.2386701
0.9879172
-1.1058153
-1.0710988
-0.30435798
2.3153524
3.281106
-0.39064372
-0.3705634
-1.7313726
-2.462642
-0.014950565
1.9824523
-1.1058046
-0.71032995
1.5963466
1.3674729
-0.2361564
-0.5936872
2.1452477
-5.7450137
2.0884633
0.160442
-0.30999547
-1.2839001
2.2478075
-0.9577468
-0.9520013
1.8194592
0.6684031
0.69306344
1.3262084
-1.1100386
-0.6152195
-0.71608037
-1.3661935
-1.2301257
-1.3948224
1.087204
-0.6663558
-0.5664871
-0.26891887
0.42297164
-1.2724609
-0.52084804
2.0840805
-0.33615124
-0.6444464
2.6665232
0.4282236
2.056469
-0.34814462
-1.7443755
0.99858147
-0.4156974
-2.306135
-1.4957952
-0.6873966
-2.3725553
-0.2841381
-1.1760225
0.75963026
0.56380975
-0.10249394
-2.2485166
1.4760468
-0.9489996
0.4017399
-0.28639573
-0.16624847
-1.6568208
-0.5460161
0.35568994
-0.04405743
-2.7110379
0.9046871
0.037316024
-0.9100708
-0.09921013
1.1593217
-1.8444023
-0.52880603
-3.1612945
-5.712325
-1.4458628
-0.84046435
1.356516
-0.121087104
-1.2164041
-1.0219872
0.57696855
3.232558
-0.74296254
-1.1287692
-0.7341367
-1.8969387
-0.35632658
0.7408713
-0.31336
1.8051562
2.4533439
-0.88202906
-1.5929556
-2.2827742
-1.6165469
0.36188784
-1.0123491
2.8331964
-0.71052045
-0.09954512
-1.3090523
-1.0237366
0.10659146
-2.1465304
-0.5277693
1.177559
-0.46628213
2.0719042
-1.1756146
3.063555
-1.1976457
1.7922271
0.10329205
-1.1603494
-0.8814817
0.48164636
-0.36728653
0.06429038
0.89915735
-0.08777538
0.38390476
-1.626093
-0.58223826
-1.1373131
-1.9493434
-1.3621542
0.6041976
-0.6888097
-0.31172204
-0.046260953
-0.63475925
-0.84166324
-1.4488918
-0.9364291
-1.0752343
0.6286429
-2.15258
-0.3615693
0.16653183
-0.96951026
-4.123591
-0.39472538
-0.37792394
1.1173329
-1.8769232
0.58970284
-1.6857506
-1.1585046
-2.6704926
1.0090139
-0.62448674
-1.5383632
-0.6202174
0.0721412
-1.2212496
-3.115273
-0.967553
0.22356182
-0.10728028
-0.13438961
-1.6221913
-0.46696594
1.9782491
0.66604966
1.5300161
-1.3559198
-1.0394433
-0.5093034
1.1778995
-1.411396
-1.2298445
-0.67285305
-1.3625236
-1.0980752
-2.534597
-1.0293243
1.2618053
-0.5668378
-0.08219528
-0.52833927
-2.1889043
-0.77429426
-2.34871
-1.2120607
-0.26329055
1.0737275
-1.02424
-0.53089786
-1.177427
-1.83966
0.27229112
-0.6085584
0.6131414
-3.1863503
-1.1673461
0.682701
-0.41454685
1.31687
0.9897864
5.241093
-1.0480553
1.4942372
1.8583717
-0.6004316
-2.2181034
0.81662166
-0.097263396
-0.6802392
-1.3768693
-0.59201795
1.0556924
-0.18603878
-1.8439654
-1.3233399
-0.92808735
-0.37262905
-0.72175217
0.26811072
-0.54806924
-0.57616746
-1.0616046
-0.9704657
-0.19488919
0.6887415
0.49372315
0.7361517
-0.73869246
-0.11657429
0.855031
-2.3268223
-5.290607
1.601339
1.992105
1.3545707
0.3892852
-0.7076539
-1.1837187
-0.15152599
-1.5450103
-1.0986063
-1.0976665
1.6576723
-0.016522765
-1.1814806
-1.9321244
-1.455518
-0.36335889
-0.8841802
-0.76783395
-0.29450047
2.6448002
-1.5165766
0.8303965
-0.8710635
-2.667109
-1.1515712
-0.6372386
1.4366688
-0.5481049
2.4130588
-0.34242755
-0.17226803
-1.3693528
-1.4068488
-0.592326
-0.9086983
-0.97384644
-0.055196784
-0.76652056
-1.3629051
-0.93550336
-1.4144835
-1.2451911
-0.20733494
-1.3736925
-1.1096131
0.65020365
-0.120681524
-1.8850622
0.74337196
-0.032966614
-0.9309353
-0.16934186
-1.2812841
-0.22568962
0.84896207
-2.5971346
-0.1677192
-0.6546642
-1.1533024
1.7772876
0.5300329
-4.290189
-2.6430955
0.8834994
-1.0489097
-0.62152934
-1.0481771
2.7572284
0.29368818
1.2633983
-0.6338291
-0.54408747
-1.5086234
-0.6272148
-1.1003034
-0.5780951
-0.26151705
0.7540269
1.9569714
0.22235784
-0.64196926
-0.7945397
-0.08327001
1.2826276
-0.65161157
-1.1751807
-1.4329667
0.4672003
-0.2143768
0.28044766
2.8143642
-0.41701126
0.43731105
-0.8765453
-0.5419197
3.3459759
-2.412047
-0.14174834
-1.882685
-1.3074846
1.5364501
-0.6583892
0.18914121
-0.73991334
-0.8428701
-4.7337747
-1.0329523
0.29856926
0.09421456
0.71079445
-0.25132352
-0.84983355
-0.920627
0.14314866
-1.1028363
-1.2970881
-1.099144
-0.183919
-3.0026045
-0.96450645
0.40439016
-1.0342647
-1.2024807
1.8895473
0.12802312
0.54292524
2.4011827
-1.2234111
-0.39303628
-2.0491862
0.96711135
-0.19244654
1.27278
-0.73466146
-0.3488853
-1.5379343
-2.3976367
-1.5084177
1.4791499
0.68072844
1.1465502
-0.7624554
-1.0251479
-0.14132449
-0.27620703
0.0977816
-0.69189525
-1.2980464
-0.66202676
-0.65133256
1.4875882
-2.4687092
-0.28854012
-1.1369554
0.635586
-0.86870563
-0.5622399
-1.1787229
-2.1018372
-0.45943403
2.0337052
-1.0120553
-1.169538
3.298889
0.3301009
-1.7635968
-2.4175963
-1.2077239
-0.0749985
-0.37997103
-0.17008364
-0.6343473
-0.058767986
0.79014075
2.1998096
-1.1889851
-0.95551693
0.6353088
0.09448302
0.35610962
0.10539915
2.5180435
1.2829945
-0.68837726
-0.28065348
-0.14938343
1.7944226
-1.0771052
-2.7301939
-2.585969
-0.51038045
0.5968331
0.35247904
-1.7119498
1.4392831
-0.6146491
0.8607262
-0.6333404
0.99019957
-0.73806095
-2.5988393
-0.3211208
0.45473236
1.2638329
-1.5231472
-1.2639662
-0.7940322
1.078921
-1.2979909
1.0823015
2.258272
-1.068081
2.0796523
-0.8249259
0.039600134
-0.62248
-0.35850635
-0.9999279
-0.7392565
0.5258893
1.2742395
-0.71103525
4.9920473
0.9077445
-0.84299606
-0.50957716
-0.3372387
2.1878018
-1.7835062
-0.20313013
0.073167145
-0.5001023
1.4668059
4.329239
-0.721189
-1.8881986
-0.83743936
-0.9275118
-0.38544035
-1.3956356
-0.27811068
-0.7385137
0.45293295
-2.1063805
-1.4258282
-3.9213006
-1.0437704
0.32482815
-0.69793725
0.25256008
-0.2064839
-1.0183599
-0.095445216
-1.2010891
1.479881
-0.47031453
-0.6420755
-0.5617051
1.8424141
-0.57339966
0.0058717728
0.150532
0.6790122
-0.26994866
-0.6532846
-2.9428344
-0.4143988
-1.0275366
1.347231
-2.4019003
-0.41851163
0.9536677
2.7115066
-0.75903845
-0.92378354
0.703987
1.9462639
-0.24220821
-0.46594688
-0.61199677
0.39479673
-0.8233637
-0.80886817
-2.2528539
-0.30543122
1.9462602
1.9009823
-1.3884777
0.8262435
-0.96282095
-0.0495317
-0.9971099
1.4751028
-1.1613313
-0.96387196
-0.63986284
-0.025684431
-0.63709503
-0.13558055
-1.3261094
1.9028672
-1.1170866
-0.7254066
-1.1581111
-0.470643
2.5196466
1.7203665
-2.6322684
-0.12666339
0.87874466
-0.42605388
1.4075623
3.3907228
1.3158698
-0.49846217
-0.01658824
-2.9875977
-1.0306411
0.7427594
-0.5942352
-1.2054573
0.5505225
-1.0485965
-2.0645154
2.1654334
-0.70938027
-2.622078
0.82952523
-1.5329734
1.569422
1.3100482
-1.0599477
-0.20189334
-0.2597898
0.78713334
3.0204144
0.5190965
0.21615952
0.5832452
-0.866331
1.0394521
-0.36837474
-0.40823814
-0.43572193
1.6695588
-0.95617896
0.41291082
0.21755931
-0.5202315
6.459598
2.4696267
-1.7562014
1.1617035
0.6412763
1.9784641
-0.7921097
-1.1431801
-0.52637625
2.6765356
-1.4165118
-0.46436432
3.7367363
1.6565711
-3.1863337
-1.825338
-1.4429661
-0.115457796
-3.5822413
-0.29912722
-0.6684629
-0.7362764
-3.531543
1.3558233
-1.5098212
1.7899665
-0.19408932
-0.41144952
0.63979036
-1.9448864
5.4253073
0.46463114
1.616079
-0.727506
2.5125546
-1.4012121
-0.27995428
-1.1063946
-1.3638245
-0.54399526
-1.7042545
-0.7015268
-0.41366488
-0.28109896
-0.0727448
-1.030168
2.1486413
1.2672405
-0.88152385
3.4633765
0.89893043
0.3207482
2.9818945
-1.7311441
1.4115616
-0.91726017
-4.63621
-0.6822491
0.33108282
-0.5034559
-0.2768215
0.06372309
-0.10592604
-1.1348426
-0.45131257
1.0741135
-0.0666213
1.6505427
-0.5976976
-0.24832
-0.10539918
3.1386187
-3.497643
-1.721313
-0.5387082
-0.15676175
0.31968963
3.2558537
0.07250534
-0.5937916
-0.3627658
-0.9313023
-0.28932494
-1.5337679
-1.248188
-0.6884512
-0.92518336
-0.878759
-1.1089269
-1.1157284
-1.0413798
-1.1554278
-0.5242289
-1.0220568
2.967161
-0.24967158
0.2677688
-1.0071232
-0.67061424
-1.2513673
-0.66065276
2.035788
-1.168679
-3.4445665
-0.32608554
-1.0914956
-1.2318887
-0.7345339
0.37180483
-0.6650605
-1.1289483
-0.9305206
-0.58331376
-0.2086299
0.15249121
-0.6085675
-2.4371567
-1.6357021
-1.4553119
-0.5927502
0.015796058
0.66938794
-0.14658237
-0.29556257
-0.08136882
-1.7044561
-1.0255079
-0.7751868
0.55955565
1.8397694
0.12720008
1.5125451
0.94158065
-3.1877615
0.6783863
-1.2099094
-0.34718728
-0.9632534
-0.77342665
-8.923416
-0.22731836
-1.1154554
-0.7425049
-0.6143447
-0.025038794
-0.5603653
-0.6309218
-1.5821157
1.5670382
-2.5598054
1.3693542
-2.0132473
0.06749636
-0.40587896
0.1159662
-1.1443845
-1.5142379
-0.80978096
-2.07266
-0.6518138
1.5146271
-0.6324801
-1.051507
-0.262007
-0.563526
1.2175967
-0.5009212
1.9138353
-1.7750571
-2.638855
-1.1263412
-1.2657082
-1.144514
-1.7808919
-4.370344
-2.0032861
0.38840687
-0.02903074
-1.1487881
-0.9675904
2.1972966
-0.6442533
1.0341063
-0.5365293
-1.0994757
0.024412334
3.7725945
-1.7397716
-0.99766886
2.2396245
-0.63859975
-3.0674167
-2.415508
0.26400653
-0.4942173
-0.49318442
-0.5867065
3.7569983
-0.6948544
-2.4076796
-0.27099478
-1.0097897
2.7951353
0.96714306
-0.49587643
0.9502769
-2.172385
-1.1516612
-1.0679157
-0.4923772
1.2803721
0.06744146
-0.9074871
0.2975986
-0.7788
0.30923617
-1.011582
1.8082066
-1.5981987
1.1172357
-0.86714256
-6.888959
-0.86857533
-0.20008677
-1.2120771
-0.4260847
-1.623509
-0.79449433
-0.43286493
-0.8980182
-0.30396158
-1.2405936
-1.4650868
-0.71235466
-1.4510593
1.1106263
-0.93723494
-0.559407
-0.8952363
2.8452992
-0.48610502
-0.7422698
1.0038762
0.9323767
-2.9412098
1.9047626
-1.7126992
-0.59077966
-0.53744525
-0.7402256
-0.9506201
-0.544708
0.40666306
1.2186463
-0.7479095
0.38419855
2.016786
0.0059334636
-1.2248973
-1.199202
-1.2168888
-1.0986199
-0.48507026
0.73348963
-0.66134596
-1.1296705
-0.84613264
-2.4111707
-1.6303554
-0.62574786
-0.65517384
0.2414645
0.42384818
-1.8599038
-0.83117694
-1.0857471
-1.7420355
-0.45945868
1.5049813
-2.2143474
-0.74449444
-2.1187298
1.0611476
-0.004724711
3.9570615
-0.87736344
-0.020449162
-3.071759
-1.2561414
0.34628344
-1.6347286
-0.2595443
0.16449077
-0.83428156
-0.933993
1.0465806
-1.0592952
-0.74117315
2.4225855
-1.9674109
0.27961573
-0.6504468
-0.9623235
-1.381533
1.3094544
0.794113
-0.4634582
1.5315132
0.8422952
-0.031903222
-2.0907242
0.5219642
0.5400041
-0.92551863
-0.045131728
0.3958053
-0.449611
0.4162167
-0.35651058
0.034994528
0.2489185
1.3654279
0.6018136
0.84827423
0.038553413
-0.18098031
0.31750932
-0.19470116
0.2666392
0.5942457
-0.55912906
-0.5173595
-1.0741844
-0.38429955
0.107542805
-0.13714497
-0.82591325
-0.21295984
0.06866963
0.30518147
-1.6511542
-1.0850757
-2.2955
-0.54203796
-0.817086
-0.5060751
-1.9654264
0.2014807
0.64152837
0.023123477
0.8789153
-2.6003401
0.4801604
-0.578333
1.1713779
0.14991388
0.6171525
0.36763227
0.066499464
-0.6139664
1.4493687
-0.32639402
-0.02219145
-2.5546036
-0.43446428
-0.17060989
-0.011884786
-0.91147065
0.8530439
-1.6698477
-0.33465275
-0.2846172
0.2978754
-0.17355405
-0.80486625
-1.6316489
-2.7227392
-0.46871334
-0.2986027
-1.185379
-0.15683411
-0.035218243
0.7211695
0.45874754
-1.4485102
1.1771319
0.6290847
0.42106333
0.45121977
0.5265797
-0.7749826
-0.5737444
-0.7421736
0.9249294
-0.16265674
0.21982078
0.45975477
-0.43403164
0.24730936
0.6792687
-0.30886018
0.45612806
0.42688182
0.5629526
2.5430589
0.6091806
0.25172684
-0.5883203
-1.076269
0.19625488
-0.13193318
-0.14075495
-1.9285858
0.43020812
-1.8262779
1.4289867
-0.8575196
-0.82963026
0.026465228
1.134958
-0.2522534
-1.1885877
-0.55554855
0.16207942
-0.56271386
0.18656597
-0.57412714
0.34173107
-1.1719981
0.6226556
0.16583297
-0.045431938
1.2551472
0.62380326
0.8824664
-1.038832
1.3446327
-0.73101115
-0.113687016
-0.001981912
-0.8156632
0.5184015
0.82216233
0.5193535
-0.6803003
-0.73585546
-0.03362979
0.7036501
-0.39349163
-0.40293288
1.0712135
-0.8536053
-1.1807362
-0.58524835
0.5154156
-0.5440759
-0.6922275
0.42015386
-0.77020866
-0.036292594
-1.6159725
0.4220162
-1.6328818
-1.4905093
-0.69181144
-0.40816727
-2.3391352
0.047789913
0.03136739
-1.305586
0.23323743
-1.3778495
-1.5174972
-1.2450348
-0.672406
-1.7745363
-1.6868302
-3.3617966
-7.5343456
-2.6643674
0.14617403
-1.6881769
-0.6607163
0.08475789
-1.1004691
-1.7573513
-1.3938878
-1.4849575
-0.67742246
-1.2912085
-2.1886156
-1.332265
-1.4374838
-1.6693674
-1.6105556
0.09721711
-1.2185073
-0.79623854
-1.4617721
0.043260805
-2.6517866
2.0093358
-0.94153386
0.07528383
-0.066294745
-2.2629824
-1.3818132
-1.5312395
-1.3261032
-1.7790385
-1.4442258
-1.6877872
-0.8638688
-1.4689898
0.109304965
0.33507064
-0.08820814
-0.05666875
-1.9907994
-1.2559949
-1.6015129
-3.1804283
-1.8760086
-0.014887862
-0.7024471
-2.8397384
-1.452882
-1.2931101
-1.127212
1.1869167
-0.33537847
-0.6262406
-1.8478521
-1.1837003
-0.17253812
-2.5829575
-0.048343185
0.14729734
-0.45844442
-0.6645959
1.420719
-0.46841055
-2.0794845
-1.4777597
-1.8606757
0.14646563
1.1005745
-1.77532
0.08608255
-1.6638528
-2.7283833
-2.1911385
-0.6028329
-1.6180481
0.06938135
-1.4958892
-1.6283596
-0.9572677
0.035364207
-1.3622788
0.027015833
-1.0443105
-0.5917638
-1.6090169
0.16103353
-0.652143
-1.3964363
-1.2236458
-1.4799585
