#include "ap_int.h"
ap_int<32> biases[12200] = {
2113
,4248
,4767
,9868
,9698
,10022
,-17570
,9191
,-5848
,5591
,31086
,10237
,7953
,28631
,9955
,-9838
,-12
,13
,10
,61
,24
,41
,17
,8
,-25
,19
,45
,69
,19
,33
,-85
,24
,-288
,3951
,1135
,48
,486
,-869
,3509
,-1092
,-1001
,786
,-282
,1243
,-371
,-379
,-175
,-793
,445
,475
,-132
,344
,-165
,378
,-245
,-746
,462
,-588
,631
,187
,226
,295
,93
,1327
,967
,753
,-66
,934
,40
,747
,-43
,-607
,477
,155
,-258
,397
,582
,-1892
,1034
,155
,-236
,311
,993
,641
,931
,-748
,528
,1000
,-645
,729
,-1089
,481
,-10
,303
,1436
,316
,1057
,1230
,270
,1077
,875
,-486
,1233
,336
,-1
,301
,846
,-98
,581
,200
,-10
,644
,-277
,14
,616
,-50
,-126
,113
,192
,1035
,513
,52
,-316
,174
,211
,-14
,169
,-2
,72
,22
,1404
,1830
,37
,-109
,269
,275
,34
,-8
,1
,0
,428
,40
,26
,-1
,24
,286
,572
,1079
,0
,50
,2
,-2
,204
,-9
,7
,8
,-5
,104
,-4
,-5
,-38
,54
,39
,375
,16
,532
,95
,429
,736
,-2
,6
,-102
,759
,23
,21
,-2325
,3440
,-898
,-691
,-5668
,4328
,-1097
,2163
,-1390
,-1019
,1546
,-16
,-1254
,6134
,1438
,2498
,-436
,1963
,668
,88
,-3616
,797
,928
,1930
,-481
,1482
,1807
,367
,-1187
,289
,1484
,880
,-281
,2586
,-2127
,-654
,-600
,-846
,749
,757
,1317
,-533
,-385
,1292
,1285
,1183
,835
,1450
,-103
,1035
,-57
,1293
,1071
,1081
,-261
,1501
,1492
,2230
,722
,1111
,1020
,1007
,-837
,1150
,1324
,1642
,3343
,1046
,-426
,1332
,942
,1435
,-200
,1033
,2078
,-1199
,1635
,470
,978
,867
,1103
,620
,77
,1772
,1380
,1889
,1092
,-514
,1338
,1496
,590
,-541
,1510
,2029
,727
,-2035
,823
,8
,-91
,20
,137
,238
,187
,24
,827
,1118
,-716
,655
,67
,1245
,36
,0
,24
,-105
,555
,-81
,136
,250
,-499
,1250
,41
,27
,58
,119
,325
,130
,-122
,12
,316
,-31
,70
,322
,53
,67
,140
,458
,766
,1573
,1212
,873
,-84
,635
,730
,169
,142
,-1200
,691
,211
,765
,-71
,31
,457
,1225
,558
,25
,278
,-1
,-53
,-10
,142
,-6
,29
,0
,113
,430
,733
,-416
,-474
,613
,-2737
,905
,-2705
,3079
,-5251
,10995
,7010
,-4269
,-322
,-172
,7479
,-977
,1504
,-4877
,4120
,-1257
,-5144
,5260
,2650
,204
,-4687
,-4284
,-2450
,5263
,1463
,-480
,-696
,-195
,-160
,-189
,-99
,1136
,-93
,-353
,813
,-132
,67
,-394
,-570
,-233
,544
,-82
,-125
,2119
,-128
,38
,-38
,-795
,1059
,180
,1002
,3118
,762
,-251
,-790
,-634
,-785
,-450
,838
,-659
,-180
,601
,586
,526
,1217
,676
,-105
,1286
,-352
,742
,546
,1174
,-1027
,650
,291
,1117
,-190
,108
,1948
,1083
,-787
,2316
,2271
,-356
,1043
,-389
,979
,1901
,2439
,111
,-344
,-246
,-535
,929
,-21
,69
,8986
,-416
,253
,264
,72
,3460
,2744
,247
,6441
,4967
,3391
,7
,3587
,6840
,4828
,641
,113
,-166
,2786
,11827
,2608
,5466
,5766
,761
,931
,625
,4508
,18910
,-204
,2347
,395
,1057
,302
,856
,626
,40
,3836
,-815
,11
,74
,10399
,326
,80
,6721
,3766
,9681
,-624
,410
,787
,189
,3022
,635
,5252
,2876
,370
,267
,638
,10832
,8437
,461
,-372
,407
,591
,29
,272
,3265
,39
,316
,-524
,5049
,2788
,693
,1774
,140
,-411
,-1041
,1029
,23283
,-4
,-331
,-360
,13700
,11182
,-369
,13580
,8926
,12883
,-632
,7570
,-347
,-92
,-240
,-182
,1631
,2627
,-76
,38255
,34306
,42120
,40727
,22667
,44791
,35797
,59833
,43004
,42112
,48768
,39772
,40780
,38230
,48944
,52732
,24131
,35324
,20924
,61417
,49267
,38415
,36480
,33155
,22066
,55384
,36577
,21135
,34712
,33713
,29891
,40820
,34863
,32077
,30314
,40903
,28304
,30601
,25306
,21479
,-11202
,37434
,31145
,41850
,24170
,29329
,23842
,42215
,39031
,18239
,44097
,28716
,43999
,32820
,42396
,51106
,27423
,42077
,53806
,44749
,53515
,35187
,47906
,15184
,51129
,33654
,48164
,39253
,40075
,48945
,38595
,51157
,-3501
,18863
,2994
,-6227
,-3379
,7287
,-2143
,-2231
,303
,-12261
,3005
,543
,2139
,7875
,-7675
,10616
,9873
,843
,3543
,5415
,9155
,4999
,3509
,6227
,-9807
,-22371
,-7820
,1306
,-5194
,-285
,-14402
,-1190
,567
,5251
,571
,-7651
,-9345
,5001
,14460
,-4052
,-595
,2347
,-2436
,1067
,2910
,3326
,2680
,2426
,-5881
,2141
,2637
,3216
,2892
,-623
,20
,-3724
,2442
,3399
,1501
,1094
,2363
,2379
,1404
,2312
,2511
,3522
,2479
,447
,4963
,3804
,2170
,3022
,3034
,2631
,1145
,3000
,2111
,3158
,-4545
,4222
,2193
,-2717
,3701
,-759
,3517
,526
,3262
,1456
,2447
,-449
,6542
,449
,2361
,1834
,2533
,2095
,2795
,350
,3309
,2717
,4469
,4109
,404
,2109
,3933
,3438
,3951
,278
,-707
,-2497
,3316
,2276
,352
,-3897
,-1624
,2956
,3438
,1810
,-567
,3630
,4052
,2599
,2871
,481
,3621
,2847
,3568
,2299
,3997
,3095
,3492
,2701
,1422
,2399
,902
,-1446
,-131
,3340
,1887
,-1563
,6414
,2653
,3266
,2476
,3648
,4718
,-3522
,1044
,1678
,-4224
,1621
,2514
,3376
,4130
,2666
,-1695
,2316
,2263
,2443
,3225
,463
,-146
,-290
,-262
,48
,-115
,-57
,-145
,9
,24
,-25
,334
,-9
,116
,375
,-822
,78
,466
,304
,-222
,244
,-287
,-576
,33
,-23
,-47
,276
,-412
,36
,614
,928
,1371
,1063
,66
,491
,39
,411
,948
,-227
,551
,42
,-36
,823
,-1148
,257
,109
,1118
,-343
,-783
,-604
,788
,378
,423
,-803
,226
,-169
,-55
,395
,865
,-17
,593
,340
,-362
,605
,-24
,1214
,-51
,-69
,106
,-1049
,-34
,556
,464
,437
,459
,228
,646
,165
,29
,-42
,-66
,144
,-219
,12
,532
,-948
,27
,900
,-8
,146
,7
,-40
,207
,931
,188
,-222
,69
,126
,2
,0
,6441
,532
,185
,142
,539
,725
,-596
,469
,174
,-393
,4
,-63
,-120
,318
,393
,302
,818
,-32
,1317
,-30
,-18
,246
,396
,546
,794
,-66
,0
,614
,100
,719
,-7
,-15
,-13
,-2
,276
,-5
,261
,-11
,-244
,-3
,-27
,863
,-4
,-268
,358
,591
,-2
,169
,450
,609
,403
,418
,-5612
,-15522
,9448
,-5992
,5219
,-828
,1939
,3942
,-12342
,3687
,9240
,12661
,5293
,10275
,5128
,-8431
,768
,4775
,6495
,6605
,10400
,4764
,6123
,2968
,4015
,6970
,-8732
,7509
,-560
,9921
,-4457
,6387
,8242
,2710
,8445
,2485
,10744
,6220
,-12989
,-473
,806
,-9480
,1833
,-18232
,8467
,-6401
,6151
,-789
,-9973
,-12346
,13546
,5746
,7518
,1031
,6599
,5288
,5809
,3187
,3811
,-1654
,2359
,731
,15680
,682
,198
,9393
,-2969
,9610
,12373
,-8579
,5993
,-2261
,-3135
,-3507
,-2154
,-2221
,2308
,6202
,1289
,10986
,2668
,-4151
,-5836
,-1320
,9620
,-15492
,5600
,-16781
,8020
,4752
,7113
,8939
,-2532
,-960
,12782
,-12619
,-10186
,10534
,3789
,-7851
,9836
,8293
,4921
,5397
,5031
,-2788
,-10341
,6540
,1841
,2525
,3319
,-3477
,-4824
,-8723
,15948
,13546
,6602
,5334
,7258
,3171
,225
,-596
,513
,57
,1410
,-462
,1068
,-199
,-263
,-503
,-1186
,480
,-274
,-696
,-225
,-660
,292
,-1034
,628
,300
,-379
,-37
,830
,-1157
,931
,-2443
,-386
,-285
,472
,982
,615
,866
,-379
,271
,-987
,-770
,342
,872
,-424
,639
,1866
,412
,-1793
,-2982
,480
,2503
,1804
,1503
,1529
,2094
,2596
,1894
,1710
,4125
,142
,892
,1805
,245
,2113
,2974
,814
,3145
,1804
,2180
,1999
,271
,-2316
,2585
,-295
,-424
,1695
,1455
,1895
,2249
,2054
,-529
,2760
,-4961
,4331
,2439
,941
,546
,1175
,-3001
,-74
,1562
,1977
,2421
,3180
,394
,-2876
,2103
,1095
,-1067
,2620
,2240
,1873
,2566
,1663
,1764
,450
,1214
,2431
,2596
,2498
,1870
,2220
,1965
,2350
,1825
,2719
,2329
,-1804
,1887
,945
,1458
,842
,-5161
,-1928
,1408
,2551
,1941
,2649
,2355
,-6206
,2324
,1832
,2919
,1468
,790
,2163
,956
,2165
,-57
,2312
,-553
,5557
,1854
,1946
,2023
,619
,2011
,2621
,1317
,3832
,2902
,2464
,-828
,1965
,1904
,-1369
,83
,2161
,602
,-624
,659
,2328
,1228
,2482
,1081
,-34
,0
,-34
,-5
,415
,831
,262
,-75
,-5
,-150
,204
,366
,315
,457
,-192
,-682
,-70
,-344
,-28
,-21
,300
,84
,-107
,-45
,390
,249
,309
,294
,258
,-42
,-9
,-39
,10
,-170
,404
,-54
,281
,-861
,344
,-19
,156
,24
,279
,-416
,61
,137
,-259
,898
,744
,257
,-450
,153
,123
,-65
,-13
,1
,8
,-173
,-7
,-141
,-416
,438
,765
,-65
,582
,-97
,400
,0
,1539
,-17
,-2
,3
,-428
,-157
,-579
,12
,668
,-431
,264
,-31
,419
,-100
,5
,596
,-5
,690
,186
,210
,-73
,-384
,-132
,118
,-17
,279
,-112
,262
,1334
,-1356
,-232
,-46
,-254
,-5
,-172
,-52
,313
,-23
,-9
,273
,45
,-42
,-464
,-58
,-16
,-373
,23
,10
,-43
,197
,-30
,148
,360
,-15
,157
,-3
,286
,37
,188
,266
,297
,215
,402
,157
,442
,21
,-1
,-2
,234
,154
,-7
,-13
,-5
,259
,260
,193
,-1
,-6
,153
,113
,181
,0
,-21
,186
,1172
,1435
,7656
,-16505
,308
,-19790
,1392
,-8727
,4726
,900
,12349
,-5095
,9502
,15786
,-8460
,-7731
,1330
,-10514
,-1909
,1432
,968
,3191
,-4167
,1780
,2442
,-6674
,-14388
,18515
,14049
,-2939
,11687
,1988
,1032
,1429
,-19511
,-5289
,-11135
,-18662
,22056
,5680
,-4821
,-2125
,-3810
,-20791
,793
,-1953
,7069
,-11920
,-5906
,3461
,-28696
,-1573
,7162
,2485
,290
,3977
,-1784
,5642
,2026
,-8998
,-6080
,-5910
,-8636
,6508
,-15495
,6372
,8783
,1183
,-18534
,11227
,2306
,4740
,-26285
,-7423
,-3453
,6779
,-46651
,-17277
,-6316
,5259
,-6840
,1978
,672
,-13681
,-20273
,-20093
,-8060
,9145
,6031
,-4825
,5250
,18636
,18684
,5188
,7214
,-11579
,2694
,9345
,8696
,7404
,8782
,2770
,6501
,888
,6187
,7546
,2269
,-11623
,-1881
,8037
,-2265
,5154
,4790
,-7312
,-9249
,-8351
,5070
,2561
,2311
,21445
,-184
,-1562
,1844
,946
,-3237
,-299
,2349
,-1213
,759
,-1259
,-1670
,-2435
,508
,-2095
,-1870
,-191
,496
,-1099
,-971
,4112
,767
,154
,1117
,-33
,2460
,-3950
,-2652
,557
,888
,1245
,1398
,-3992
,-5667
,1224
,271
,-753
,2777
,4870
,-3884
,4950
,564
,-193
,1836
,-1563
,3969
,-1492
,-334
,2598
,-478
,405
,555
,-1682
,-1732
,2070
,-290
,-1263
,-233
,1414
,209
,-1449
,-2109
,-1641
,909
,1607
,-1684
,-1634
,420
,1334
,1603
,-1725
,-1221
,444
,-1631
,63
,17
,-1380
,1346
,-1798
,1718
,-891
,-1005
,126
,-1486
,2164
,-1764
,-1196
,-1742
,-1775
,-1816
,-1700
,-1391
,-1532
,134
,-1698
,-727
,456
,-1574
,-287
,2040
,-1798
,412
,-16
,121
,-1558
,-1384
,2503
,2570
,46
,2194
,-462
,-2315
,908
,-1734
,-1268
,-1411
,476
,-1801
,-849
,-1864
,-1525
,-290
,-928
,-298
,-181
,-1354
,4269
,-1739
,-1968
,-749
,954
,-1564
,-865
,-19
,-854
,650
,-937
,-1464
,2023
,1131
,-205
,912
,99
,-1524
,587
,-1567
,-1433
,-2061
,1315
,-1884
,-1188
,-117
,-1211
,-3588
,-1885
,-1129
,-1567
,-342
,-733
,-1244
,-1273
,502
,-1370
,-1319
,318
,-2018
,-108
,-492
,2685
,-454
,-427
,-1574
,1543
,-344
,-1711
,2593
,-495
,92
,-3148
,197
,-764
,2410
,-1068
,-1829
,-1153
,-1272
,-282
,-1837
,-118
,-1210
,-1391
,-249
,-2578
,-231
,-157
,1148
,-1748
,1378
,91
,-1867
,-1253
,-1890
,-1823
,-1814
,-389
,-763
,-1362
,-962
,-1247
,-880
,-16
,-2187
,18
,348
,-251
,-484
,-1381
,-1865
,-748
,-1683
,-1016
,2634
,-2022
,109
,2374
,-2101
,-1590
,-811
,-1331
,987
,-1651
,1915
,2102
,-1880
,-925
,-1300
,56
,-1978
,-390
,3327
,-1887
,-25
,-1834
,1833
,1580
,-1311
,2241
,69
,530
,-1849
,-1572
,508
,-1103
,-11
,997
,-141
,2459
,-1838
,386
,-1932
,-310
,-1662
,2395
,-426
,-118
,2734
,179
,-340
,268
,-63
,-1208
,227
,-192
,441
,-1796
,-1601
,-889
,-1704
,1093
,-1789
,931
,-51
,-232
,680
,1239
,1293
,-284
,361
,96
,79
,1859
,461
,1128
,1285
,-43
,718
,138
,1443
,745
,619
,788
,838
,84
,53
,706
,1268
,743
,707
,156
,119
,588
,924
,-225
,-303
,316
,609
,1078
,-4
,-3
,109
,844
,533
,-266
,535
,753
,615
,625
,1036
,1299
,1185
,1474
,766
,1369
,-171
,189
,606
,562
,-131
,490
,650
,934
,-151
,597
,548
,593
,1191
,779
,810
,656
,662
,652
,1039
,259
,277
,1140
,311
,544
,1083
,-44
,-544
,931
,481
,827
,-96
,561
,542
,1387
,1252
,793
,502
,611
,1622
,417
,-259
,964
,739
,815
,763
,-208
,638
,-213
,660
,687
,840
,350
,1228
,1068
,721
,679
,756
,1230
,680
,884
,425
,732
,822
,611
,-196
,904
,631
,834
,714
,1415
,-17
,676
,580
,688
,504
,730
,548
,665
,26
,-203
,611
,1434
,847
,602
,731
,560
,-154
,590
,1200
,1078
,210
,1106
,652
,392
,1314
,-282
,1128
,1119
,648
,-312
,-186
,655
,754
,732
,834
,343
,-539
,485
,1091
,346
,1852
,581
,363
,180
,396
,305
,487
,1602
,480
,1268
,729
,978
,-137
,1064
,1269
,1013
,1896
,331
,154
,459
,613
,785
,952
,910
,436
,1267
,692
,1382
,-37
,520
,1018
,1246
,592
,-220
,712
,869
,-143
,221
,198
,343
,940
,814
,672
,688
,-22
,657
,2129
,221
,541
,186
,312
,706
,-431
,802
,1045
,417
,542
,-90
,396
,701
,670
,636
,217
,820
,300
,89
,390
,905
,274
,833
,1501
,1001
,1310
,823
,-141
,612
,366
,423
,9275
,-30871
,2928
,-5640
,-1980
,9107
,-13603
,1168
,-1470
,-11185
,-9293
,21874
,13950
,-9378
,9787
,-14
,-7143
,-3581
,-4397
,-1157
,5853
,-10280
,-17368
,705
,3430
,3464
,-1006
,22778
,2121
,18923
,1059
,4086
,-18613
,-3677
,8273
,-4911
,-12965
,3186
,3835
,-12244
,11913
,2274
,-1844
,-7551
,-15388
,-6828
,-2129
,3949
,-19270
,-13291
,2521
,-8010
,33103
,6076
,-25976
,-4774
,9126
,10546
,3107
,5256
,12458
,2766
,-19871
,-3280
,29359
,4800
,24807
,4128
,1032
,2630
,-963
,6323
,-6121
,-10118
,-9670
,928
,-1943
,-13759
,-901
,14530
,-3995
,-2606
,2547
,3962
,-746
,258
,145
,4459
,-3676
,3
,-905
,54
,-1214
,45
,-573
,-316
,132
,353
,166
,141
,-780
,2655
,-782
,20
,-236
,-325
,-3808
,282
,2579
,-74
,3147
,4634
,-3927
,164
,170
,-184
,4367
,-3672
,437
,-1526
,-916
,24
,-184
,1659
,2999
,-1199
,723
,52
,159
,-2214
,712
,364
,-1
,-113
,-189
,-57
,-485
,-604
,466
,-702
,270
,3783
,-3989
,3718
,-725
,-584
,2663
,-888
,1280
,2668
,-100
,447
,1244
,-672
,667
,-217
,-75
,-158
,1798
,22
,6
,-300
,-115
,15
,2633
,-476
,6472
,265
,-4643
,415
,-3194
,4531
,63
,1135
,33
,224
,145
,-198
,-16
,88
,-172
,-374
,361
,269
,618
,49
,-4171
,6221
,1477
,103
,-136
,3106
,-2
,-85
,3282
,-269
,214
,1744
,5812
,-1338
,-105
,4843
,-3471
,388
,-425
,69
,-9
,-449
,197
,5592
,132
,5235
,-192
,-1162
,54
,17
,198
,-935
,-133
,543
,247
,5149
,-5388
,-1074
,791
,63
,-3399
,-972
,-2006
,-511
,41
,460
,-2255
,-364
,-14
,4737
,5001
,-272
,-654
,-1338
,-3626
,4784
,116
,90
,1736
,-259
,-1437
,5180
,-32
,-170
,3577
,-3619
,867
,5868
,70
,402
,26
,3334
,-367
,-31
,0
,-738
,276
,-962
,5104
,51
,306
,86
,-37
,102
,186
,-190
,-172
,3874
,2712
,3146
,394
,77
,-441
,-1456
,166
,-335
,-100
,-292
,-436
,-194
,-291
,-321
,108
,-306
,-99
,-362
,-161
,-310
,-305
,-339
,-308
,-271
,-287
,-455
,-309
,-221
,-20
,-311
,-297
,-313
,124
,-303
,324
,-290
,-619
,66
,-131
,-292
,-369
,-290
,201
,237
,-282
,-250
,-133
,-297
,-314
,-163
,-208
,-324
,-242
,-342
,-294
,47
,-246
,-148
,-290
,-352
,-362
,-236
,-145
,-283
,-303
,-428
,-179
,565
,-23
,-625
,-236
,-303
,-549
,-283
,-611
,-318
,-312
,-63
,-133
,-124
,-312
,-290
,-302
,-243
,-524
,-290
,-314
,-298
,-291
,-291
,-237
,-189
,150
,-252
,-34
,-286
,304
,554
,-300
,-227
,-293
,-225
,-293
,-318
,-275
,-239
,-290
,-312
,-371
,-230
,-27
,-296
,-5
,-274
,-27
,-306
,-292
,145
,-280
,-297
,-389
,164
,-312
,554
,-275
,547
,-326
,-27
,177
,-170
,-327
,-339
,-298
,-268
,-302
,-307
,-289
,-64
,-340
,141
,-289
,-357
,-210
,-137
,-285
,-330
,-312
,-304
,61
,-240
,510
,-389
,-40
,-91
,55
,503
,-258
,-313
,88
,-315
,-248
,-808
,-292
,-36
,-213
,35
,198
,-590
,-303
,-307
,-42
,-85
,80
,42
,-262
,-313
,-176
,365
,-254
,46
,-284
,-409
,-306
,-59
,-367
,-320
,-274
,-220
,-280
,153
,21
,-282
,-287
,-271
,-291
,-319
,-218
,-309
,-311
,-265
,-124
,68
,-116
,-284
,-306
,491
,-15522
,932
,8655
,-259
,2474
,1242
,1931
,-51830
,-1631
,-3399
,9218
,-5351
,-5633
,136
,-15099
,5021
,765
,-690
,-4416
,1906
,-8019
,-21736
,-6149
,-1576
,6901
,4936
,96
,3423
,6827
,417
,-139
,-3457
,-417
,8816
,19425
,1128
,-1323
,-938
,-3226
,841
,1868
,-492
,-3344
,11339
,-175
,-5753
,4661
,229
,-2433
,704
,2762
,-641
,-2150
,-3823
,-5708
,7199
,-4908
,-11052
,-2354
,-1412
,2183
,3248
,-10520
,4733
,-1978
,-432
,856
,-1149
,-706
,5296
,-9451
,-1591
,2530
,-45
,2161
,-3423
,8296
,-165
,1804
,4934
,-487
,3792
,99
,1078
,-3347
,4297
,-2108
,-3219
,78
,-2205
,494
,3081
,-917
,-468
,-369
,975
,75
,6
,-122
,-1862
,-3273
,1304
,-23
,-205
,470
,426
,95
,-3446
,-3593
,-2039
,4004
,-597
,4385
,-1283
,112
,-485
,2091
,-2709
,-3603
,799
,4194
,-1756
,4229
,-1671
,-1531
,1762
,423
,-1
,687
,679
,2251
,2242
,291
,-480
,345
,-400
,-4184
,-3624
,-12
,4249
,-244
,131
,-43
,1615
,364
,242
,-3395
,155
,-3413
,172
,-1213
,-3719
,-435
,1391
,-622
,50
,-1799
,204
,-641
,-4146
,-80
,613
,-6458
,-272
,610
,133
,-5040
,5977
,156
,102
,-3506
,3
,-316
,2906
,53
,3172
,-301
,-480
,431
,-2859
,-3802
,3036
,1537
,879
,-2110
,42
,-524
,-3511
,-9
,-253
,218
,129
,-2751
,2650
,561
,83
,630
,82
,123
,3882
,-429
,3064
,6832
,-759
,565
,-1177
,1160
,2009
,-3641
,-385
,6251
,3492
,-2389
,2832
,488
,292
,605
,155
,-1107
,-1416
,-2789
,1094
,16
,-3503
,-341
,-636
,4042
,3122
,-85
,-157
,-1267
,653
,900
,395
,-1392
,458
,2360
,4688
,-978
,-657
,-819
,1848
,5302
,354
,820
,-2984
,345
,161
,-281
,1824
,55
,-650
,2896
,-248
,1452
,-507
,-107
,-2120
,132
,284
,6198
,-1541
,4471
,574
,-247
,-925
,-342
,-155
,108
,-61
,185
,-235
,-190
,-72
,-218
,-657
,-77
,-411
,-234
,-258
,-311
,-323
,-589
,-9
,-6
,-584
,-321
,-378
,-343
,-307
,-239
,273
,160
,-474
,-206
,-323
,-636
,448
,-256
,-168
,-240
,-262
,612
,-299
,119
,81
,-710
,-534
,-81
,-600
,301
,-210
,-580
,-314
,0
,154
,-476
,-501
,-362
,-276
,338
,34
,-319
,22
,-304
,-316
,-318
,-210
,-36
,-167
,225
,-501
,619
,132
,-6
,465
,-51
,-365
,-234
,-265
,-389
,-281
,-260
,11
,-396
,-503
,229
,-185
,-301
,-304
,-75
,-783
,-298
,-298
,526
,-369
,-316
,167
,-214
,-169
,-210
,-217
,-324
,-55
,88
,-276
,-473
,-324
,146
,-305
,221
,503
,-276
,-168
,-303
,-335
,-17
,-43
,-292
,-459
,242
,-325
,-297
,-305
,-155
,-661
,-171
,202
,22
,348
,560
,-614
,508
,-301
,954
,-108
,42
,-261
,-349
,-150
,-14
,-329
,24
,-16
,-153
,26
,9
,347
,-328
,-711
,-749
,-729
,-367
,-345
,-171
,-463
,574
,-187
,492
,-302
,-3
,63
,146
,236
,-197
,-430
,57
,298
,-277
,-97
,-209
,-306
,-611
,-50
,-321
,-124
,-99
,-329
,-54
,144
,-286
,85
,-308
,-295
,319
,142
,95
,-272
,-4163
,-1247
,13230
,117
,-640
,-906
,1258
,-15267
,673
,-3713
,8441
,-2130
,2244
,-282
,-4139
,-1855
,1885
,-469
,1563
,-2507
,1578
,-3138
,-5607
,983
,-6977
,-3284
,-2136
,1943
,1157
,-824
,-1105
,2523
,3145
,4065
,17611
,1703
,808
,221
,2161
,-1480
,-1285
,469
,457
,-5019
,3188
,-1096
,1689
,1251
,-829
,-168
,-810
,-443
,-880
,-2377
,-4368
,-3471
,3738
,3989
,57
,886
,548
,-5857
,-7260
,6139
,-1192
,457
,5959
,1722
,-875
,3844
,-1236
,-1401
,210
,-1090
,1026
,1931
,-3083
,705
,-5164
,704
,-1597
,1286
,-1283
,-1082
,4956
,-289
,-3185
,252
,-4099
,6487
,-3852
,-715
,-3941
,-4674
,294
,-2247
,124
,3851
,52
,-3082
,-2941
,-1564
,7237
,-239
,-2461
,777
,-1337
,-3142
,-4815
,2379
,-1052
,4852
,182
,6082
,-1720
,-2109
,-1029
,-546
,-3183
,-1808
,1864
,1094
,3564
,-3182
,1396
,511
,0
,8885
,8926
,-2825
,700
,-4755
,-1515
,-1298
,134
,-503
,-3042
,-2223
,-1228
,-5085
,-4244
,152
,2209
,-2331
,4130
,-2280
,8130
,-2429
,-2981
,-3993
,-4142
,-808
,-4675
,-3925
,5434
,765
,785
,5943
,-1214
,154
,-3052
,941
,730
,-1436
,-4275
,-1585
,-1532
,-2328
,-182
,-249
,-2415
,241
,860
,-4329
,6034
,2330
,313
,307
,-2622
,-3317
,-1026
,-3880
,-3729
,-2818
,-161
,5638
,-3442
,-5366
,1887
,-888
,2494
,632
,-3039
,-387
,-3652
,449
,-2073
,-95
,-864
,116
,-4128
,-4096
,-2363
,-2216
,-3158
,5775
,-2408
,116
,3183
,-4127
,-3745
,-3582
,-4836
,-4910
,-1107
,1150
,-1135
,1629
,-433
,3623
,-3788
,-4391
,-4063
,1306
,1145
,-3629
,6459
,477
,-864
,-1773
,8137
,-4514
,-3800
,2299
,-652
,-380
,132
,-3509
,-1272
,-1531
,-2204
,6189
,-4067
,-678
,3143
,-3431
,-2735
,-4543
,-1253
,-2588
,-3063
,277
,-2545
,-3309
,-2344
,551
,-4960
,-2043
,3405
,-2207
,3372
,-317
,-4056
,-2696
,440
,34
,421
,-76
,182
,53
,238
,399
,550
,294
,419
,193
,701
,371
,445
,179
,367
,198
,333
,122
,97
,312
,-46
,-180
,221
,-181
,402
,448
,454
,-498
,119
,-665
,-289
,246
,212
,323
,-329
,-157
,202
,346
,-184
,-353
,164
,319
,-311
,-161
,36
,54
,358
,389
,-103
,475
,294
,550
,-114
,-249
,219
,328
,170
,178
,359
,-162
,-387
,-3
,-134
,292
,-399
,398
,183
,560
,213
,102
,259
,437
,-30
,158
,-351
,236
,192
,-168
,-59
,427
,-81
,543
,-52
,268
,111
,366
,-159
,-142
,505
,-412
,110
,405
,181
,-345
,-438
,-64
,472
,301
,449
,149
,120
,212
,-337
,131
,112
,218
,125
,157
,-184
,63
,168
,-117
,274
,303
,245
,-125
,57
,-103
,291
,498
,225
,161
,111
,316
,332
,-167
,34
,243
,499
,350
,257
,125
,396
,-75
,153
,89
,-100
,246
,-11
,341
,408
,-340
,319
,270
,-21
,-127
,181
,338
,-55
,397
,341
,-72
,148
,-105
,-122
,261
,219
,498
,240
,442
,348
,-100
,-89
,77
,-59
,467
,199
,-4
,82
,-275
,29
,86
,346
,6
,239
,56
,-549
,378
,-96
,-332
,371
,443
,-5199
,419
,6097
,314
,3914
,-1345
,399
,-19136
,2643
,-3864
,3540
,1455
,-3032
,-1612
,864
,-960
,-80
,1545
,2992
,-6471
,2
,3801
,4583
,2853
,5069
,8313
,-930
,-3627
,-6536
,-2044
,2157
,-490
,6558
,-860
,-12907
,-1552
,7280
,-4550
,2289
,99
,-2171
,-820
,-517
,5267
,562
,-3753
,-440
,-4156
,-1607
,-4860
,921
,-384
,-4735
,-2431
,544
,2263
,12541
,4283
,1343
,5384
,1593
,4690
,-3445
,3458
,-2342
,-918
,567
,510
,6803
,5546
,2633
,-14385
,4083
,2576
,-1759
,-4181
,5108
,1056
,-350
,-1205
,-1685
,1218
,-1953
,159
,-1219
,-597
,-2490
,-450
,492
,855
,-199
,2177
,134
,-1699
,-111
,-211
,2917
,-1714
,407
,2672
,187
,1976
,130
,2931
,27
,-112
,-1564
,199
,-271
,658
,445
,233
,2609
,196
,-537
,34
,555
,721
,1016
,-1035
,-717
,2734
,1906
,935
,-1737
,-208
,-1362
,168
,-152
,517
,-584
,138
,-1316
,27
,1453
,-36
,352
,-195
,-280
,-637
,5954
,1149
,21
,243
,-1062
,-1241
,341
,-1307
,2205
,-2686
,-1551
,-67
,-2247
,1367
,3403
,2590
,1380
,1140
,179
,1068
,-1415
,-531
,252
,76
,-1878
,-1545
,-1
,-1552
,-1922
,-2114
,-1441
,644
,478
,1647
,569
,52
,-329
,-1960
,-1981
,-1990
,1494
,131
,-1906
,-970
,-1884
,593
,-2152
,2402
,3512
,3158
,2923
,-165
,14
,692
,-531
,169
,603
,3479
,-1824
,738
,642
,1956
,2347
,-1890
,894
,3290
,-1826
,91
,-1496
,-112
,41
,3186
,-111
,2636
,1445
,535
,3166
,1678
,30
,296
,1591
,-1828
,2471
,-20
,1306
,3115
,-939
,-205
,68
,2972
,-1613
,862
,99
,-2059
,-1819
,-1755
,1197
,3268
,-1955
,938
,3587
,263
,4393
,-449
,-1713
,-297
,718
,-382
,1765
,-620
,-1540
,-1929
,-2395
,49
,3669
,24
,793
,-1544
,72
,2916
,-1939
,54
,-1166
,2077
,-1761
,37
,754
,-1259
,-896
,-63
,-5
,1752
,189
,-1238
,-1644
,19
,96
,-735
,2121
,2716
,1029
,-2065
,1679
,993
,1001
,600
,2703
,133
,214
,1325
,-1589
,2416
,-1289
,236
,2014
,-1282
,2652
,73
,-1032
,-10
,64
,3659
,-1708
,18
,-46
,-1497
,16
,-2225
,-987
,1233
,899
,1368
,-41
,638
,1529
,-2475
,2140
,2458
,-267
,-560
,4103
,452
,380
,2658
,1103
,-1423
,3541
,1589
,14
,1053
,50
,40
,2455
,954
,-1801
,-1933
,1446
,386
,-1920
,-234
,2858
,-1850
,246
,2459
,-2710
,1330
,-1102
,-1202
,-155
,2684
,490
,1457
,299
,4926
,-1680
,1478
,765
,108
,3676
,-235
,-109
,209
,270
,290
,4083
,-1617
,-1485
,3791
,66
,1815
,324
,35
,-1620
,-299
,-169
,1142
,256
,3735
,80
,2296
,3689
,-2228
,379
,-1642
,-119
,-1701
,1071
,-218
,-2702
,2243
,2875
,-667
,-1815
,-22
,2833
,307
,964
,2793
,192
,-1302
,279
,4097
,234
,-1694
,3916
,3566
,-3761
,880
,181
,381
,-1809
,-19
,-192
,2499
,-1458
,5577
,451
,-758
,-2057
,90
,1375
,44
,388
,2667
,-127
,-1524
,1330
,-121
,2026
,-1549
,2567
,3099
,-1353
,382
,1966
,-706
,252
,2084
,149
,155
,-116
,1733
,281
,150
,572
,-36
,-784
,1001
,27
,568
,-1755
,107
,-2272
,-271
,-1608
,768
,-1598
,725
,13
,145
,244
,1050
,560
,2340
,2438
,256
,-328
,-106
,-1974
,1255
,-873
,-1
,2605
,-25
,-427
,2900
,-2114
,809
,2254
,2998
,-8
,65
,1204
,473
,-133
,44
,5606
,268
,-1877
,2696
,163
,1253
,150
,1225
,207
,32
,-46
,-1952
,2790
,-1584
,-1930
,-1434
,2174
,163
,3282
,-1670
,-863
,285
,378
,4997
,2506
,241
,-500
,1981
,32
,-902
,-1001
,-1331
,-571
,-1050
,-268
,-1905
,27
,745
,68
,-2374
,192
,613
,2011
,-1959
,875
,422
,-1594
,946
,162
,2755
,-170
,-562
,2482
,-226
,-338
,24
,-422
,85
,125
,-143
,595
,-37
,321
,2140
,1497
,-6
,-169
,862
,-664
,-1751
,-2842
,59
,36
,2185
,-79
,106
,83
,-119
,-49
,6
,-23
,-19
,76
,16
,-59
,16
,9
,44
,3
,-16
,101
,62
,-140
,-118
,53
,256
,-123
,142
,-7
,28
,-80
,42
,-82
,11
,66
,-62
,164
,46
,42
,78
,51
,-25
,15
,-3
,-33
,-289
,120
,29
,-76
,-89
,75
,4
,-80
,12
,-27
,-55
,-31
,18
,106
,34
,40
,54
,28
,13
,-135
,-216
,-14
,-84
,-42
,104
,-179
,-57
,142
,35
,62
,-22
,-11
,-271
,215
,316
,-13
,-208
,-135
,50
,37
,44
,83
,-1
,113
,148
,-79
,117
,123
,42
,71
,58
,53
,24
,-257
,72
,-39
,441
,22
,37
,-161
,9
,24
,-27
,132
,47
,97
,74
,-39
,-18
,153
,15
,-47
,19
,-20
,-58
,-163
,171
,121
,66
,84
,82
,-245
,122
,26
,-63
,161
,-27
,1
,8
,-13
,-61
,12
,-149
,-222
,66
,23
,87
,4
,-46
,-53
,-88
,115
,57
,32
,7
,23
,66
,-10
,174
,141
,-66
,2
,8
,86
,152
,-5
,-126
,272
,99
,312
,-91
,189
,-91
,41
,-56
,60
,33
,-58
,-3
,4
,52
,64
,-33
,-29
,-111
,53
,96
,-21
,-100
,122
,61
,-117
,69
,45
,-2
,-142
,25
,20
,-46
,-130
,-50
,31
,14
,149
,29
,3
,-33
,82
,-11
,-86
,31
,-296
,89
,-315
,-126
,-26
,-15
,56
,-98
,108
,11
,19
,41
,6
,-21
,-228
,27
,14
,-100
,-142
,732
,128
,-85
,5
,177
,34
,20
,24
,-241
,62
,-16
,-55
,3
,-222
,67
,149
,-87
,-45
,22
,33
,-64
,-152
,-94
,7
,94
,51
,-278
,-81
,-15
,-35
,19
,-87
,-17
,11
,159
,-81
,-83
,-104
,9
,281
,-83
,-148
,-160
,3
,70
,57
,-38
,-107
,256
,72
,15
,47
,-49
,-58
,344
,-5
,-1
,-87
,-44
,-87
,-6
,16
,66
,-78
,98
,-5
,-143
,-81
,-130
,9
,-91
,149
,-47
,4
,73
,15
,-70
,-2
,-312
,-78
,64
,-61
,-19
,-25
,39
,-41
,41
,38
,-2
,3
,36
,180
,-4
,142
,13
,1
,-154
,19
,-3
,3
,289
,-34
,164
,-229
,115
,23
,93
,73
,50
,90
,-129
,-58
,-123
,50
,508
,88
,-161
,41
,-165
,-70
,20
,43
,134
,43
,177
,-174
,-84
,73
,127
,-221
,-56
,-10
,-102
,38
,42
,26
,51
,16
,-25
,-59
,-230
,-35
,-57
,-212
,-71
,-42
,-106
,-58
,-98
,103
,-47
,-109
,29
,24
,59
,-3
,2
,-101
,-42
,-70
,-156
,-30
,-88
,-17
,43
,19
,12
,178
,-276
,-103
,-22
,-101
,-120
,59
,-147
,32
,-87
,-127
,137
,32
,-94
,-24
,-68
,65
,0
,42
,-145
,-73
,308
,49
,43
,-121
,114
,-52
,23
,2
,809
,-241
,153
,178
,13
,-63
,-22
,-142
,20
,-231
,-174
,-77
,-17
,69
,-82
,-55
,245
,26
,22
,11
,-4
,-47
,66
,17
,272
,9
,-245
,7
,-2
,-40
,12
,-125
,142
,-211
,55
,152
,1
,-107
,12
,-16
,-9
,131
,28
,-3
,-103
,-96
,-27
,4
,-111
,-145
,-19
,-106
,161
,-33
,54
,-40
,12
,44
,108
,-10
,-2
,-97
,-264
,55
,58
,-258
,-1438
,-134
,145
,307
,397
,258
,560
,349
,347
,283
,128
,304
,421
,-427
,-322
,-321
,-756
,-105
,109
,547
,137
,303
,-198
,-297
,486
,-249
,430
,118
,19
,-80
,338
,438
,287
,421
,450
,283
,438
,570
,628
,310
,403
,-115
,524
,447
,-168
,-25
,301
,251
,274
,-369
,154
,-83
,252
,215
,31
,-139
,201
,-43
,218
,376
,293
,-314
,43
,95
,301
,329
,257
,-727
,-384
,-224
,373
,500
,374
,37
,240
,39
,-31
,643
,56
,180
,-169
,-54
,-399
,106
,40
,195
,119
,116
,57
,446
,-594
,102
,186
,517
,305
,405
,-30
,-8
,-7
,-172
,567
,-84
,-2
,-365
,113
,284
,-252
,86
,128
,-181
,-2
,46
,-116
,391
,480
,-143
,537
,15201
,-5180
,-9328
,-2634
,-10795
,-9435
,-16307
,-11438
,-4025
,13899
,-11726
,12588
,1066
,-12093
,-10929
,-14443
,16983
,-4134
,-7371
,-3040
,15995
,452
,-5192
,12899
,1735
,13720
,13734
,18745
,-7727
,4946
,-2671
,-4359
,1596
,4881
,11429
,-16914
,6053
,-6326
,13197
,-5120
,430
,-8727
,-1327
,1186
,17923
,-16298
,-6993
,446
,-7523
,63
,-14262
,-11114
,-7113
,-3674
,-3861
,8118
,17740
,7541
,-8837
,-4014
,-10089
,3661
,639
,-12586
,-2369
,-12487
,-6184
,-10299
,2284
,-13640
,-15720
,-8956
,-11022
,-8930
,-17089
,-3250
,6762
,-3882
,-8704
,3490
,-9049
,2828
,-2701
,-3847
,-2198
,-9914
,-8684
,-8155
,-7735
,-11144
,-19682
,6297
,-6371
,14277
,-7114
,5705
,734
,-7867
,-15454
,-12998
,-2451
,-4566
,-12997
,-3665
,-6812
,12840
,-8863
,15705
,8039
,364
,12274
,-5524
,322
,11294
,320
,-6701
,-5370
,13886
,-1734
,-7952
,-494
,952
,-2576
,-10377
,6235
,-5115
,-8063
,-11135
,-8706
,1998
,14223
,-3377
,-15740
,-9976
,-7497
,7993
,-3542
,1369
,15695
,-5077
,183
,17754
,2593
,9896
,6589
,774
,-5183
,7400
,3521
,2360
,-6833
,-6223
,3886
,-18674
,-11000
,-12259
,15427
,3200
,-5071
,-5997
,-12
,-16570
,16920
,9060
,-11448
,-17638
,10235
,10090
,5571
,-16948
,8134
,-11978
,-11203
,-4670
,-8640
,10521
,10051
,-10794
,-8565
,-11388
,-11686
,-2501
,-6038
,16833
,-20357
,1481
,-9078
,3802
,-4827
,-8997
,537
,-4001
,-4820
,1624
,-2045
,2592
,-14907
,-20457
,-2397
,1611
,-6561
,762
,-5205
,6184
,-9414
,-14829
,-5796
,12070
,2931
,-7361
,-9253
,8652
,-10129
,10676
,7256
,-7105
,-7590
,16606
,-2468
,-17878
,-7705
,-6495
,1117
,-2695
,-2904
,-10681
,5407
,-2508
,12888
,-9375
,12148
,-2723
,-9213
,-781
,13416
,-6797
,-5007
,-9953
,-11447
,1193
,-8387
,-7526
,-6337
,4420
,12399
,-16078
,17069
,-5077
,-3507
,-12703
,-1893
,6118
,-1549
,-11396
,-15952
,-10884
,-8717
,-13155
,17233
,-7628
,-2577
,1697
,-7581
,1809
,-12640
,4880
,7224
,8349
,-14658
,-5706
,-10314
,6507
,19016
,12709
,8849
,941
,14465
,-5027
,-529
,-7725
,-20160
,-10742
,3831
,13804
,8392
,-9398
,-14317
,737
,-12746
,498
,12108
,-3575
,-8040
,-5410
,1634
,3525
,-7020
,-10428
,-16192
,4473
,5007
,-7983
,-2625
,11696
,-7090
,-15593
,-11087
,15247
,-11305
,-12714
,-326
,-2004
,-4198
,-3989
,4941
,6902
,5182
,-1353
,-237
,-17348
,3853
,-3121
,-11030
,-9569
,-1264
,6371
,-13293
,-3048
,-7963
,16580
,-3786
,-2244
,-6412
,-9114
,-17642
,-3369
,-7851
,6872
,13641
,-7895
,-5593
,3611
,1039
,-2166
,4891
,1247
,-9396
,-8744
,19830
,-11122
,-8620
,8538
,-8507
,-11104
,15020
,-15593
,5017
,10599
,2905
,-13566
,-10878
,17069
,-1172
,8054
,-638
,-8708
,3746
,-2903
,-6876
,-10793
,-10050
,6358
,-15418
,4336
,9192
,1647
,-22904
,-1454
,-13219
,-8307
,-18600
,1762
,-4999
,-5680
,3558
,18175
,-3461
,-570
,-8303
,-5819
,-13074
,1120
,2750
,-6907
,-6561
,13848
,-3590
,-4375
,-2421
,-2784
,11758
,12370
,-10030
,-13390
,8024
,7664
,-1099
,-9628
,-10639
,-1463
,2055
,14287
,-10009
,-12064
,-5663
,-2495
,5819
,-8132
,7009
,-9552
,-6451
,2366
,-7250
,-5573
,-9573
,-4390
,-6010
,4598
,-6528
,5028
,17854
,-11682
,-12855
,-9124
,16118
,-845
,-3048
,16907
,-9103
,-7404
,-5815
,-1789
,1107
,-8212
,-10072
,-10719
,-760
,2704
,-4172
,-7916
,-3121
,10557
,-14544
,4234
,-10912
,983
,-11897
,-12602
,-10696
,10851
,1139
,9144
,-13739
,-6533
,-2452
,-5473
,-6236
,-4963
,-8859
,-282
,-6928
,17311
,-524
,15737
,3815
,-11968
,-23247
,-699
,-18085
,-6951
,-651
,-4677
,-282
,547
,-708
,-1176
,618
,1847
,-3281
,-1156
,1547
,1988
,737
,-1753
,1221
,2942
,-332
,2093
,459
,3869
,-1424
,-516
,-31
,2159
,2837
,-540
,-140
,-3253
,1294
,4151
,-630
,1353
,585
,777
,-557
,-690
,-2639
,-1782
,1981
,2303
,-67
,-272
,1736
,-323
,-1056
,-827
,1673
,4077
,-1933
,-1443
,-841
,-424
,714
,193
,-2619
,838
,-293
,1360
,1738
,-526
,2650
,-1399
,437
,216
,-1303
,178
,-505
,1670
,1463
,240
,-1173
,-1070
,-1328
,198
,78
,860
,940
,365
,1240
,-2711
,442
,742
,-101
,972
,-1627
,2296
,609
,990
,1639
,855
,1594
,-650
,-40
,-3142
,3307
,656
,-55
,2852
,1842
,2452
,2478
,-3201
,1478
,1137
,30
,-2626
,-1856
,17
,1539
,1751
,1061
,516
,-1737
,-2243
,-2773
,289
,-485
,-175
,-117
,-2648
,97
,5040
,18
,-2119
,-523
,-1173
,-16
,9
,3256
,1153
,-1042
,-2551
,123
,708
,-350
,-411
,-379
,-907
,5103
,-3115
,1883
,-513
,4113
,-954
,865
,-1215
,-982
,3524
,-1738
,646
,-2012
,-1109
,-10
,640
,-159
,-1215
,-2388
,256
,1859
,-610
,-2270
,-52
,259
,83
,1133
,-41
,-1222
,-2420
,571
,-3374
,-2503
,451
,3669
,117
,-2027
,-1882
,960
,-1370
,257
,66
,-1835
,1045
,-454
,-2738
,-2644
,368
,-1990
,738
,-940
,2314
,-502
,162
,-4635
,-2272
,775
,-3092
,3439
,-355
,383
,-12
,15
,-2080
,-355
,12
,-336
,-3458
,-3161
,-651
,3697
,-775
,-1995
,3095
,155
,2945
,-2362
,24
,-2178
,-1980
,-3082
,1387
,-2237
,271
,5968
,176
,144
,3280
,149
,690
,-437
,1141
,-382
,4829
,169
,-520
,1440
,347
,4137
,-3506
,-134
,3502
,-1370
,309
,-903
,13
,244
,155
,234
,2791
,-2647
,72
,-1986
,-43
,-2705
,-2334
,-3007
,-2631
,180
,857
,-1280
,-3467
,-197
,-3160
,-847
,-2298
,3768
,-127
,-27
,-1417
,168
,866
,-2633
,-2028
,2958
,60
,-177
,-1361
,-260
,-33
,-2487
,32
,348
,-3103
,5162
,-20
,-1523
,-275
,869
,-2049
,-2209
,995
,-69
,-2571
,3802
,332
,-1676
,-16
,-2564
,3952
,-192
,603
,-2861
,-342
,-2097
,-1795
,-2371
,378
,408
,-610
,213
,-1
,-45
,-2223
,179
,3243
,-1034
,-1123
,-2557
,-171
,2974
,-1652
,-938
,-2638
,-974
,-278
,-381
,-2702
,-2102
,-2422
,-337
,-131
,174
,-2766
,3901
,-3070
,-1395
,192
,-229
,-1558
,-2013
,-1189
,-1947
,435
,548
,45
,-1959
,123
,-50
,1172
,-2613
,1451
,143
,2901
,-1996
,164
,-36
,-1059
,198
,271
,-117
,-1846
,-1112
,-1330
,-665
,-1241
,1726
,-600
,6
,-3807
,-882
,-1464
,1725
,-16
,-258
,127
,95
,92
,-2
,219
,3728
,-3203
,3525
,-93
,-1945
,-832
,-1449
,-16
,771
,-1511
,513
,5347
,-79
,-275
,1400
,1416
,1131
,-1027
,-139
,212
,-2860
,-1109
,266
,587
,872
,-1812
,-2370
,5544
,1932
,-1938
,3959
,-1579
,-916
,2909
,-700
,-3594
,479
,-737
,-3115
,248
,-2422
,-1392
,-2193
,660
,-600
,-2407
,-2458
,3525
,2619
,674
,848
,172
,-114
,-1761
,-521
,-972
,-3385
,2684
,1930
,-443
,-75
,63
,-1841
,-184
,240
,-2266
,332
,3107
,497
,4236
,636
,3527
,-230
,5179
,-2480
,107
,-2605
,3411
,2089
,-2946
,-2446
,238
,4553
,72
,-2516
,-996
,37
,-76
,-1606
,-1310
,3435
,-2367
,-894
,2854
,4312
,8
,-5
,29
,-536
,106
,-167
,4641
,1
,-580
,-2993
,2918
,334
,-1799
,1294
,-1479
,-2683
,2837
,-1112
,-1910
,-1147
,1005
,668
,-2496
,-138
,99
,-1735
,-1708
,885
,128
,-47
,-640
,153
,4903
,1145
,887
,-1736
,-48
,-1196
,3956
,1719
,1995
,663
,5
,2716
,-1721
,-42
,-2755
,308
,-34
,-2203
,1074
,2427
,2810
,-599
,-441
,3061
,260
,-1127
,-2000
,2154
,-2028
,-2880
,-1522
,-1786
,-1968
,423
,585
,-410
,-147
,-163
,1769
,327
,-104
,713
,-303
,-939
,228
,-2175
,726
,-1454
,897
,-191
,4494
,4942
,306
,460
,-3146
,2545
,-853
,99
,883
,342
,-1544
,5323
,-2573
,-2177
,-2014
,-1477
,2044
,1362
,1597
,-2244
,189
,65
,122
,-202
,-328
,36
,-2821
,4941
,-1041
,-956
,-2770
,-373
,-381
,3837
,-3180
,-2573
,-1587
,319
,877
,2452
,96
,2109
,-976
,3759
,4312
,-1323
,-132
,1974
,-2733
,-2948
,147
,-1204
,-176
,-815
,3240
,-2281
,396
,3192
,-2157
,1081
,271
,849
,1049
,-2338
,-1315
,3748
,-1223
,113
,-1638
,-1493
,-2148
,997
,-3206
,-23
,872
,-27
,-2578
,-2984
,-534
,-858
,245
,-337
,1954
,-2706
,-3363
,-982
,-3230
,-743
,-402
,-79
,1363
,364
,-140
,2246
,-82
,-577
,382
,969
,302
,335
,-2833
,-729
,-410
,-2486
,-2519
,-607
,-1399
,-118
,-197
,72
,-94
,-1155
,-271
,-2578
,855
,-3253
,-2342
,-24
,-2261
,-2179
,4116
,-888
,-154
,-2313
,1078
,-58
,321
,3449
,3947
,-971
,-2258
,-1043
,46
,1075
,-979
,1632
,-1492
,-306
,-1783
,-2877
,-1464
,-2449
,-116
,-1348
,-4
,-2575
,-3798
,171
,-1764
,-321
,3143
,-1088
,-62
,1570
,-1785
,126
,-989
,310
,-148
,-1737
,264
,-2944
,2143
,109
,-126
,-211
,-358
,-445
,88
,-101
,-162
,-2595
,-2447
,421
,-2160
,1766
,-591
,-1077
,136
,-276
,1621
,35
,176
,-393
,46
,-676
,-2055
,377
,2582
,-2716
,3039
,179
,102
,-2688
,-1092
,-305
,26
,584
,966
,158
,-173
,-1307
,1012
,2377
,-2681
,-1945
,-488
,-234
,-1454
,192
,-2235
,-170
,3093
,317
,-217
,-1724
,-942
,14
,2119
,4058
,-345
,-2286
,-1719
,-136
,3246
,-376
,-2262
,2125
,-2297
,-85
,360
,240
,-35
,-72
,-78
,-72
,11
,-110
,237
,-119
,-7
,-43
,-42
,-90
,-97
,-296
,-79
,6
,118
,-201
,-17
,1
,-324
,-88
,13
,188
,63
,-166
,-86
,393
,96
,41
,-8
,62
,-140
,-202
,-74
,126
,61
,-9
,-12
,-114
,-106
,-21
,5
,-195
,-92
,-131
,-38
,-120
,-15
,196
,-96
,-42
,129
,191
,110
,143
,-80
,32
,-127
,-33
,-91
,-404
,-26
,-75
,-111
,-215
,94
,-153
,175
,117
,-90
,149
,80
,-30
,-229
,20
,-49
,-23
,25
,-291
,135
,-109
,-90
,-281
,-41
,-188
,137
,-120
,-303
,-45
,-8
,-8
,-239
,-177
,-30
,379
,65
,-114
,-453
,101
,-98
,149
,65
,120
,-385
,85
,-119
,-159
,-59
,-144
,-218
,-281
,-242
,-141
,106
,-116
,160
,-104
,-33
,67
,12
,157
,49
,-129
,-17
,65
,21
,-127
,-17
,5
,-80
,-64
,-295
,-40
,-112
,7
,-109
,105
,179
,167
,210
,-78
,-141
,4
,88
,35
,29
,-23
,6
,287
,-116
,-35
,2
,-100
,-193
,185
,157
,233
,-51
,-29
,99
,-87
,-56
,290
,-99
,-47
,-171
,258
,14
,89
,12
,-181
,70
,-52
,134
,-17
,155
,-153
,-263
,-2
,-262
,-69
,-113
,-176
,-57
,211
,-28
,65
,67
,112
,-134
,-89
,-160
,-107
,-169
,-139
,151
,22
,-96
,-64
,-155
,99
,-179
,48
,-207
,23
,163
,-21
,16
,-102
,543
,-11
,-166
,-20
,-126
,38
,63
,325
,125
,-1
,-79
,-126
,118
,106
,173
,249
,-35
,-48
,-331
,-136
,-30
,-153
,-64
,62
,137
,-268
,-404
,-90
,-50
,-51
,-67
,-306
,-93
,-259
,-113
,57
,-120
,-54
,264
,-55
,-75
,-111
,48
,62
,-122
,-30
,-133
,-47
,-60
,-15
,1
,-270
,-72
,-14
,114
,-138
,-137
,-109
,39
,234
,-41
,-333
,-40
,82
,195
,6
,-24
,110
,-19
,-44
,45
,22
,43
,66
,-29
,-100
,179
,-529
,31
,26
,-347
,-135
,-39
,-127
,67
,-219
,-651
,-165
,59
,-85
,-277
,3
,-115
,122
,-194
,-82
,-211
,67
,198
,166
,-349
,223
,-397
,203
,-62
,-117
,-171
,-153
,-10
,-34
,135
,-363
,-201
,-19
,-200
,129
,-14
,-129
,-186
,16
,177
,-270
,342
,-100
,-583
,-85
,445
,47
,-130
,92
,-40
,-388
,136
,9
,-91
,162
,-74
,74
,113
,-64
,-22
,35
,-94
,-159
,144
,-49
,-78
,90
,24
,-31
,-35
,-145
,-35
,-106
,409
,-262
,-66
,97
,-367
,52
,81
,-239
,44
,129
,-8
,-44
,138
,-188
,-344
,98
,181
,15
,-31
,425
,238
,-356
,-68
,-106
,-98
,-120
,606
,-483
,25
,176
,-96
,-90
,-336
,-154
,-288
,96
,-96
,-32
,67
,-38
,108
,-33
,-108
,111
,112
,-7
,-95
,-59
,-4
,-84
,-143
,-41
,114
,31
,-229
,251
,-24
,150
,106
,-13
,-17
,-30
,-104
,-100
,-331
,-118
,-66
,-193
,-107
,-91
,-106
,2
,-36
,165
,85
,-24
,-198
,-4
,85
,-396
,97
,79
,75
,-65
,-142
,-60
,287
,18
,105
,78
,192
,22
,32
,-463
,-348
,-226
,-85
,12
,-21
,0
,10
,-75
,150
,-35
,-38
,198
,61
,-154
,-126
,2
,61
,125
,-63
,49
,-75
,282
,-124
,-124
,19
,482
,-301
,190
,-233
,-102
,231
,179
,9
,-108
,-7
,-157
,174
,8
,-39
,-143
,77
,-134
,-102
,-405
,-494
,76
,-15
,-536
,95
,-171
,37
,23
,12
,-7
,68
,-115
,-21
,-36
,-68
,91
,-6
,-147
,82
,43
,220
,323
,57
,-21
,112
,11
,-9
,9
,-38
,-130
,-187
,-38
,-116
,113
,-106
,-41
,-34
,51
,109
,-148
,-74
,183
,211
,-83
,8
,-5
,-130
,-134
,-27
,65
,-91
,549
,75
,105
,107
,-133
,101
,108
,40
,-63
,-83
,69
,-369
,-42
,18
,-357
,238
,6
,-147
,176
,3
,-7
,77
,-391
,-47
,-179
,247
,113
,13
,450
,-230
,3
,-60
,125
,106
,-187
,105
,-189
,109
,8
,7
,-387
,-2
,-44
,-9
,-122
,-55
,31
,-75
,171
,204
,17
,-118
,-31
,37
,12
,20
,-88
,-145
,17
,170
,134
,15
,36
,-29
,185
,-214
,-32
,-43
,-138
,-4
,-36
,-63
,60
,-10
,-232
,-321
,-139
,177
,-96
,-157
,37
,-66
,-389
,-126
,-188
,-72
,-136
,-317
,-296
,-241
,-116
,85
,40
,-7
,-172
,18
,41
,-203
,-107
,40
,-56
,-109
,-123
,-105
,-108
,-109
,-288
,-106
,173
,62
,-72
,99
,-14
,-278
,-309
,155
,-289
,129
,-242
,-56
,49
,-147
,114
,-72
,-216
,136
,-252
,148
,30
,32
,55
,42
,47
,-136
,-288
,-33
,-129
,78
,161
,-48
,-79
,-24
,179
,-53
,-309
,-192
,38
,313
,85
,-88
,-369
,-280
,-162
,25
,-235
,-70
,81
,-3
,-181
,95
,332
,52
,-222
,74
,-236
,103
,-128
,-147
,21
,127
,183
,-224
,-2
,85
,58
,-33
,35
,-57
,-136
,117
,170
,-408
,51
,164
,-282
,36
,129
,4
,83
,-34
,21
,83
,266
,-5
,-136
,-12
,-125
,-227
,41
,280
,23
,-171
,-94
,58
,-215
,-138
,-140
,-116
,-79
,-125
,-191
,-272
,-93
,-178
,214
,32
,-29
,80
,-1
,155
,79
,-16
,-162
,-80
,51
,4
,201
,-53
,97
,-20
,-45
,-34
,0
,29
,3
,-85
,44
,5
,45
,63
,167
,-259
,-437
,-108
,-13
,115
,314
,-93
,198
,-219
,4
,293
,55
,-227
,3
,-55
,124
,-317
,-31
,-221
,-198
,-93
,-165
,-207
,37
,72
,-138
,8
,78
,-68
,-161
,106
,28
,-105
,120
,-134
,-27
,144
,-11
,-96
,122
,-76
,43
,-158
,-34899
,-37991
,-35197
,-30622
,-38926
,-32239
,-36229
,-39395
,-34012
,-35707
,-33308
,24267
,-36359
,-34746
,-37515
,-27302
,-37559
,-32554
,-26053
,-31414
,-32023
,-32572
,-26949
,-31445
,-35391
,10595
,-10731
,-34492
,-34261
,-34633
,-25100
,-35583
,3967
,-32328
,-32812
,-37669
,-5741
,-38932
,-37369
,-39978
,-34020
,-12169
,-29402
,-36692
,-10444
,-1320
,-32363
,-43076
,637
,-26404
,-39950
,-20614
,-32651
,-32784
,-24624
,-36054
,-39518
,-37151
,-37129
,-28026
,633
,-38688
,14365
,-42969
,-36309
,-40242
,-26638
,-42100
,-29937
,-29996
,-37961
,-36420
,-41029
,-31332
,-46834
,-33090
,-37216
,-35861
,27678
,-38914
,-42018
,-25046
,-39345
,-33603
,-34158
,-33662
,-36074
,-10481
,-29811
,-41711
,-35360
,-33127
,-37112
,-37073
,-38077
,-36176
,-33073
,-34179
,-39080
,-19864
,-39969
,-25112
,-40131
,-30664
,-35898
,-39392
,-35803
,-35745
,-47066
,-33606
,-37850
,-29392
,-29619
,-33526
,-37793
,-33598
,-38152
,-32814
,-35183
,-21894
,-31270
,-28909
,-14240
,-34410
,-17179
,-32139
,-33471
,-11545
,-42086
,6777
,-32882
,-36846
,-31520
,-34726
,-32895
,-31260
,16029
,-31982
,-42201
,-38362
,-35442
,-36985
,-39062
,-36231
,-29838
,-32635
,11514
,-30727
,-37293
,-38313
,-39637
,23670
,-36123
,-33866
,-33809
,-17527
,-30262
,-34960
,-34725
,-37150
,-36010
,-32628
,-34374
,-41068
,-25392
,-26441
,-38135
,-30385
,-29342
,-30675
,-30831
,-11207
,-34950
,-35174
,-34454
,-19098
,-1281
,-36266
,-23518
,-39667
,-30525
,-30977
,-34088
,-43329
,-3328
,-33497
,-43930
,-39917
,-31282
,-34282
,-48264
,-42085
,-35523
,-27687
,-43141
,-41391
,-29352
,-37483
,-36122
,-39898
,-13572
,-20381
,-38726
,-36490
,-44559
,-28414
,197
,-16329
,-32824
,-39358
,-39090
,-38417
,-31674
,-32188
,-42725
,-12490
,-26121
,-34368
,-33880
,-33255
,-31511
,-32232
,-29058
,-32896
,-27613
,-38414
,-33671
,-36235
,-36910
,-40525
,-32956
,-31744
,-15576
,-19061
,-3761
,-35998
,-26590
,-34830
,-29448
,-31840
,-14768
,-33553
,-29246
,-35494
,-39234
,-30468
,-33705
,-33258
,-42676
,-37912
,-21497
,-36158
,-24984
,-37662
,-32824
,-31217
,-39922
,-38442
,-37783
,-36606
,-26916
,-22733
,-18039
,5749
,-33501
,-26295
,-21835
,-33207
,-29999
,-33658
,-29867
,-37567
,-34999
,-25027
,-29856
,-33755
,-33368
,-32499
,-29209
,-30218
,-36067
,14401
,-30567
,-34679
,-30821
,-30880
,-33702
,-36191
,-28471
,-34368
,-32270
,-16201
,-39258
,-34206
,-35923
,-34531
,-29003
,-42476
,-33278
,-38700
,-31074
,-35559
,-28066
,-39623
,22020
,-25419
,-39617
,-33365
,-30818
,-38783
,-27964
,-38766
,-38166
,-30334
,-40961
,-32026
,-36632
,-38028
,-31711
,-11378
,-34689
,-42849
,13364
,-34112
,-33481
,-29928
,-37336
,-26439
,-46616
,-19446
,-34925
,-21502
,-8943
,-36274
,-34351
,-37671
,-29925
,-37933
,-34334
,-23600
,-28754
,-32371
,-37307
,-25462
,-24913
,-31551
,6946
,-30727
,-19148
,-39613
,-38208
,-41160
,-28391
,-22091
,-1397
,-36299
,-34547
,-41328
,-5072
,-34662
,-18365
,12124
,-22732
,-35742
,-40184
,-29819
,-34589
,-30677
,-31479
,-40800
,-36611
,-32577
,-37904
,-35717
,-32956
,-9023
,-34455
,23794
,-36520
,-45042
,-27341
,-30140
,-32036
,-38002
,-25666
,-25853
,-36665
,-44553
,-38130
,-38019
,-36923
,-40506
,-34476
,-31415
,-29511
,19613
,-38924
,-37210
,-45701
,-5435
,-35681
,-40747
,-38147
,-30551
,-34305
,-36159
,-27341
,-34000
,-36420
,-32473
,-37065
,-28062
,17782
,-34556
,-42327
,-35646
,-26467
,-29769
,-30441
,-37834
,11842
,-20596
,-34685
,-28553
,-37859
,-44777
,-21217
,-32215
,-32310
,-30864
,-30716
,-35104
,-35239
,-35337
,-39691
,-39313
,-37394
,-29825
,-25937
,-5261
,-35522
,-27109
,-26114
,-33649
,-17709
,-29611
,-26999
,-37757
,-29645
,-40926
,-33571
,-37547
,-30917
,-36414
,-27634
,-33676
,-39517
,-42484
,-20484
,-32551
,-25656
,-33006
,-29413
,-29505
,-12472
,-21307
,-19437
,-35335
,-35162
,-39815
,-23947
,-38693
,-41519
,-45208
,-36226
,-34246
,-17087
,-35221
,-35781
,-33243
,9283
,-32291
,-39990
,13558
,-37899
,17111
,-23428
,-31866
,-45152
,-40496
,-33859
,-31724
,-32648
,-12935
,-35212
,-14979
,-20792
,-28051
,-10100
,-29839
,-31461
,-38914
,-28943
,-25391
,-31763
,-39170
,-33523
,-32318
,-34307
,-41791
,-30807
,18205
,5111
,-15094
,33310
,-34482
,-33052
,-31410
,-29525
,-24256
,-35157
,-16083
,-37318
,-29500
,9693
,-30726
,-39095
,-31450
,-23987
,-32129
,-10270
,-41546
,31160
,-26358
,-33609
,-36514
,-30842
,-31351
,-35777
,-30998
,-6470
,-23128
,-35057
,-31878
,-33329
,-38544
,-33964
,-38295
,-31636
,8776
,14218
,-27954
,-34870
,-38884
,-12227
,-23970
,-32993
,-28439
,-31442
,-42839
,-37982
,-33920
,-39863
,-21617
,-33728
,-31625
,-33379
,-28368
,-39364
,-27863
,-35353
,-34944
,10544
,-8224
,-34506
,-17350
,-30855
,-37012
,-26711
,-31467
,-35569
,-39384
,-30121
,22613
,-38061
,-37707
,-43806
,-38898
,-34711
,-35749
,-43237
,-39064
,-34873
,-28907
,-40140
,4778
,-29863
,22125
,-38465
,-39148
,-17763
,-34359
,-23448
,9886
,-36979
,-20191
,-17372
,-31953
,-40281
,-26942
,-10951
,18091
,-28261
,-35305
,-15969
,-43692
,-31334
,-29871
,-28100
,-29475
,-36131
,-38037
,-36037
,-32246
,-31946
,-36776
,-27974
,-30981
,-38319
,16149
,-40663
,-31186
,2435
,-35209
,-30316
,-32717
,-17288
,-36181
,-33440
,-17553
,-37953
,-33854
,-39854
,-32768
,-30144
,-31810
,-30033
,-40527
,-43409
,-22749
,-32620
,-35703
,-34648
,-12866
,-22936
,8818
,-28055
,-36689
,-40751
,-38787
,-29756
,-36621
,-34959
,-40174
,-41362
,-42935
,-36406
,-15666
,-38866
,-20607
,-32209
,-41907
,-627
,120
,196
,-297
,-246
,-155
,-159
,-243
,1
,736
,349
,1490
,445
,-331
,173
,-53
,158
,-490
,172
,1013
,-370
,-392
,-309
,411
,851
,158
,23
,-168
,221
,184
,-728
,-721
,95
,-564
,145
,-758
,445
,897
,65
,-710
,-643
,-28
,376
,380
,-443
,-179
,535
,-681
,173
,253
,-272
,600
,-375
,-1040
,-353
,-254
,20
,-105
,236
,5
,508
,103
,313
,86
,-867
,-1292
,18
,-457
,38
,-259
,-301
,18
,-81
,740
,34
,202
,485
,-519
,26
,75
,109
,-362
,-307
,236
,-775
,-140
,1585
,882
,51
,-618
,436
,-504
,303
,-707
,-345
,-272
,1087
,2015
,-156
,-189
,415
,-206
,297
,-208
,-790
,-226
,-360
,-847
,167
,48
,-601
,89
,2060
,-1329
,-1347
,-1222
,-1243
,-70
,-2487
,-1350
,-679
,-1175
,-972
,-2197
,-1244
,-784
,-1242
,-1226
,-1402
,-49
,-827
,-1245
,-886
,4814
,-1705
,-1315
,-1722
,-1386
,-1169
,-1115
,-1791
,-1826
,673
,-1465
,-1388
,-7
,-1238
,-1060
,-1675
,-1129
,-1082
,-1217
,79
,-1067
,242
,-248
,-1177
,-1296
,-1247
,314
,-1859
,-1071
,1120
,-1476
,-1272
,-1209
,-1419
,-1501
,-1452
,-1377
,-1889
,86
,-1148
,1543
,-1137
,-1106
,-1055
,-1573
,-1572
,-853
,-1069
,-1140
,-1324
,-1762
,-973
,-1289
,-1894
,-1397
,-1595
,-1559
,-953
,59
,583
,-999
,-1176
,-307
,-1349
,-1724
,-1649
,-1809
,-1842
,-1507
,-1398
,-2287
,1029
,-48
,-1208
,-1214
,-460
,-1273
,-603
,-1428
,-2536
,-1253
,-1630
,-1286
,-1205
,-1110
,451
,11
,-1413
,-1305
,-1090
,-1495
,-1166
,1216
,-1764
,-749
,1332
,-1411
,-1157
,-1317
,-251
,-1393
,73
,-1634
,-1917
,-1774
,-1226
,-1034
,-1195
,1717
,-1441
,-486
,-1366
,-1358
,-1355
,-1378
,-316
,-1303
,-953
,-1613
,120
,0
,466
,-1438
,-1290
,-1672
,-1002
,-8
,-1271
,-1430
,-1283
,-1320
,2054
,-1060
,-512
,22
,-1466
,1015
,-1224
,-591
,-1058
,-1476
,-1333
,902
,-1196
,65
,857
,-1661
,-538
,-1378
,496
,-978
,-1431
,-1467
,-1173
,-1205
,-1347
,-843
,-848
,-1165
,-1323
,-99
,-1327
,-1412
,-1084
,-1079
,-1191
,-1092
,-1468
,31
,-1254
,-916
,-1475
,-847
,85
,-1157
,-1195
,-1304
,351
,-984
,-1474
,-658
,-84
,-1025
,-1337
,-1232
,-1534
,-2129
,-1187
,-1601
,1752
,-1534
,-1014
,-1141
,-1659
,468
,-1008
,941
,-1337
,-1371
,-1594
,-1547
,64
,-1378
,-106
,-1087
,-1086
,-1238
,-1481
,-1448
,-67
,-1480
,-1540
,1102
,964
,-1326
,-966
,-1288
,-1499
,-746
,-30
,1960
,-136
,-2416
,-1347
,-1258
,2576
,-1470
,-1245
,-1618
,214
,-1324
,1224
,-1342
,-1129
,-690
,-981
,2253
,772
,-1107
,-1747
,-654
,72
,137
,-710
,-838
,775
,-1188
,-28
,-1043
,-1342
,-1745
,-1496
,-1328
,-1325
,-1003
,-1163
,-2796
,-1290
,-368
,-1157
,-252
,-1191
,-2643
,-1193
,-1174
,-1259
,1550
,1607
,1553
,-1409
,1751
,-829
,26
,-1261
,-1486
,-1246
,-1199
,-1078
,-1535
,-33
,-965
,-1825
,-994
,-1850
,-594
,-798
,-1598
,1424
,-1640
,-1340
,-1158
,-956
,-1408
,-155
,-1002
,114
,-1389
,-1582
,-1498
,-1011
,-1571
,1235
,1167
,-1296
,-1265
,-1288
,39
,-1455
,-8
,-2264
,-1413
,-242
,-1195
,-584
,-672
,-1083
,-1683
,-1429
,-1968
,-2210
,-1383
,274
,-1288
,-1337
,-1654
,-1484
,-2963
,-1332
,-1416
,-51
,534
,119
,-1274
,-755
,-1499
,-1375
,1416
,-904
,676
,-548
,-1336
,-1549
,-1430
,-1288
,-1427
,-1414
,-1210
,-1859
,-1268
,2962
,-1210
,-149
,1119
,-1143
,-1299
,-1344
,-283
,-899
,775
,-1418
,-1190
,620
,-1437
,-1608
,-1081
,-1278
,-1229
,-1483
,-1421
,-1378
,83
,834
,-1329
,-1067
,-1287
,-1332
,-1547
,-1539
,-1242
,-1380
,-509
,-38
,-642
,-1564
,-484
,45
,-554
,-1294
,164
,-1292
,-1061
,2190
,-1541
,472
,-1416
,-1572
,-739
,-1456
,330
,-1313
,-1525
,-1276
,107
,-1078
,422
,-937
,-1133
,-1329
,-1723
,-1498
,-1342
,-1165
,-1668
,726
,-1046
,-229
,-1230
,-1314
,-1384
,-1470
,-1792
,432
,-1553
,-1570
,-947
,-933
,-943
,-1284
,-1248
,-1291
,-1467
,-938
,-1049
,-202
,-917
,-747
,-25
,-1156
,-1105
,-1513
,-1538
,-1349
,-1146
,-1023
,-1048
,-654
,-1103
,-922
,-1223
,-1340
,522
,-1315
,-1505
,-1466
,18
,-1342
,-1706
,-27
,-1431
,-1031
,1475
,-1046
,-1392
,-1571
,-1018
,1261
,-1519
,-1574
,-1224
,-938
,-789
,-1305
,-21
,-1337
,-1189
,-393
,-839
,-326
,-1209
,-510
,-1160
,499
,-767
,70
,2184
,-957
,-645
,243
,2324
,-1402
,-1258
,-1133
,-1098
,-2083
,-1351
,-953
,-1354
,-1379
,-1420
,-1097
,286
,-1123
,-1306
,-897
,-1613
,-436
,-1363
,-1217
,-1418
,-1828
,-1003
,-1414
,-738
,-729
,-910
,-1427
,406
,-1610
,-1388
,-1262
,-216
,-1451
,-766
,-1268
,-1285
,678
,2176
,-1227
,-3133
,-1310
,-1576
,-1018
,-1249
,-1283
,2160
,-1328
,-1124
,-1670
,-1328
,-996
,-1233
,-1172
,-1219
,-1264
,-1385
,-1516
,-1183
,-1536
,-1035
,-4
,-1617
,-1117
,-190
,-1218
,-1361
,-1228
,-1221
,-1582
,1937
,386
,-1808
,-1639
,-2879
,-1710
,-1129
,-1124
,-772
,-1472
,-1387
,-1165
,-723
,-1552
,2027
,41
,-1240
,-1538
,-21
,-1479
,-824
,-824
,544
,-1205
,-1307
,-1117
,-1142
,-779
,-1271
,31
,-2488
,-1480
,-1518
,-1307
,-869
,-461
,-781
,-1289
,-907
,-1268
,-1143
,-1178
,1319
,-856
,-1210
,-1346
,-1357
,-560
,-345
,-713
,-1424
,-380
,-1820
,-1666
,-1185
,123
,-1090
,-1186
,-1370
,-751
,-1196
,-1487
,-1088
,-1036
,-1095
,-84
,-1821
,-1419
,-1368
,-1733
,-1465
,-1411
,-1522
,-1403
,-1352
,-1477
,-848
,-1294
,-1440
,-1103
,-1648
,-705
,631
,-1294
,941
,-1496
,-1367
,-1500
,-1346
,-844
,-1331
,-1275
,1188
,1747
,491
,451
,533
,322
,333
,201
,468
,239
,452
,-353
,298
,617
,525
,439
,710
,584
,253
,637
,8
,-93
,1867
,456
,521
,122
,74
,623
,812
,516
,316
,506
,25
,523
,201
,543
,867
,679
,309
,64
,640
,86
,657
,424
,251
,598
,479
,329
,-48
,495
,821
,828
,505
,570
,602
,587
,899
,754
,431
,588
,423
,761
,714
,648
,415
,536
,734
,320
,687
,721
,849
,609
,490
,226
,528
,333
,570
,821
,595
,233
,424
,440
,64
,649
,321
,557
,475
,557
,491
,137
,620
,-144
,91
,573
,158
,947
,814
,244
,-513
,230
,520
,248
,543
,362
,516
,497
,-20
,319
,-474
,566
,681
,-73
,751
,594
,522
,447
,298
,1155
,642
,650
,365
,-334
,464
,102
,575
,460
,605
,315
,319
,180
,188
,584
,175
,743
,618
,440
,999
,257
,614
,520
,250
,145
,-425
,235
,818
,612
,397
,494
,379
,2155
,668
,361
,679
,1754
,477
,211
,163
,389
,1359
,407
,43
,616
,737
,694
,652
,500
,-231
,659
,497
,224
,776
,541
,844
,629
,645
,555
,989
,104
,-16
,114
,417
,1007
,-333
,-22
,564
,343
,569
,645
,681
,493
,250
,525
,-149
,675
,565
,-209
,546
,456
,510
,447
,364
,575
,261
,118
,663
,446
,855
,11
,337
,549
,656
,1279
,581
,926
,285
,696
,1051
,709
,837
,440
,390
,850
,527
,-86
,558
,-292
,1231
,521
,399
,637
,611
,132
,546
,301
,579
,721
,473
,339
,633
,640
,-4
,303
,1481
,180
,270
,615
,599
,280
,641
,652
,432
,347
,747
,817
,569
,549
,419
,499
,922
,261
,545
,514
,168
,137
,201
,247
,299
,359
,550
,252
,874
,685
,601
,587
,382
,578
,606
,479
,264
,229
,282
,553
,115
,598
,211
,522
,656
,343
,1396
,916
,3518
,826
,1081
,174
,-270
,461
,431
,603
,610
,661
,590
,-30
,86
,333
,386
,492
,265
,618
,777
,766
,721
,602
,-35
,563
,810
,-332
,500
,123
,553
,513
,634
,468
,512
,643
,651
,585
,562
,471
,129
,574
,85
,260
,493
,-405
,565
,-273
,227
,597
,516
,570
,380
,295
,566
,418
,331
,407
,565
,330
,280
,319
,638
,310
,660
,209
,357
,295
,673
,363
,-1290
,-244
,520
,59
,629
,700
,691
,554
,439
,711
,763
,518
,742
,2211
,408
,204
,-16
,886
,366
,614
,-264
,116
,-1305
,502
,210
,984
,555
,431
,426
,334
,218
,667
,427
,286
,195
,658
,738
,538
,526
,796
,557
,436
,421
,871
,147
,-215
,-26
,506
,225
,372
,237
,872
,399
,905
,433
,1069
,614
,756
,505
,684
,-4
,1077
,429
,692
,289
,583
,31
,541
,395
,184
,688
,924
,414
,690
,551
,222
,649
,116
,473
,153
,828
,449
,607
,324
,535
,373
,716
,295
,434
,49
,817
,340
,919
,678
,173
,172
,542
,244
,559
,130
,148
,383
,279
,805
,499
,561
,374
,178
,877
,125
,239
,506
,430
,136
,414
,491
,593
,704
,160
,745
,547
,207
,866
,367
,834
,516
,524
,537
,432
,605
,370
,474
,677
,175
,246
,-680
,-175
,662
,553
,348
,374
,-339
,-313
,235
,629
,303
,84
,-162
,1725
,505
,-338
,470
,857
,630
,420
,602
,606
,366
,398
,227
,656
,793
,601
,550
,460
,748
,417
,595
,449
,197
,955
,611
,523
,387
,53
,1001
,287
,-326
,232
,608
,466
,559
,575
,693
,-333
,464
,405
,1045
,762
,1054
,1040
,768
,216
,577
,613
,434
,567
,542
,1621
,111
,79
,585
,381
,113
,706
,652
,568
,798
,599
,748
,883
,737
,795
,212
,223
,360
,-86
,846
,409
,-384
,466
,765
,470
,431
,344
,426
,172
,502
,-108
,610
,646
,354
,765
,139
,272
,441
,70
,-550
,849
,379
,317
,610
,473
,-160
,335
,725
,733
,495
,371
,-368
,744
,190
,380
,372
,442
,433
,-79
,276
,184
,533
,49
,863
,682
,874
,795
,996
,505
,793
,766
,-324
,218
,207
,542
,200
,609
,626
,772
,415
,370
,213
,619
,266
,524
,1034
,558
,723
,-135
,30
,563
,896
,526
,684
,713
,616
,744
,403
,-225
,504
,283
,2279
,595
,494
,493
,149
,8
,466
,386
,741
,756
,527
,-239
,559
,389
,321
,1389
,-680
,-4236
,-1042
,-1120
,-550
,-354
,-1057
,-222
,-119
,-38
,-758
,-348
,-350
,-902
,-587
,-638
,-359
,-501
,-1903
,469
,-157
,-314
,-839
,-552
,-326
,-882
,-540
,-686
,-289
,-823
,-378
,409
,-556
,138
,481
,2294
,-49
,-790
,-289
,-802
,-225
,-664
,350
,-606
,457
,-924
,175
,-606
,241
,-1497
,-432
,-673
,-698
,819
,379
,-263
,749
,855
,-45
,-274
,756
,-1255
,-139
,-571
,-2505
,-206
,-1166
,-627
,-549
,-708
,-272
,-1057
,-263
,-690
,370
,-777
,732
,-1008
,527
,-544
,-456
,-102
,-1687
,-330
,-24
,-1683
,-1450
,-464
,24
,-597
,-230
,-587
,-722
,-540
,-187
,-481
,-922
,-576
,-506
,-672
,228
,-167
,-49
,165
,395
,-903
,-676
,-1188
,-590
,-762
,-1025
,-671
,-777
,-736
,-122
,617
,-247
,-639
,-448
,-383
,436
,487
,254
,-88
,-504
,-1242
,-206
,61
,-636
,-733
,-574
,-176
,-414
,-503
,-378
,307
,-1056
,73
,534
,55
,-1128
,513
,-510
,-854
,-519
,-218
,-471
,-708
,-482
,-45
,-821
,-804
,313
,-547
,-938
,-887
,-873
,-163
,-969
,-1223
,2301
,-658
,-184
,64
,-1060
,-833
,-619
,-582
,3324
,-3616
,-2968
,-1937
,-4262
,4799
,-3394
,-1491
,6375
,-2645
,8579
,-4090
,-4652
,-1746
,-2612
,-371
,-5451
,10036
,-2106
,-8370
,10221
,3273
,-1723
,-2192
,9854
,9608
,-6248
,-4604
,-3405
,-2522
,2777
,-6970
,-2523
,4405
,-2123
,-2077
,-2193
,-4907
,9187
,-3398
,-1877
,-931
,4002
,5907
,-1474
,-3517
,-4773
,-632
,-58
,-4338
,6808
,-2336
,-2615
,-2271
,-2538
,-63
,-3100
,-6435
,-916
,-1154
,-2717
,-3718
,-3191
,-947
,-3212
,-2605
,-2254
,-5461
,-1957
,-2827
,-1738
,-753
,-4891
,-5206
,-4476
,-5111
,-647
,-1720
,-1658
,-525
,4332
,-6975
,1390
,2085
,-3783
,-2234
,785
,-2819
,11293
,-1661
,10444
,-4095
,69
,1851
,-2307
,-3007
,5245
,10605
,8203
,-2144
,-1446
,-354
,-3768
,-1881
,-2499
,4968
,9534
,5701
,-3332
,-1785
,6881
,-3436
,-1383
,1877
,-2971
,-2065
,3381
,-1733
,-4268
,-2768
,-3542
,-1238
,-1276
,-2234
,-2522
,-1772
,-2544
,-3434
,-3749
,2547
,-4829
,5917
,-3499
,-4788
,-2405
,-3207
,10264
,-4324
,-8082
,-2344
,2265
,6670
,8679
,-3456
,-138
,264
,-1591
,-1287
,-6695
,-1873
,-3480
,-1968
,-893
,-2035
,-1151
,1272
,-1209
,-1639
,-1275
,-1069
,-10287
,-1452
,-2244
,5653
,-3156
,6931
,-698
,-2142
,4711
,-3329
,-3383
,-1673
,-3526
,-2316
,-2249
,-3866
,11637
,7741
,9572
,-1642
,-6176
,-12
,11059
,-5221
,-2408
,-556
,-1579
,-3124
,-1903
,-3033
,-2738
,3723
,-1787
,-3471
,3397
,-4631
,-2036
,-2187
,8290
,-2947
,-2478
,5798
,844
,-2153
,-4075
,-4575
,-8384
,-1954
,-3133
,-2552
,1461
,-1515
,-2987
,7092
,-1679
,-4589
,-2341
,3573
,-2471
,-4101
,-3300
,-599
,-127
,-3013
,-2706
,-2482
,-2435
,-4028
,-2214
,-1825
,6461
,-2825
,10817
,4451
,2395
,-2238
,-4316
,-1645
,-2434
,5513
,6275
,278
,73
,-3126
,-5206
,-2625
,-3572
,-2252
,-501
,-1791
,4882
,-4698
,-2
,-4571
,-1297
,-2915
,-3416
,6174
,7949
,-4166
,-2721
,6611
,-715
,6993
,974
,-2276
,4492
,-1424
,4257
,-2415
,-3296
,-1767
,-3045
,-3995
,-1640
,-1863
,-2413
,-1480
,-4511
,1817
,-3521
,6765
,-1280
,-2401
,-1736
,-3045
,-2044
,-2422
,-1065
,-10197
,-1720
,-1766
,6038
,-5108
,-5000
,-2564
,-1333
,-3690
,-4228
,-1919
,-716
,6519
,-1033
,-4563
,-1289
,5787
,-5542
,-2398
,4124
,-181
,-1884
,7077
,-2120
,-5332
,-2950
,-3214
,-2287
,-1929
,-4213
,-1682
,-1459
,-4242
,5831
,-2482
,-186
,-3344
,-3013
,3064
,-4028
,-2299
,1787
,1429
,-1825
,-2781
,-3328
,7933
,-2080
,-2391
,-2667
,-4078
,11770
,-1487
,-4118
,-1999
,-1673
,-2290
,-2498
,-2079
,-6512
,-3650
,12886
,5555
,8350
,-1308
,-1490
,-3293
,-1633
,-5762
,-6344
,-3641
,-2711
,-811
,-1224
,-4095
,-2208
,-2654
,-5738
,-1163
,-1759
,-5294
,-3427
,-3785
,9280
,-3686
,-5560
,-4739
,-664
,-4860
,9625
,-2110
,-3116
,8200
,-3875
,-2628
,-3419
,-4091
,-2893
,9960
,-2702
,-1595
,1744
,-1916
,3748
,-2119
,-741
,-766
,-2249
,-5229
,-1730
,-4367
,-4831
,2422
,-1012
,-2593
,-2360
,5971
,7554
,2915
,-3293
,5715
,-2621
,-846
,1543
,-1315
,-1353
,-2721
,-2378
,-2197
,-1440
,2208
,-248
,-700
,-3475
,-544
,-5117
,1739
,-2279
,-2021
,-2442
,-2080
,-2469
,-3463
,-4734
,-3734
,2185
,-3292
,7585
,-3451
,-4409
,-4979
,-3842
,-1739
,2433
,-4472
,-5468
,-2011
,7119
,-4958
,-4740
,-2700
,-4161
,-572
,7092
,-2587
,5027
,-2631
,-408
,-1152
,-3097
,-1885
,-1522
,-4659
,-3944
,-1934
,-3682
,-4876
,5210
,-2465
,792
,-4619
,-2485
,5672
,-3361
,-2341
,-2052
,2982
,-3835
,-1161
,6226
,-2404
,-2375
,-2281
,-3534
,-1809
,-2846
,-5267
,3985
,-586
,-2184
,-4455
,11560
,-1679
,7625
,-1265
,-628
,-1379
,-208
,-2819
,-3478
,7471
,7428
,-1469
,4835
,-2341
,-2118
,-2446
,-4635
,-4121
,-3224
,4035
,-4123
,-1251
,-2473
,-1031
,-2629
,-2509
,6655
,-2014
,-3356
,-2761
,-4631
,7629
,-2047
,-2220
,-141
,-3804
,5144
,-2050
,-3214
,-2299
,-1063
,3514
,-2050
,-2418
,-6659
,751
,-1127
,6399
,-1250
,-1880
,-2037
,-1618
,-4445
,-3026
,-2883
,-1602
,-1928
,-4188
,-1341
,-1496
,-3742
,-2538
,-1316
,-2699
,-2393
,1385
,8202
,7325
,-4273
,-2730
,-3020
,-2867
,-3191
,-2451
,-1662
,-1858
,-5197
,-2288
,-137
,-2920
,3417
,-4855
,-1191
,-3354
,-2487
,-2316
,-7107
,-3360
,-4221
,5221
,3178
,-3294
,-2973
,-4727
,-1934
,7481
,-1163
,-3031
,-1457
,-5058
,6119
,-5275
,-2946
,1367
,-6386
,-3726
,761
,6504
,-1733
,-2350
,5072
,6899
,-2933
,-4024
,-1476
,-4993
,-7786
,-5576
,2885
,-3690
,-3749
,-47
,-2251
,11505
,3759
,6020
,-4045
,6139
,-4228
,-1581
,-663
,1416
,-4029
,-2022
,-1569
,-26
,-4532
,11789
,-3708
,-2568
,6896
,-4754
,-8
,-1688
,-1528
,-4251
,5622
,-722
,8194
,-2291
,-2253
,-1474
,-1279
,9821
,2292
,-7685
,-2063
,-2328
,-2748
,-1687
,-3049
,-1955
,-3986
,10878
,-1773
,7830
,-6036
,-2653
,-1967
,-2388
,3588
,-3353
,-4771
,8731
,-3560
,-3035
,-1813
,9097
,-4631
,-1586
,-995
,-8538
,-608
,754
,-1749
,1575
,-2158
,672
,-1061
,-592
,535
,1354
,-824
,3758
,-883
,-1548
,1204
,2935
,-211
,-20
,4206
,1247
,-1583
,231
,1403
,2220
,273
,71
,1664
,-20
,1710
,1545
,534
,556
,700
,403
,-1556
,340
,-1121
,-3308
,1753
,1242
,-236
,-2039
,565
,626
,-2425
,1486
,-648
,-1127
,3075
,-333
,1080
,-351
,-23
,96
,3834
,2031
,1395
,-36
,-1652
,-2787
,-3116
,-1893
,-94
,-3646
,1086
,-1503
,1584
,-232
,-192
,-531
,-51
,-1483
,-2291
,-2465
,-4647
,-1286
,929
,397
,1882
,-1479
,1810
,4243
,2227
,-1674
,-2556
,1370
,597
,561
,1833
,239
,2401
,937
,-764
,2242
,-2228
,150
,-2250
,2005
,-351
,968
,-1081
,-2124
,301
,-1297
,4811
,-2265
,1404
,-3153
,1632
,1635
,399
,365
,-2832
,654
,-3367
,-1041
,-1914
,1040
,3032
,1116
,763
,-75
,461
,1798
,-785
,723
,-989
,1722
,-1003
,944
,-1232
,2193
,-1453
,-2345
,-1891
,-1439
,1361
,644
,2702
,343
,2543
,2127
,2750
,2092
,282
,192
,4304
,1824
,1048
,2584
,1957
,-498
,-2353
,695
,695
,-1390
,170
,-1149
,-2671
,-162
,79
,2743
,-515
,531
,224
,-256
,-615
,-197
,134
,178
,-255
,2230
,-2860
,-2710
,51
,-388
,2410
,509
,-224
,131
,-10
,-335
,-2755
,-259
,-1395
,-534
,-1667
,14
,-349
,573
,2280
,-53
,-1526
,143
,196
,-7
,41
,327
,-967
,-1769
,1831
,74
,124
,71
,1535
,37
,184
,68
,-285
,-99
,-3317
,-116
,-68
,174
,-571
,55
,-593
,-838
,-2030
,-495
,-1024
,302
,-2700
,-253
,-1454
,-3288
,170
,33
,75
,1151
,-2422
,-2467
,-50
,1
,309
,-1553
,3732
,-489
,-769
,272
,255
,27
,-3237
,-34
,-480
,1710
,866
,478
,-246
,-1481
,1983
,-2555
,334
,-155
,1330
,-2497
,-80
,-183
,1418
,326
,-1497
,-2766
,-569
,-597
,-307
,-228
,-42
,1233
,-2277
,29
,6
,-62
,-3450
,1989
,-901
,-2962
,-162
,7
,-2545
,-1309
,-2684
,65
,31
,-2545
,-49
,3383
,238
,25
,402
,-715
,-74
,-2944
,1135
,-704
,-10
,-3279
,10
,-2589
,-271
,425
,486
,-115
,-3273
,156
,90
,-2730
,-1403
,-824
,280
,-3100
,37
,178
,676
,883
,590
,-376
,-3200
,-196
,39
,-685
,-2122
,4485
,1823
,159
,-765
,-135
,-3312
,-2708
,-37
,4135
,-1312
,4485
,-945
,457
,1935
,3792
,87
,-2979
,-169
,-948
,-721
,-8
,-548
,-355
,14
,-1354
,-387
,-2247
,149
,-1378
,-204
,-790
,827
,198
,-330
,-1289
,-506
,-132
,-2127
,-864
,249
,-127
,-7
,-275
,176
,-70
,-4270
,-30
,-668
,-591
,118
,-692
,-69
,-542
,-325
,-759
,0
,728
,-1905
,-67
,1078
,-1053
,-1029
,-2524
,-483
,4099
,290
,3
,1980
,-2394
,-155
,914
,-3251
,1255
,-754
,924
,-213
,-7
,626
,-1681
,-132
,268
,685
,-2011
,-1275
,230
,-601
,-1006
,-2155
,-527
,150
,-80
,138
,-48
,1373
,2499
,2581
,405
,210
,12
,1758
,-763
,-442
,-474
,279
,1897
,210
,649
,34
,175
,-685
,-668
,-725
,365
,-52
,-2681
,46
,-2514
,1670
,-2592
,44
,1276
,-2626
,2
,-173
,-2788
,106
,-194
,-79
,861
,-3062
,2259
,-44
,8
,-271
,234
,-89
,187
,-336
,-215
,51
,1170
,-673
,338
,-2545
,-2638
,-100
,-464
,-3284
,102
,3265
,-2460
,-3206
,-2556
,-2041
,-213
,-93
,-63
,-582
,-32
,-358
,-2822
,-550
,-123
,-632
,-66
,-384
,-578
,-817
,-700
,-2581
,-71
,-2267
,368
,554
,87
,-396
,-1371
,-457
,-2643
,-2436
,-667
,305
,117
,84
,-1009
,-177
,4057
,5
,3261
,76
,478
,91
,-650
,1982
,-27
,-3047
,198
,263
,-4643
,171
,604
,192
,-2550
,-33
,-38
,828
,-1368
,48
,-74
,-3392
,311
,120
,210
,-169
,1793
,-87
,157
,3438
,2035
,-2618
,52
,-421
,-75
,-118
,1883
,-326
,17
,-2631
,-2445
,-752
,-276
,-34
,-364
,-1073
,-424
,-1064
,-267
,-2393
,-699
,-418
,-2331
,-1726
,-3476
,280
,-659
,3448
,242
,-370
,3340
,29
,-3241
,108
,-1067
,1455
,96
,2841
,756
,-2134
,-952
,-1643
,161
,65
,-1098
,151
,-88
,2263
,48
,316
,2896
,1335
,-2372
,206
,626
,-2692
,-2809
,-1259
,-1157
,-80
,-153
,-2
,-3385
,-58
,-3328
,-428
,-446
,-168
,-4837
,31
,-3071
,-4194
,-2792
,498
,-40
,143
,4051
,138
,-172
,130
,77
,-494
,-2548
,-462
,-337
,-101
,-690
,569
,-152
,-142
,247
,-314
,-2683
,4858
,1483
,3727
,68
,39
,110
,4
,140
,-538
,-343
,78
,1069
,-2475
,3358
,103
,-386
,-3811
,-55
,388
,-227
,-1846
,-2691
,-52
,240
,-228
,-2083
,-500
,-829
,56
,-103
,-1041
,-399
,-188
,1648
,-98
,-2959
,4091
,-3306
,-199
,589
,488
,2636
,1040
,-217
,-88
,-52
,-819
,-284
,-1381
,-2416
,-160
,-2138
,343
,-278
,-1610
,4547
,-742
,-699
,-3632
,-2847
,-219
,5699
,2344
,-579
,1048
,169
,-2315
,120
,147
,187
,-250
,-3211
,-1724
,56
,18
,-3616
,-17
,-914
,46
,204
,-877
,419
,-651
,1536
,5431
,17
,2736
,-271
,112
,-736
,-183
,-784
,-99
,-1319
,185
,130
,484
,4685
,-2321
,-708
,228
,-4313
,-180
,-487
,416
,-669
,-173
,-2704
,421
,-1801
,-2593
,-1409
,-215
,5120
,-2393
,-2529
,-297
,-447
,-58
,1974
,-1456
,59
,-152
,-365
,-2982
,-2746
,-198
,-2725
,113
,2061
,290
,-2384
,-14
,-436
,-465
,-151
,-335
,-1224
,2181
,-1437
,-136
,88
,538
,232
,-2568
,-2496
,731
,-1887
,-1569
,-837
,-2912
,-1367
,-3019
,68
,-967
,2854
,-249
,804
,-6
,49
,122
,-188
,157
,-1865
,122
,685
,-1935
,-228
,-1013
,-2685
,1779
,-619
,-401
,-2974
,-2831
,-839
,-2031
,179
,593
,-983
,-203
,533
,-659
,-2850
,-345
,2936
,1924
,-60
,4290
,-3013
,-59
,-2702
,253
,-2169
,-32
,44
,-503
,2589
,-52
,1061
,2767
,-1453
,1693
,326
,-332
,-232
,3064
,2446
,157
,-73
,3066
,-2764
,1097
,-3346
,-267
,-335
,-666
,-154
,2977
,145
,-2814
,67
,1895
,-248
,-697
,-546
,243
,-957
,1964
,-624
,496
,546
,657
,-3
,-3427
,1689
,-487
,2658
,5292
,169
,-2507
,-314
,-2168
,-93
,170
,-384
,66
,-321
,-972
,4404
,-653
,208
,-249
,-2336
,130
,-1468
,656
,-1126
,-3864
,4940
,2880
,-930
,-332
,101
,2950
,1064
,-1228
,999
,-622
,162
,-12
,799
,-127
,-1133
,-497
,-101
,-132
,215
,66
,-53
,3376
,-194
,-2434
,-1108
,-133
,-92
,122
,-171
,-117
,-2851
,-7
,353
,-3313
,2
,130
,80
,4855
,4650
,-30
,4
,-118
,2061
,-946
,-875
,-5
,477
,3417
,-9
,121
,-447
,-633
,-2538
,-118
,1970
,-87
,-301
,-852
,-2939
,2968
,1633
,127
,-296
,-1113
,-739
,-667
,3766
,-738
,3434
,-192
,103
,-285
,135
,-1104
,-210
,-166
,-260
,-3280
,792
,354
,3552
,1930
,317
,154
,43
,-79
,277
,547
,47
,-2319
,192
,-732
,-1459
,-2681
,-3186
,-521
,-3332
,757
,1733
,125
,-107
,136
,187
,729
,-356
,-1078
,432
,-143
,70
,1805
,-120
,-3065
,398
,-218
,-442
,2199
,-140
,-427
,-2465
,143
,2475
,-150
,-1509
,-17
,91
,135
,2896
,-224
,2178
,169
,85
,-2125
,-1700
,288
,-2355
,108
,-297
,128
,-824
,-3069
,-704
,135
,-1064
,127
,-1638
,-302
,-3148
,-308
,-1561
,5
,715
,1777
,54
,2472
,1066
,351
,12
,-419
,-548
,291
,-566
,243
,617
,61
,522
,17
,87
,-49
,-2129
,244
,-242
,-3155
,-799
,307
,-3164
,433
,-818
,577
,-253
,1776
,-59
,-1502
,-3546
,-33
,-2769
,-2239
,-1614
,-2698
,-9
,-43
,88
,93
,446
,83
,-59
,-63
,-609
,67
,-13
,3131
,-2032
,985
,857
,63
,-63
,-966
,411
,1619
,-397
,-853
,522
,694
,-114
,-2373
,-314
,1297
,3322
,33
,-698
,2926
,-180
,-3322
,604
,-81
,1098
,-62
,-173
,-2747
,-147
,-110
,116
,-1
,-9
,-105
,-71
,-88
,-74
,-43
,-129
,-104
,-84
,169
,119
,-93
,-83
,-68
,-7
,-46
,-29
,-87
,-109
,180
,-169
,206
,1
,-13
,2
,-73
,100
,165
,-37
,-64
,-36
,-84
,-123
,-62
,-22
,-44
,91
,124
,-24
,-87
,-62
,110
,-85
,28
,-85
,13
,-68
,17
,-124
,-89
,-24
,-108
,-11
,-71
,-25
,115
,-132
,-197
,-61
,141
,-76
,26
,125
,-159
,-73
,-86
,69
,95
,76
,-85
,-82
,-23
,177
,251
,-30
,-28
,-132
,-188
,-1
,152
,-85
,-54
,122
,105
,-18
,-45
,164
,-439
,160
,12
,-24
,-98
,172
,-73
,-73
,139
,51
,53
,101
,-85
,-47
,-55
,-104
,-94
,-107
,83
,-51
,-43
,-21
,32
,-97
,-40
,159
,-26
,-49
,204
,33
,157
,-27
,-133
,76
,-32
,-176
,-114
,-53
,-181
,-22
,-90
,58
,43
,-8
,-172
,113
,-73
,31
,-22
,-13
,-127
,-42
,27
,-3
,-207
,69
,3
,-70
,-8
,89
,-141
,-40
,-242
,-437
,-111
,-64
,104
,-9
,-93
,-78
,44
,247
,-57
,-86
,-56
,-145
,-27
,57
,-24
,138
,188
,-67
,-122
,-174
,-124
,28
,-77
,217
,-54
,-8
,-100
,-78
,8
,-164
,-40
,90
,-36
,158
,-90
,234
,-92
,137
,8
,-89
,-67
,37
,-28
,5
,69
,-7
,29
,-124
,-45
,-87
,-149
,-104
,46
,-53
,-24
,-4
,-49
,-64
,-111
,-72
,-82
,48
,-165
,-28
,13
,-74
,-315
,-30
,-29
,85
,-143
,45
,-129
,-89
,-204
,77
,-48
,-118
,-47
,6
,-93
,-238
,-74
,17
,-8
,-10
,-124
,-36
,151
,51
,117
,-104
,-79
,-39
,90
,-108
,-94
,-51
,-104
,-84
,-194
,-79
,96
,-43
,-6
,-40
,-167
,-59
,-180
,-93
,-20
,82
,-78
,-41
,-90
,-141
,21
,-47
,47
,-244
,-89
,52
,-32
,101
,76
,401
,-80
,114
,142
,-46
,-170
,62
,-7
,-52
,-105
,-45
,81
,-14
,-141
,-101
,-71
,-28
,-55
,20
,-42
,-44
,-81
,-74
,-15
,53
,38
,56
,-56
,-9
,65
,-178
,-404
,122
,152
,104
,30
,-54
,-90
,-12
,-118
,-84
,-84
,127
,-1
,-90
,-148
,-111
,-28
,-68
,-59
,-23
,202
,-116
,63
,-67
,-204
,-88
,-49
,110
,-42
,184
,-26
,-13
,-105
,-108
,-45
,-69
,-74
,-4
,-59
,-104
,-72
,-108
,-95
,-16
,-105
,-85
,50
,-9
,-144
,57
,-3
,-71
,-13
,-98
,-17
,65
,-199
,-13
,-50
,-88
,136
,41
,-328
,-202
,68
,-80
,-48
,-80
,211
,22
,97
,-48
,-42
,-115
,-48
,-84
,-44
,-20
,58
,150
,17
,-49
,-61
,-6
,98
,-50
,-90
,-110
,36
,-16
,21
,215
,-32
,33
,-67
,-41
,256
,-184
,-11
,-144
,-100
,117
,-50
,14
,-57
,-64
,-362
,-79
,23
,7
,54
,-19
,-65
,-70
,11
,-84
,-99
,-84
,-14
,-230
,-74
,31
,-79
,-92
,144
,10
,41
,184
,-94
,-30
,-157
,74
,-15
,97
,-56
,-27
,-118
,-183
,-115
,113
,52
,88
,-58
,-78
,-11
,-21
,7
,-53
,-99
,-51
,-50
,114
,-189
,-22
,-87
,49
,-66
,-43
,-90
,-161
,-35
,155
,-77
,-89
,252
,25
,-135
,-185
,-92
,-6
,-29
,-13
,-48
,-4
,60
,168
,-91
,-73
,49
,7
,27
,8
,192
,98
,-53
,-21
,-11
,137
,-82
,-209
,-198
,-39
,46
,27
,-131
,110
,-47
,66
,-48
,76
,-56
,-199
,-25
,35
,97
,-116
,-97
,-61
,82
,-99
,83
,173
,-82
,159
,-63
,3
,-48
,-27
,-76
,-57
,40
,97
,-54
,382
,69
,-64
,-39
,-26
,167
,-136
,-16
,6
,-38
,112
,331
,-55
,-144
,-64
,-71
,-29
,-107
,-21
,-56
,35
,-161
,-109
,-300
,-80
,25
,-53
,19
,-16
,-78
,-7
,-92
,113
,-36
,-49
,-43
,141
,-44
,0
,12
,52
,-21
,-50
,-225
,-32
,-79
,103
,-184
,-32
,73
,207
,-58
,-71
,54
,149
,-19
,-36
,-47
,30
,-63
,-62
,-172
,-23
,149
,145
,-106
,63
,-74
,-4
,-76
,113
,-89
,-74
,-49
,-2
,-49
,-10
,-101
,145
,-85
,-55
,-89
,-36
,193
,131
,-201
,-10
,67
,-33
,108
,259
,101
,-38
,-1
,-228
,-79
,57
,-45
,-92
,42
,-80
,-158
,166
,-54
,-200
,63
,-117
,120
,100
,-81
,-15
,-20
,60
,231
,40
,17
,45
,-66
,79
,-28
,-31
,-33
,128
,-73
,32
,17
,-40
,494
,189
,-134
,89
,49
,151
,-61
,-87
,-40
,205
,-108
,-35
,286
,127
,-244
,-140
,-110
,-9
,-274
,-23
,-51
,-56
,-270
,104
,-115
,137
,-15
,-31
,49
,-149
,415
,36
,124
,-56
,192
,-107
,-21
,-85
,-104
,-42
,-130
,-54
,-32
,-21
,-6
,-79
,164
,97
,-67
,265
,69
,25
,228
,-132
,108
,-70
,-354
,-52
,25
,-38
,-21
,5
,-8
,-87
,-34
,82
,-5
,126
,-46
,-19
,-8
,240
,-267
,-132
,-41
,-12
,24
,249
,6
,-45
,-28
,-71
,-22
,-117
,-95
,-53
,-71
,-67
,-85
,-85
,-80
,-88
,-40
,-78
,227
,-19
,20
,-77
,-51
,-96
,-50
,156
,-89
,-263
,-25
,-83
,-94
,-56
,28
,-51
,-86
,-71
,-45
,-16
,12
,-47
,-186
,-125
,-111
,-45
,1
,51
,-11
,-23
,-6
,-130
,-78
,-59
,43
,141
,10
,116
,72
,-244
,52
,-92
,-27
,-74
,-59
,-682
,-17
,-85
,-57
,-47
,-2
,-43
,-48
,-121
,120
,-196
,105
,-154
,5
,-31
,9
,-87
,-116
,-62
,-158
,-50
,116
,-48
,-80
,-20
,-43
,93
,-38
,146
,-136
,-202
,-86
,-97
,-87
,-136
,-334
,-153
,30
,-2
,-88
,-74
,168
,-49
,79
,-41
,-84
,2
,288
,-133
,-76
,171
,-49
,-234
,-185
,20
,-38
,-38
,-45
,287
,-53
,-184
,-21
,-77
,214
,74
,-38
,73
,-166
,-88
,-82
,-38
,98
,5
,-69
,23
,-60
,24
,-77
,138
,-122
,85
,-66
,-527
,-66
,-15
,-93
,-33
,-124
,-61
,-33
,-69
,-23
,-95
,-112
,-54
,-111
,85
,-72
,-43
,-68
,217
,-37
,-57
,77
,71
,-225
,146
,-131
,-45
,-41
,-57
,-73
,-42
,31
,93
,-57
,29
,154
,0
,-94
,-92
,-93
,-84
,-37
,56
,-51
,-86
,-65
,-184
,-125
,-48
,-50
,18
,32
,-142
,-64
,-83
,-133
,-35
,115
,-169
,-57
,-162
,81
,0
,302
,-67
,-2
,-235
,-96
,26
,-125
,-20
,13
,-64
,-71
,80
,-81
,-57
,185
,-150
,-794
,37
,-74
,-186
,-286
,-165
,-247
,-441
,-387
,-355
,-183
,-674
,-1264
,-159
,-471
,-345
,-1437
,-323
,-554
,-504
,-442
,-835
,76
,-605
,-551
,-275
,-669
,-404
,-855
,-696
,-1043
,-287
,-567
,-680
,-577
,-347
,-644
,-538
,-976
,-347
,-439
,-330
,-733
,-179
,-352
,53
,-536
,-614
,-415
,-244
,-184
,-612
,-247
,-472
,-418
,187
,-307
,-614
,-450
,-1307
,-826
,-244
,-174
,-1519
,-585
,-483
,-621
,-557
,-408
,-72
,-723
,-316
,-337
,-421
,-1090
,-289
,-352
,-1479
,-627
,-433
,-224
,-198
,-204
,-911
,-307
,157
,-408
,-483
,-27
,-504
,-134
,-514
,-468
,-876
,-303
,-158
,-469
,89
,-596
,-231
,-426
,-917
,-699
,-375
,-296
,-576
,-234
,-667
,-963
,-687
,-558
,-462
,-1026
,167
,-952
,-30
,-573
,-537
,-1474
,-530
,510
,-310
,-289
,-1710
,-417
,-756
,-232
,-1781
,99
,-992
,-664
,-521
,-435
,-1135
,-403
,-98
,-109
,-438
,-51
,30
,-297
,-722
,-230
,-132
,-672
,-2134
,-659
,-64
,-563
,-629
,-234
,-620
,-880
,-1120
,-806
,-458
,-697
,57
,-685
,-440
,-799
,-628
,-1140
,-449
,-119
,-366
,-573
,-292
,-613
,-338
,-288
,-390
,-1240
,86
,-161
,-148
,-26
,-430
,-274
,630
,-322
,-420
,-785
,-448
,-7
,-500
,-481
,-691
,-358
,-102
,-889
,-427
,-288
,-888
,-185
,-639
,-404
,-119
,-501
,-721
,-682
,-519
,-866
,-292
,155
,-350
,-419
,-913
,-463
,-162
,-450
,-201
,-493
,-417
,-534
,-555
,-334
,186
,-356
,-841
,-428
,-787
,-507
,-1134
,-341
,-1128
,-852
,-493
,-158
,-687
,-397
,-524
,-74
,-495
,-217
,372
,-503
,-440
,-514
,-1038
,-11371
,-10099
,-9958
,-8999
,-13045
,-11692
,-9825
,-10922
,-8100
,-11445
,-11029
,-9977
,-10462
,-10732
,-9576
,-9908
,-7761
,-9187
,-10483
,-8847
,-5829
,-8285
,-11546
,-6280
,-12664
,-12051
,-8901
,-9858
,-5953
,-4080
,-10785
,-11331
,-12051
,-8068
,-8269
,-8039
,-10924
,-6856
,-8796
,-10828
,-6200
,-7176
,-8971
,-9022
,-8219
,-7033
,-11393
,-9239
,-12028
,-8687
,-8668
,-8070
,-7478
,-7945
,-10620
,-7649
,-9844
,-9896
,-10374
,-9494
,-13052
,-11294
,-11459
,-7980
,-10148
,-7088
,-11593
,8020
,-8999
,-7326
,-9886
,-7022
,-7724
,-6839
,-7257
,-8271
,-8761
,-9594
,-11308
,-12218
,-11036
,-7051
,-7178
,-8179
,-10732
,-2692
,-9892
,-10957
,-10240
,-9452
,-11317
,-12992
,-70
,-9713
,-11033
,-12264
,-11210
,-7664
,-7234
,-5904
,-7596
,-11960
,-7877
,-11823
,-9235
,-10463
,-9767
,-13163
,-12201
,-9624
,-8319
,-10219
,-7340
,-11222
,-12280
,-8728
,-8911
,-9724
,-10113
,-11097
,-9745
,-8558
,-9830
,-8554
,-7945
,-10159
,-10309
,-9238
,-11551
,-8670
,-8018
,-8999
,-1868
,-10415
,-9962
,-8955
,-6656
,-10506
,-7371
,-7817
,-12057
,-11379
,-9845
,-11775
,-8561
,-11202
,-7937
,-10143
,-7117
,-12067
,-7197
,-10120
,-8998
,-7203
,-11610
,-9855
,-8014
,-5222
,-6783
,-11700
,-10166
,-9642
,-11257
,-6911
,-10044
,-11378
,-9854
,-8896
,-10673
,-6329
,-13714
,-8842
,-10830
,-9244
,-11401
,-8550
,-9538
,-11687
,-9211
,-11156
,-9571
,-9543
,-11722
,-12656
,-9921
,-13130
,-9096
,-8962
,-11161
,-12570
,-9852
,-12036
,-6755
,-8804
,-9037
,-13142
,-11074
,-11293
,-8877
,-11861
,-13890
,-8783
,-9411
,-7897
,-10609
,-12188
,5092
,-9045
,-10419
,-9162
,-8773
,-9411
,-12411
,-9966
,-12605
,-10604
,-6786
,-9664
,-4403
,-8570
,-12350
,-11842
,-10179
,-7902
,-10072
,-4711
,-9589
,-8879
,-9251
,-10497
,-11151
,-9315
,-9226
,-8497
,-13282
,-9957
,-7309
,-6986
,-8581
,-9279
,-6083
,-10134
,-12345
,-9706
,-12482
,-10232
,-6029
,-11185
,-11359
,-11643
,-5336
,-10904
,-13254
,-6097
,-15809
,-11687
,-7516
,-11223
,-7603
,-7467
,-11269
,-9488
,-8722
,-11518
,-8214
,-11906
,-12600
,-8058
,-9351
,-7201
,-10782
,-10040
,-4319
,-12332
,-10815
,-12133
,-8701
,-8443
,-7485
,-10691};
//,-7240?
//,-10399
//,-10805
//,-7007
//,-8220
//,-8743
//,-3730
//,-8670
//,-10083
//,-8462
//,-9229
//,-5973
//,-10622
//,-10726
//,-9410
//,-8017
//,-9304
//,-8607
//,-9017
//,-10774
//,-9606
//,-9146
//,-9801
//,-9096
//,-10724
//,-9300
//,-11531
//,-10364
//,-7996
//,-9413
//,-11569
//,-11051
//,-5956
//,-10134
//,-4947
//,-13242
//,-11427
//,-7398
//,-11037
//,-10133
//,-8338
//,-9265
//,-11171
//,-8954
//,-10800
//,1417
//,-10869
//,-9761
//,-9246
//,-8095
//,-10568
//,-9686
//,-9230
//,-11810
//,-10344
//,-9366
//,-10259
//,-11402
//,-9485
//,-10171
//,-9329
//,-9633
//,-11372
//,-7640
//,-8615
//,-9452
//,-8151
//,-8444
//,-8796
//,-8446
//,-15007
//,4624
//,-10237
//,-9957
//,-13131
//,-7838
//,-10820
//,-8689
//,-12214
//,-5856
//,-9949
//,-8933
//,-6016
//,-1132
//,-9214
//,-10103
//,-8279
//,-8873
//,-11159
//,-9208
//,-12678
//,-10177
//,-9924
//,-9537
//,-6228
//,-11404
//,-9753
//,-12021
//,-5008
//,-8844
//,-11976
//,-9920
//,-8155
//,-9132
//,-10094
//,-9748
//,-12108
//,-7286
//,-9905
//,-9517
//,-8495
//,-8895
//,-9952
//,-10492
//,-11680
//,-8147
//,-13577
//,-10926
//,-10991
//,-10630
//,-10387
//,-13816
//,-9154
//,-7504
//,-8653
//,-8265
//,-6979
//,-7174
//,-5361
//,-8390
//,-11430
//,-9824
//,-13689
//,-13132
//,-10757
//,-10539
//,-12798
//,-9586
//,-7752
//,-9478
//,-11132
//,-11193
//,-9897
//,-10881
//,-7492
//,-9362
//,-10757
//,-10537
//,-8147
//,-7116
//,-12621
//,-9907
//,-10830
//,-9140
//,-9536
//,-11309
//,-10506
//,-12304
//,-10813
//,-11909
//,-6040
//,-12461
//,-9200
//,-11392
//,-8440
//,-12692
//,-12150
//,-9304
//,2071
//,-8424
//,-9388
//,-8557
//,-10396
//,-8530
//,-11229
//,-8473
//,-10686
//,-6900
//,-15086
//,-10371
//,-7702
//,-9779
//,-10561
//,-9117
//,-7230
//,-7319
//,-12277
//,-8646
//,-7420
//,-10377
//,-10452
//,-9945
//,-10734
//,-9315
//,-7236
//,-10048
//,-7232
//,-9996
//,-10554
//,-10230
//,-11017
//,-7831
//,-8365
//,-12446
//,-13062
//,-5789
//,-9942
//,-9288
//,-6837
//,-11787
//,-13625
//,-10601
//,-10456
//,-8042
//,-12327
//,-11423
//,-9023
//,-11240
//,-7867
//,-6265
//,-13266
//,-8523
//,-9490
//,-10315
//,-10997
//,-11437
//,-9753
//,-9717
//,-5155
//,-11940
//,-10677
//,-12223
//,-9365
//,-6440
//,-7515
//,-10535
//,-6553
//,-7612
//,-9660
//,-11719
//,-8844
//,-10414
//,-12480
//,-13559
//,-9383
//,-10378
//,-10383
//,-8996
//,-9874
//,-13664
//,-10120
//,-9359
//,-9328
//,-7916
//,-1376
//,-11867
//,-10733
//,-13624
//,-12958
//,-11862
//,-8000
//,-10634
//,-11656
//,-11501
//,-10729
//,-8631
//,-10327
//,-8865
//,-8980
//,-9097
//,-9685
//,-8074
//,-10591
//,-9345
//,-9531
//,-11236
//,-10350
//,-7964
//,-10009
//,-7772
//,-9145
//,-10120
//,-10681
//,-11402
//,-8351
//,-10561
//,-9929
//,-6870
//,-9311
//,-11497
//,-10104
//,-10555
//,-11976
//,-9680
//,-10058
//,-8676
//,-5964
//,-11554
//,-9953
//,-8008
//,-12890
//,-9682
//,-10365
//,-13231
//,-9128
//,-6433
//,-9274
//,-7608
//,-11496
//,-9885
//,-9414
//,-7431
//,-8365
//,-6448
//,-6382
//,-8966
//,-10135
//,-10968
//,-9796
//,-8391
//,-7006
//,-8612
//,-8971
//,-9876
//,-8060
//,-11280
//,-12315
//,-7276
//,-10555
//,-10353
//,-11207
//,-11800
//,-11840
//,-7496
//,-11291
//,-10153
//,-10867
//,-14430
//,-11193
//,-9470
//,-1799
//,-10860
//,-10510
//,-11728
//,-8072
//,-10427
//,-10547
//,-9629
//,-10154
//,-1103
//,-11835
//,-9465
//,-1707
//,-10863
//,-9892
//,-11106
//,-10067
//,-9535
//,-9850
//,-9321
//,-10355
//,-6539
//,-8615
//,-9013
//,-10775
//,-12016
//,-11538
//,-9054
//,-11537
//,-9133
//,-9999
//,-10975
//,-10494
//,-10249
//,-11650
//,-10928
//,-8141
//,4830
//,-6282
//,-9893
//,-11324
//,-8601
//,-12061
//,-11813
//,-10195
//,-10293
//,-9414
//,-6559
//,-9804
//,-3962
//,-2935
//,-7204
//,-11702
//,-5540
//,-8816
//,-11502
//,-10074
//,-9631
//,-6051
//,-9872
//,-7374
//,-8408
//,-13063
//,-10492
//,-10085
//,-8387
//,-9051
//,-11582
//,-11089
//,-9769
//,-12919
//,-2879
//,-8204
//,-9191
//,-10700
//,-10208
//,-9015
//,-11481
//,-9725
//,-10204
//,-9920
//,-9505
//,-9563
//,-10243
//,-6381
//,-6888
//,-8532
//,-10493
//,-13234
//,-10974
//,-8535
//,-8631
//,-11411
//,-10215
//,-10311
//,-10672
//,-7656
//,-9843
//,-7012
//,-8634
//,-10700
//,-6222
//,-12983
//,-10108
//,-8746
//,-9827
//,-12350
//,-9574
//,-9947
//,-9205
//,-8315
//,-8284
//,-8350
//,-12977
//,-11018
//,-6185
//,-7665
//,-8093
//,-10872
//,-8376
//,-8502
//,-8829
//,-9589
//,-11258
//,-10684
//,-9793
//,-9448
//,-9015
//,-10241
//,-14282
//,-9808
//,-3939
//,-12457
//,-5055
//,-10765
//,-9429
//,-9184
//,-12187
//,-8546
//,-9253
//,-9427
//,-12432
//,-9249
//,-9984
//,-8175
//,-9652
//,-7693
//,-9069
//,-5519
//,-10421
//,-9462
//,-7968
//,-9488
//,-10715
//,-12613
//,-8124
//,-9897
//,-9647
//,-8940
//,-9438
//,-8408
//,-6310
//,-10280
//,-8552
//,-8260
//,-11153
//,-10048
//,-9922
//,-11273
//,-10771
//,-4300
//,-12661
//,3414
//,-8877
//,-8731
//,-10974
//,-10880
//,-7813
//,-13452
//,-9997
//,-10575
//,-8880
//,-8989
//,-10516
//,-10553
//,-10757
//,-10168
//,-9898
//,-7508
//,-12343
//,-13001
//,-14386
//,-9035
//,-10229
//,-8328
//,-6911
//,-11561
//,-8425
//,-10979
//,-8654
//,-11078
//,-10712
//,-12562
//,-11761
//,-8163
//,-7938
//,-10354
//,-5993
//,-11940
//,-11795
//,-8936
//,-10445
//,-6527
//,-9800
//,-14401
//,-8580
//,-12979
//,-9125
//,-10900
//,-7684
//,-6904
//,-8747
//,-10976
//,-9060
//,-10734
//,-11176
//,-12855
//,-11006
//,-12563
//,-8033
//,-10864
//,-11029
//,-9090
//,-8425
//,-10825
//,-8913
//,-10139
//,-10559
//,-9648
//,-13709
//,-7180
//,-10643
//,-14424
//,-7874
//,-9704
//,-10923
//,-17891
//,-11532
//,-8873
//,-9000
//,-10612
//,-11069
//,-7736
//,-11815
//,-10398
//,-11205
//,-8195
//,-8669
//,-11215
//,-10337
//,-9298
//,-7820
//,-11656
//,-8170
//,-14412
//,-8019
//,-9557
//,-9415
//,-10137
//,-10142
//,-10976
//,-10596
//,-9208
//,-9800
//,1582
//,-8134
//,-9851
//,-9220
//,-5954
//,-10742
//,-9155
//,-8864
//,-7587
//,-10247
//,-9508
//,-9414
//,-10540
//,-10779
//,-10586
//,-9753
//,-9260
//,-8606
//,-8462
//,-8309
//,-10990
//,-7898
//,-10585
//,-9343
//,-10439
//,-10363
//,-9441
//,-9951
//,-11291
//,-8742
//,-10771
//,-9207
//,-8518
//,-8548
//,-9045
//,-8770
//,-7960
//,-6309
//,-11177
//,-8582
//,-10544
//,-9091
//,-10331
//,-7746
//,-3907
//,-10183
//,-9670
//,-12019
//,-10271
//,-7596
//,-11761
//,-9699
//,-8098
//,-9766
//,-9508
//,-13053
//,-11511
//,-9376
//,-9607
//,-9142
//,-9863
//,-5752
//,-10335
//,-9064
//,-7897
//,-10386
//,162
//,-377
//,-558
//,-802
//,760
//,461
//,-269
//,889
//,489
//,-19
//,-1213
//,303
//,313
//,-537
//,-26
//,230
//,-261
//,242
//,-207
//,20
//,144
//,792
//,349
//,492
//,22
//,-105
//,184
//,-113
//,155
//,345
//,-324
//,-300
//,-623
//,-223
//,62
//,-80
//,-479
//,-124
//,40
//,177
//,-958
//,-630
//,-1332
//,-315
//,-474
//,-294
//,-1141
//,117
//,372
//,13
//,510
//,-1509
//,279
//,-336
//,680
//,87
//,358
//,213
//,39
//,-356
//,841
//,-189
//,-13
//,-1483
//,-252
//,-99
//,-7
//,-529
//,495
//,-969
//,-194
//,-165
//,173
//,-101
//,-467
//,-947
//,-1580
//,-272
//,-173
//,-688
//,-91
//,-20
//,419
//,266
//,-841
//,683
//,365
//,244
//,262
//,306
//,-450
//,-333
//,-431
//,537
//,-94
//,128
//,267
//,-252
//,144
//,394
//,-179
//,265
//,248
//,327
//,1476
//,354
//,146
//,-341
//,-625
//,114
//,-77
//,-82
//,-1119
//,250
//,-1060
//,829
//,-498
//,-481
//,15
//,659
//,-146
//,-690
//,-322
//,94
//,-327
//,108
//,-333
//,198
//,-680
//,361
//,96
//,-26
//,728
//,362
//,512
//,-603
//,780
//,-424
//,-66
//,-1
//,-473
//,301
//,477
//,301
//,-395
//,-427
//,-20
//,408
//,-228
//,-234
//,622
//,-495
//,-685
//,-340
//,299
//,-316
//,-402
//,244
//,-447
//,-21
//,-2772
//,724
//,-2801
//,-2557
//,-1187
//,-700
//,-4013
//,82
//,54
//,-2240
//,400
//,-2364
//,-2603
//,-2136
//,-1153
//,-3044
//,-2894
//,-5767
//,-12925
//,-4571
//,251
//,-2896
//,-1133
//,145
//,-1888
//,-3015
//,-2391
//,-2547
//,-1162
//,-2215
//,-3754
//,-2285
//,-2466
//,-2864
//,-2763
//,167
//,-2090
//,-1366
//,-2508
//,74
//,-4549
//,3447
//,-1615
//,129
//,-114
//,-3882
//,-2370
//,-2627
//,-2275
//,-3052
//,-2477
//,-2895
//,-1482
//,-2520
//,188
//,575
//,-151
//,-97
//,-3415
//,-2155
//,-2747
//,-5456
//,-3218
//,-26
//,-1205
//,-4871
//,-2492
//,-2218
//,-1934
//,2036
//,-575
//,-1074
//,-3170
//,-2031
//,-296
//,-4431
//,-83
//,253
//,-786
//,-1140
//,2437
//,-804
//,-3567
//,-2535
//,-3192
//,251
//,1888
//,-3045
//,148
//,-2854
//,-4680
//,-3759
//,-1034
//,-2776
//,119
//,-2566
//,-2793
//,-1642
//,61
//,-2337
//,46
//,-1791
//,-1015
//,-2760
//,276
//,-1119
//,-2395
//,-2099
//,-2539
//,-2594
//,-1211
//,-2111
//,-2901
//,-3631
//,-4474
//,-1961
//,-2243
//,-482
//,75
//,-2829
//,-1022
//,-1305
//,-2446
//,-1101
//,-456
//,98
//,-2706
//,1286
//,-1678
//,-1534
//,-1051
//,-2653
//,-289
//,701
//,-625
//,-1188
//,1313
//,-2778
//,-563
//,-2401
//,856
//,-3520
//,49
//,-15
//,-2237
//,-2599
//,-2878
//,-3649
//,-1234
//,-133
//,-1295
//,-2069
//,-540
//,-1961
//,-2688
//,2996
//,110
//,-5237
//,82
//,-1971
//,-3778
//,-2203
//,-393
//,-2976
//,-4414
//,-2899
//,-2575
//,-2619
//,-96
//,-2125
//,-2661
//,-1015
//,-1347
//,-1408
//,-426
//,-1488
//,-1789
//,-345
//,-1893
//,60
//,-3934
//,249
//,-1691
//,-846
//,-1548
//,-2736
//,-4191
//,-3082
//,-2351
//,-2674
//,743
//,-1525
//,-968
//,220
//,-2057
//,-430
//,145
//,-1322
//,-2295
//,-2343
//,-378
//,-1189
//,-2532
//,-3736
//,42
//,-302
//,1164
//,-2930
//,-315
//,-2693
//,-919
//,-3885
//,941
//,-2092
//,-2841
//,-1487
//,-2074
//,-1490
//,52
//,-2596
//,-3046
//,-2469
//,-2471
//,-913
//,224
//,-2233
//,-370
//,-2361
//,-2628
//,-1426
//,353
//,-2607
//,-1172
//,-1468
//,-2733
//,-1216
//,-2812
//,-1148
//,-4552
//,-4784
//,-2030
//,-1582
//,433
//,-2553
//,-3116
//,-2876
//,-220
//,-2373
//,139
//,-2524
//,-2831
//,101
//,-4038
//,-1124
//,18
//,-3103
//,882
//,-3191
//,-1302
//,-5257
//,504
//,-3034
//,242
//,-3384
//,-208
//,-3563
//,-2555
//,-2611
//,515
//,224
//,-122
//,-1953
//,-2206
//,-1079
//,-2104
//,186
//,-1534
//,-5513
//,-221
//,-936
//,197
//,-850
//,-2344
//,129
//,29
//,-55
//,-3885
//,-3655
//,2094
//,-240
//,-3369
//,-3832
//,-2199
//,-1173
//,-2794
//,-1518
//,-2540
//,-2659
//,-2118
//,581
//,-3615
//,-1669
//,-116
//,-3919
//,3028
//,-2051
//,-835
//,-453
//,-3190
//,-517
//,-2382
//,343
//,-2455
//,-1331
//,-373
//,-2602
//,142
//,-1757
//,-1368
//,-2734
//,-851
//,-1854
//,-2142
//,-3151
//,-3439
//,-2248
//,23
//,-2384
//,-2247
//,-2763
//,-3004
//,-2042
//,-690
//,-1357
//,-1427
//,-2818
//,-2108
//,-706
//,-3466
//,-777
//,-638
//,-893
//,-2327
//,205
//,-2708
//,-1893
//,-2444
//,1
//,-1887
//,-2810
//,-1369
//,-355
//,-877
//,102
//,-4576
//,-4017
//,-979
//,-2611
//,-2052
//,-762
//,230
//,-2796
//,277
//,347
//,-6
//,-1323
//,-1392
//,-2838
//,-2153
//,-2932
//,-3408
//,-1550
//,117
//,-3887
//,-1834
//,-1643
//,-3109
//,-2966
//,-2623
//,-2996
//,-3954
//,-2388
//,235
//,-1814
//,-2709
//,-1896
//,-3687
//,-279
//,-180
//,-2129
//,-3190
//,-2532
//,-1121
//,-1215
//,170
//,-238
//,-3605
//,-1878
//,-383
//,-2501
//,-2446
//,244
//,-3142
//,-2682
//,42
//,121
//,-1351
//,-1926
//,-1936
//,-170
//,-3031
//,-2826
//,257
//,-1871
//,-2577
//,-2798
//,-2875
//,350
//,-3545
//,-519
//,-1766
//,-1227
//,-2230
//,-2776
//,-2270
//,-1996
//,173
//,-2685
//,-2324
//,-3039
//,-5337
//,-2009
//,-1673
//,581
//,-2984
//,80
//,433
//,219
//,-688
//,-1276
//,-2388
//,-2249
//,-2127
//,-1439
//,-2080
//,-1800
//,-2360
//,-46
//,-2597
//,-2456
//,-4388
//,-18
//,-440
//,57
//,-874
//,1123
//,-2328
//,-2428
//,765
//,-1889
//,-2603
//,-1584
//,-1965
//,-1550
//,-671
//,-2325
//,-2479
//,-3060
//,-3659
//,-1628
//,-3380
//,-338
//,-2857
//,3998
//,-2512
//,-4070
//,2774
//,-2755
//,-1056
//,-2808
//,-1751
//,113
//,-1381
//,-1108
//,-2303
//,-1805
//,4355
//,-1354
//,-2853
//,-974
//,-1562
//,-230
//,-2192
//,-2403
//,-1932
//,-2914
//,-1009
//,-845
//,-3391
//,-3298
//,-1820
//,117
//,-5378
//,520
//,4169
//,39
//,2694
//,-1261
//,-3158
//,-4028
//,1127
//,-2104
//,-2764
//,-3130
//,-3204
//,-3567
//,-220
//,-832
//,3230
//,-2594
//,-3279
//,-786
//,-2246
//,-113
//,-1806
//,1683
//,-2874
//,-2132
//,-2386
//,-2931
//,269
//,2108
//,1926
//,-2624
//,-3074
//,-1961
//,-1121
//,-1688
//,-2019
//,-1176
//,212
//,-2755
//,-80
//,-1741
//,-3212
//,-502
//,-343
//,-2121
//,-2459
//,-2733
//,-1372
//,-2791
//,-3540
//,264
//,-2842
//,-879
//,-1568
//,-2289
//,-1528
//,-1825
//,-1239
//,-2440
//,-3024
//,-1364
//,-836
//,-702
//,-780
//,-2488
//,-2837
//,54
//,-1818
//,-2773
//,-727
//,510
//,-1469
//,-1750
//,13
//,-707
//,-1638
//,590
//,-1435
//,-113
//,-4651
//,-2300
//,-1085
//,-1421
//,-1778
//,-2840
//,-790
//,-117
//,-985
//,-3665
//,75
//,-2928
//,1093
//,-2765
//,-2745
//,-2909
//,-3470
//,-717
//,-2802
//,-2475
//,-1098
//,-1416
//,-3236
//,-2843
//,-2143
//,-1622
//,1427
//,-2287
//,-2633
//,-1080
//,-2444
//,-1720
//,-2442
//,-692
//,140
//,-1345
//,57
//,-783
//,226
//,-946
//,-1924
//,-3793
//,-2769
//,-1799
//,-1620
//,68
//,-4586
//,-63
//,-2192
//,-514
//,116
//,-3177
//,-4653
//,-527
//,-313
//,42
//,-2108
//,-1610
//,-3138
//,-1685
//,-3741
//,-3777
//,-2748
//,1932
//,-3589
//,-2617
//,-3348
//,-2383
//,-2263
//,-2816
//,-3746
//,-1193
//,-1958
//,-2789
//,-2447
//,-3067
//,-2411
//,-2414
//,-80
//,-939
//,-2852
//,-3378
//,-3672
//,-3125
//,-1598
//,-1635
//,-847
//,-248
//,-2870
//,-2512
//,-1916
//,-914
//,135
//,-224
//,-1648
//,-2312
//,-2731
//,-2285
//,1393
//,-2586
//,-1322
//,-2318
//,-30
//,-2042
//,-2988
//,-933
//,-1842
//,-4177
//,-523
//,-1795
//,-2155
//,-2626
//,-892
//,-788
//,754
//,-513
//,-1014
//,34
//,-1060
//,-2305
//,-1351
//,-2792
//,-2738
//,-735
//,-2633
//,-2
//,-2391
//,-2096
//,-1009
//,-1869
//,159
//,-1342
//,-662
//,-1430
//,-1372
//,-2400
//,-611
//,-2473
//,-637
//,-1494
//,375
//,52
//,-1895
//,328
//,-1526
//,791
//,-91
//,-1944
//,-3853
//,76
//,-740
//,-2164
//,14
//,-48
//,-385
//,-2499
//,-3589
//,-2643
//,-4964
//,-3731
//,21
//,1291
//,-3918
//,-1666
//,194
//,-2332
//,-1140
//,-1679
//,-2882
//,-487
//,30
//,1589
//,267
//,-524
//,-3919
//,-2226
//,-1304
//,-3540
//,-881
//,-212
//,-680
//,-1131
//,-3499
//,-2169
//,-581
//,-707
//,-3674
//,-3640
//,-845
//,-850
//,-829
//,-1561
//,-2666
//,-3170
//,-3274
//,-401
//,-157
//,-2180
//,-2206
//,559
//,-2934
//,-2747
//,-3186
//,-2013
//,-145
//,-1718
//,-3582
//,-3902
//,-1917
//,-1287
//,-2653
//,-2654
//,-370
//,-695
//,-32
//,-3358
//,-57
//,-629
//,-1081
//,-2839
//,133
//,-3169
//,424
//,-2028
//,-2916
//,-3906
//,-2065
//,324
//,-3182
//,-1429
//,-1052
//,1677
//,-2687
//,450
//,-1491
//,60
//,-2575
//,-1468
//,2248
//,-3788
//,-1468
//,-2709
//,-2118
//,24
//,-1615
//,-1535
//,-1243
//,-2365
//,1196
//,-250
//,-2487
//,-2585
//,-1875
//,-2431
//,-4595
//,-240
//,1081
//,-1576
//,-9
//,-777
//,590
//,-2546
//,-866
//,-2008
//,-2878
//,-615
//,-2459
//,-2212
//,-1575
//,-2298
//,-787
//,-1886
//,202
//,732
//,-465
//,-1411
//,-1007
//,-1301
//,-2222
//,39
//,-754
//,-302
//,-1248
//,-1189
//,-3028
//,-1058
//,-1608
//,-1554
//,-2304
//,-926
//,-2962
//,-2919
//,-1839
//,-1768
//,-2113
//,-410
//,-2742
//,-667
//,5344
//,-981
//,-2400
//,-679
//,88
//,-2501
//,186
//,-3645
//,-2338
//,-1333
//,-3672
//,-357
//,-2702
//,-895
//,-2182
//,-3816
//,-5056
//,3089
//,-2342
//,-3804
//,-408
//,-2644
//,-1931
//,-631
//,-2657
//,-1311
//,-2325
//,-2467
//,1651
//,-1782
//,-872
//,547
//,-1314
//,-3027
//,-2556
//,-3711
//,1474
//,-2895
//,-2075
//,-2009
//,-1243
//,-2429
//,-161
//,210
//,-932
//,-738
//,-1737
//,-1629
//,-2639
//,-2247
//,1870
//,-3527
//,-740
//,-1543
//,2444
//,-1234
//,-1347
//,-2709
//,-3490
//,-2531
//,-1588
//,-4082
//,1640
//,-1704
//,-2931
//,-740
//,-1538
//,-2774
//,-2322
//,-804
//,-2964
//,-1470
//,-2353
//,-2283
//,-2765
//,39
//,-806
//,-3346
//,-3183
//,-1143
//,94
//,89
//,97
//,147
//,31
//,-122
//,70
//,15
//,-132
//,335
//,-174
//,-54
//,128
//,81
//,75
//,155
//,151
//,21
//,-412
//,-33
//,24
//,159
//,-6
//,41
//,312
//,82
//,122
//,106
//,72
//,292
//,-53
//,79
//,92
//,-20
//,179
//,-521
//,-7
//,-17
//,102
//,44
//,-4
//,4
//,159
//,6
//,0
//,73
//,200
//,41
//,74
//,121
//,341
//,103
//,80
//,184
//,9
//,-31
//,-154
//,-85
//,105
//,129
//,266
//,77
//,109
//,22
//,34
//,23
//,105
//,98
//,260
//,58
//,2
//,-28
//,-43
//,45
//,-78
//,66
//,-110
//,-35
//,-37
//,17
//,163
//,13
//,94
//,38
//,139
//,-252
//,-90
//,103
//,-38
//,126
//,-32
//,34
//,-26
//,121
//,-333
//,74
//,118
//,149
//,-54
//,168
//,-78
//,247
//,45
//,103
//,39
//,-111
//,303
//,22
//,159
//,62
//,160
//,133
//,127
//,69
//,55
//,145
//,11
//,-140
//,-64
//,113
//,-20
//,28
//,128
//,99
//,-52
//,-120
//,223
//,323
//,127
//,28
//,-21
//,108
//,-81
//,-44
//,44
//,47
//,138
//,146
//,-37
//,160
//,120
//,158
//,5
//,-213
//,309
//,97
//,157
//,108
//,99
//,-92
//,79
//,122
//,-35
//,143
//,139
//,204
//,-112
//,53
//,-63
//,64
//,62
//,184
//,-18
//,94
//,61
//,101
//,102
//,164
//,-310
//,156
//,33
//,51
//,-41
//,101
//,-54
//,49
//,55
//,-56
//,103
//,-99
//,47
//,91
//,127
//,17
//,216
//,96
//,71
//,99
//,117
//,161
//,123
//,80
//,51
//,64
//,63
//,-70
//,19
//,-35
//,201
//,158
//,-82
//,140
//,52
//,-23
//,-31
//,78
//,-80
//,98
//,-99
//,159
//,-49
//,94
//,58
//,105
//,192
//,38
//,80
//,0
//,-43
//,98
//,176
//,106
//,140
//,24
//,-76
//,407
//,-4
//,-35
//,189
//,141
//,101
//,207
//,83
//,133
//,187
//,39
//,154
//,21
//,40
//,27
//,24
//,198
//,-58
//,140
//,90
//,73
//,-150
//,174
//,-31
//,128
//,64
//,-18
//,79
//,5
//,-100
//,79
//,223
//,17
//,-48
//,-39
//,-116
//,84
//,79
//,58
//,-89
//,92
//,-64
//,129
//,119
//,29
//,-49
//,140
//,135
//,128
//,124
//,17
//,-18
//,11
//,-53
//,34
//,-57
//,-49
//,135
//,57
//,-75
//,91
//,50
//,125
//,-1217
//,-105
//,80
//,62
//,-24
//,-44
//,143
//,142
//,97
//,125
//,342
//,-255
//,110
//,158
//,-79
//,55
//,251
//,199
//,83
//,-63
//,50
//,44
//,120
//,-286
//,126
//,-4
//,-34
//,30
//,-30
//,118
//,25
//,164
//,84
//,9
//,154
//,72
//,138
//,249
//,25
//,98
//,92
//,96
//,148
//,46
//,-77
//,69
//,61
//,92
//,182
//,2
//,75
//,-68
//,-78
//,-19
//,-20
//,-111
//,161
//,-53
//,132
//,34
//,78
//,125
//,-249
//,5
//,-56
//,-149
//,25
//,101
//,-213
//,115
//,86
//,-57
//,20
//,101
//,-30
//,-206
//,-80
//,53
//,52
//,115
//,59
//,126
//,114
//,56
//,12
//,63
//,338
//,83
//,140
//,22
//,124
//,0
//,40
//,118
//,-251
//,134
//,80
//,-47
//,78
//,-83
//,-204
//,20
//,116
//,75
//,-11
//,65
//,16
//,-115
//,113
//,202
//,-52
//,84
//,-60
//,15
//,115
//,68
//,-93
//,5
//,-82
//,73
//,-15
//,-62
//,211
//,114
//,-410
//,1
//,125
//,137
//,156
//,-79
//,22
//,-58
//,89
//,34
//,35
//,80
//,124
//,132
//,-72
//,113
//,86
//,18
//,-17
//,251
//,154
//,-64
//,153
//,-67
//,-428
//,26
//,-55
//,96
//,152
//,127
//,138
//,93
//,209
//,-27
//,272
//,-57
//,221
//,92
//,2
//,-57
//,-28
//,-68
//,-57
//,18
//,143
//,88
//,-337
//,101
//,193
//,6
//,125
//,-27
//,-10
//,46
//,78
//,128
//,156
//,214
//,136
//,70
//,74
//,246
//,117
//,51
//,25
//,127
//,-18
//,139
//,252
//,-54
//,-6
//,-3
//,157
//,84
//,-102
//,51
//,244
//,205
//,185
//,-53
//,169
//,293
//,12
//,74
//,-30
//,-49
//,-10
//,40
//,-39
//,-3
//,-6
//,-214
//,135
//,-94
//,-98
//,15
//,149
//,30
//,-43
//,250
//,142
//,119
//,111
//,93
//,-34
//,-30
//,-79
//,102
//,150
//,20
//,127
//,-98
//,168
//,349
//,147
//,285
//,159
//,159
//,-117
//,-1113
//,99
//,155
//,138
//,214
//,-20
//,28
//,203
//,49
//,-88
//,99
//,-33
//,46
//,112
//,-177
//,54
//,221
//,94
//,-21
//,38
//,135
//,87
//,-136
//,115
//,-35
//,36
//,168
//,54
//,187
//,1
//,193
//,98
//,-35
//,-26
//,14
//,23
//,112
//,112
//,-84
//,99
//,210
//,-42
//,-137
//,-49
//,86
//,86
//,35
//,98
//,-52
//,48
//,-34
//,80
//,73
//,73
//,44
//,106
//,101
//,-99
//,-70
//,-5
//,87
//,-17
//,130
//,116
//,103
//,70
//,139
//,98
//,-227
//,81
//,74
//,29
//,61
//,78
//,78
//,18
//,112
//,121
//,184
//,97
//,36
//,265
//,256
//,69
//,-68
//,-9
//,56
//,-7
//,9
//,-182
//,-28
//,250
//,87
//,44
//,113
//,58
//,7
//,-21
//,-142
//,-22
//,-93
//,-32
//,118
//,49
//,-78
//,-21
//,6
//,24
//,-62
//,8
//,147
//,56
//,1
//,99
//,147
//,128
//,105
//,52
//,41
//,48
//,46
//,42
//,125
//,183
//,76
//,99
//,136
//,109
//,62
//,-110
//,-12
//,78
//,110
//,3
//,100
//,49
//,-38
//,75
//,-77
//,16
//,166
//,438
//,-99
//,-41
//,-176
//,91
//,68
//,113
//,141
//,-72
//,31
//,61
//,71
//,90
//,189
//,160
//,52
//,86
//,33
//,-8
//,115
//,51
//,147
//,-30
//,-40
//,-138
//,-56
//,4
//,-63
//,46
//,158
//,22
//,178
//,184
//,-21
//,177
//,56
//,116
//,282
//,70
//,0
//,-49
//,-32
//,-67
//,124
//,122
//,161
//,-79
//,177
//,-75
//,-11
//,90
//,-163
//,25
//,-103
//,64
//,110
//,-73
//,96
//,49
//,-120
//,20
//,37
//,-143
//,44
//,-191
//,44
//,99
//,186
//,-58
//,96
//,-42
//,-114
//,58
//,69
//,12
//,136
//,25
//,-53
//,106
//,-16
//,45
//,270
//,4
//,-36
//,75
//,113
//,68
//,90
//,-46
//,-23
//,-16
//,130
//,111
//,56
//,-32
//,-25
//,103
//,96
//,53
//,-120
//,-61
//,153
//,64
//,136
//,86
//,-48
//,-49
//,55
//,85
//,63
//,60
//,231
//,74
//,105
//,-51
//,75
//,61
//,42
//,123
//,37
//,165
//,202
//,103
//,-2
//,-131
//,30
//,-78
//,28
//,0
//,47
//,-19
//,112
//,-36
//,78
//,150
//,53
//,71
//,-21
//,132
//,122
//,-59
//,-602
//,119
//,-12
//,305
//,-38
//,257
//,47
//,146
//,12
//,85
//,142
//,64
//,18
//,32
//,-51
//,43
//,135
//,208
//,71
//,131
//,132
//,150
//,102
//,28
//,-80
//,113
//,-52
//,-52
//,-77
//,122
//,6
//,10
//,178
//,152
//,-37
//,119
//,186
//,23
//,226
//,-3
//,52
//,18
//,13
//,-101
//,-12
//,56
//,124
//,64
//,-97
//,-104
//,-64
//,82
//,133
//,91
//,20
//,177
//,83
//,96
//,32
//,48
//,79
//,202
//,62
//,87
//,33
//,152
//,-87
//,496
//,-7
//,345
//,19
//,-59
//,35
//,-63
//,72
//,123
//,36
//,36
//,-83
//,138
//,-61
//,217
//,93
//,23
//,176
//,224
//,59
//,-72
//,51
//,71
//,18
//,178
//,67
//,47
//,52
//,143
//,243
//,-37
//,173
//,118
//,71
//,138
//,31
//,129
//,100
//,105
//,79
//,131
//,122
//,-108
//,-113
//,-46
//,70
//,-51
//,215
//,168
//,-31
//,-97
//,92
//,43
//,-20
//,206
//,33
//,-58
//,68
//,124
//,64
//,65
//,59
//,439
//,230
//,96
//,-34
//,68
//,143
//,82
//,-79
//,112
//,137
//,56
//,186
//,139
//,-10
//,-65
//,91
//,56
//,1
//,0
//,-477
//,-187
//,-174
//,-181
//,67
//,-103
//,-361
//,-151
//,65
//,-156
//,-85
//,-206
//,-314
//,-212
//,-420
//,-390
//,-199
//,-40
//,135
//,-223
//,-95
//,-347
//,-931
//,-102
//,5
//,5
//,-249
//,-147
//,-128
//,-300
//,-444
//,-251
//,-12
//,-289
//,-217
//,-293
//,-219
//,-118
//,15
//,-246
//,338
//,-268
//,-31
//,-286
//,-157
//,-163
//,-199
//,-387
//,81
//,-159
//,-75
//,-340
//,-393
//,-81
//,-8
//,-330
//,-294
//,-125
//,-234
//,-42
//,-290
//,-58
//,-522
//,-128
//,-465
//,-427
//,17
//,-417
//,-121
//,-107
//,-145
//,-201
//,-97
//,-280
//,-194
//,-71
//,8
//,-161
//,-406
//,-361
//,-208
//,119
//,-233
//,-213
//,18
//,92
//,74
//,-415
//,-89
//,-371
//,-743
//,-114
//,-252
//,18
//,-123
//,-281
//,-285
//,-311
//,-220
//,-121
//,-183
//,-124
//,-435
//,-203
//,90
//,-291
//,-398
//,-200
//,-63
//,-205
//,-39
//,-145
//,-123
//,167
//,-110
//,-217
//,-301
//,-220
//,30
//,-276
//,-166
//,-143
//,-138
//,-118
//,-27
//,-718
//,-320
//,-160
//,-195
//,-350
//,-189
//,-95
//,-250
//,-387
//,-6
//,-188
//,-96
//,-169
//,-39
//,-245
//,-291
//,-136
//,-211
//,-301
//,-253
//,69
//,-259
//,-308
//,-196
//,-2
//,-207
//,-413
//,-845
//,219
//,-245
//,-200
//,-310
//,-58
//,-207
//,-151
//,-100
//,-465
//,-341
//,-304
//,-184
//,-135
//,-43
//,-99
//,-50
//,1
//,-48
//,-278
//,-5
//,22
//,-407
//,-233
//,-247
//,-24
//,-115
//,-138
//,-249
//,-96
//,-239
//,-247
//,967
//,-203
//,-221
//,-211
//,52
//,-295
//,-257
//,-109
//,-254
//,-257
//,-95
//,218
//,-239
//,-111
//,-28
//,-103
//,-60
//,-425
//,-87
//,-150
//,-241
//,-223
//,8
//,-161
//,8
//,-123
//,-175
//,-263
//,-130
//,-339
//,27
//,-384
//,-123
//,-52
//,-254
//,-118
//,-90
//,85
//,-258
//,-290
//,-301
//,-194
//,-15
//,-447
//,-206
//,21
//,-191
//,-357
//,-277
//,-263
//,-163
//,-47
//,9
//,-152
//,-423
//,-2324
//,7127
//,-2904
//,-4008
//,-1191
//,-536
//,-1709
//,-2609
//,-4185
//,-2943
//,-6503
//,-2529
//,-3289
//,-749
//,-4901
//,-5109
//,-2585
//,-1667
//,5017
//,-2041
//,-4543
//,-1366
//,-4149
//,-3514
//,-2302
//,-4939
//,-3052
//,-2590
//,5177
//,-2057
//,-1044
//,-4134
//,-2727
//,-4433
//,-2628
//,-927
//,-2854
//,-3751
//,-2602
//,-2678
//,-2013
//,-16011
//,-3174
//,-2892
//,-90
//,-1989
//,-4615
//,-2414
//,-1683
//,-3232
//,-3054
//,-2664
//,-2976
//,-2485
//,-4415
//,-3809
//,-6591
//,-5802
//,-4004
//,-3801
//,-1858
//,-4470
//,-3435
//,-2633
//,-5218
//,-1201
//,-4166
//,-1149
//,-3107
//,1878
//,-2494
//,-2623
//,-3478
//,-2798
//,-1714
//,-2666
//,-1983
//,-3627
//,-3713
//,-4063
//,-1389
//,-1819
//,-2078
//,-3026
//,-3923
//,-4381
//,-7142
//,-2991
//,968
//,-3305
//,-1013
//,-3923
//,-2936
//,-2533
//,-4286
//,-4117
//,-2352
//,-4529
//,-3863
//,-3718
//,-3963
//,-2582
//,-3276
//,-2258
//,-741
//,-3427
//,-3374
//,-3097
//,-3789
//,-3731
//,-2753
//,-3856
//,-1872
//,-1789
//,-2379
//,-4001
//,-4186
//,-1931
//,-4651
//,-2914
//,-4081
//,-4106
//,-4725
//,-3397
//,-3593
//,-1844
//,-4707
//,-7479
//,-1779
//,-3740
//,-5946
//,-3172
//,-7009
//,-2720
//,-4682
//,-4289
//,-3262
//,-3502
//,-2375
//,-2286
//,-4023
//,-2944
//,-7585
//,-2573
//,-4957
//,-3269
//,-771
//,-1925
//,-4582
//,-4632
//,-5811
//,-3038
//,-3611
//,-3154
//,-3160
//,-4056
//,-4799
//,-2261
//,-5581
//,-3258
//,-3264
//,-1617
//,-2983
//,-3785
//,-2220
//,-2099
//,-1581
//,-3016
//,-1640
//,-4446
//,-3577
//,-4651
//,-2161
//,-2141
//,-1554
//,-2930
//,-4200
//,-3892
//,-5241
//,-2964
//,-2372
//,-6691
//,-5754
//,-3037
//,-1646
//,-3364
//,-3427
//,-2366
//,-3862
//,-5332
//,-508
//,-3027
//,-2351
//,-5598
//,-3992
//,-2693
//,-4007
//,-3318
//,-4001
//,-4792
//,-2708
//,-5002
//,-3383
//,-5235
//,-2699
//,-2630
//,-3483
//,-4219
//,-2621
//,-3339
//,-3891
//,-1766
//,-2396
//,-3211
//,-3811
//,-4345
//,-4270
//,-2835
//,-4038
//,-2644
//,-4245
//,-4709
//,-5010
//,-3935
//,-2776
//,-1975
//,-1183
//,-3274
//,-2147
//,-3893
//,-2489
//,-3714
//,-3727
//,-4284
//,-2367
//,-5307
//,-2878
//,-5673
//,-2919
//,-2598
//,-5907
//,-2161
//,-4877
//,-3832
//,-3744
//,-2162
//,-3359
//,-3116
//,-2305
//,-3787
//,-3791
//,-2515
//,-3035
//,-4629
//,-4165
//,-5164
//,-7581
//,-3689
//,-2717
//,-3107
//,-2762
//,-2498
//,-3322
//,-2493
//,-1470
//,-3839
//,-2798
//,-3026
//,-3785
//,-4144
//,-4190
//,-2400
//,-4687
//,-4012
//,-4677
//,-3026
//,-5152
//,-2860
//,-3394
//,-5116
//,-3806
//,-3449
//,-4631
//,-2755
//,-4565
//,-9252
//,-2190
//,-1078
//,-821
//,-3754
//,-3992
//,-3233
//,-4327
//,-3876
//,-3977
//,-3755
//,-3191
//,-3125
//,-3078
//,-7177
//,-3868
//,-4659
//,-1723
//,-2469
//,-2688
//,-4155
//,-3160
//,-5455
//,-2571
//,5800
//,-3164
//,-3892
//,-4681
//,-2936
//,-2587
//,-3263
//,-2921
//,-2993
//,-3317
//,-3776
//,129
//,-4743
//,-1327
//,-1583
//,-2776
//,-2693
//,-4086
//,-4424
//,-3800
//,-4145
//,-1391
//,-2758
//,-4319
//,-4257
//,-4341
//,-3726
//,-4238
//,-3693
//,-2460
//,-3669
//,-3102
//,-2538
//,-4067
//,-5195
//,-3334
//,-3046
//,-3818
//,-340
//,-3967
//,-2971
//,-2365
//,-5128
//,-2344
//,-1914
//,-4136
//,-2267
//,-2751
//,-5310
//,-3968
//,-3732
//,-3666
//,-1820
//,-2299
//,-2764
//,-1560
//,-5359
//,-2573
//,-2629
//,-8
//,-3256
//,-1960
//,-3046
//,-2438
//,-1722
//,-2122
//,-4189
//,-3607
//,-4151
//,-3453
//,-3826
//,-2805
//,-3579
//,-6346
//,-3752
//,-3721
//,-3511
//,-2453
//,-2203
//,-2248
//,-1765
//,-2130
//,-3291
//,-4514
//,-2883
//,-4675
//,-4432
//,-3390
//,-5106
//,-3313
//,-2314
//,-5990
//,-882
//,-3180
//,-3435
//,-2999
//,-4979
//,-5245
//,-3069
//,-2890
//,-2810
//,-4058
//,-4711
//,-4248
//,-3646
//,-2963
//,-2929
//,-5320
//,-3391
//,-1863
//,-3391
//,2315
//,-5034
//,-5031
//,-3201
//,-3400
//,-6107
//,-2271
//,-3457
//,-4515
//,-2882
//,-1478
//,-2667
//,-4047
//,-4638
//,-4471
//,-3921
//,-1241
//,-3347
//,-3796
//,-3046
//,-3967
//,-4744
//,-4292
//,-2543
//,-4346
//,-2758
//,-3453
//,-3354
//,-3809
//,-4836
//,-1233
//,-3474
//,-4790
//,-4467
//,-3810
//,-2383
//,-3059
//,-3735
//,-6244
//,-4960
//,-2845
//,1226
//,-4491
//,-4559
//,-4246
//,-2556
//,-4123
//,-3181
//,-1881
//,-3196
//,-4694
//,-8172
//,-3392
//,-3522
//,-825
//,-3297
//,-1358
//,-2000
//,-4549
//,-3552
//,-2353
//,-3872
//,-4649
//,-4343
//,-5066
//,-3880
//,-5816
//,-4246
//,-2327
//,-5638
//,-2805
//,-3016
//,-4511
//,-6397
//,-4952
//,-4864
//,-4717
//,-2197
//,-2974
//,-3396
//,-4460
